{"learner":{"attributes":{"scikit_learn":"{\"_estimator_type\": \"regressor\"}"},"feature_names":["dayofyear","quarter","month","year","weekofyear"],"feature_types":["int","int","int","int","i"],"gradient_booster":{"model":{"gbtree_model_param":{"num_parallel_tree":"1","num_trees":"800"},"iteration_indptr":[0,1,2,3,4,5,6,7,8,9,10,11,12,13,14,15,16,17,18,19,20,21,22,23,24,25,26,27,28,29,30,31,32,33,34,35,36,37,38,39,40,41,42,43,44,45,46,47,48,49,50,51,52,53,54,55,56,57,58,59,60,61,62,63,64,65,66,67,68,69,70,71,72,73,74,75,76,77,78,79,80,81,82,83,84,85,86,87,88,89,90,91,92,93,94,95,96,97,98,99,100,101,102,103,104,105,106,107,108,109,110,111,112,113,114,115,116,117,118,119,120,121,122,123,124,125,126,127,128,129,130,131,132,133,134,135,136,137,138,139,140,141,142,143,144,145,146,147,148,149,150,151,152,153,154,155,156,157,158,159,160,161,162,163,164,165,166,167,168,169,170,171,172,173,174,175,176,177,178,179,180,181,182,183,184,185,186,187,188,189,190,191,192,193,194,195,196,197,198,199,200,201,202,203,204,205,206,207,208,209,210,211,212,213,214,215,216,217,218,219,220,221,222,223,224,225,226,227,228,229,230,231,232,233,234,235,236,237,238,239,240,241,242,243,244,245,246,247,248,249,250,251,252,253,254,255,256,257,258,259,260,261,262,263,264,265,266,267,268,269,270,271,272,273,274,275,276,277,278,279,280,281,282,283,284,285,286,287,288,289,290,291,292,293,294,295,296,297,298,299,300,301,302,303,304,305,306,307,308,309,310,311,312,313,314,315,316,317,318,319,320,321,322,323,324,325,326,327,328,329,330,331,332,333,334,335,336,337,338,339,340,341,342,343,344,345,346,347,348,349,350,351,352,353,354,355,356,357,358,359,360,361,362,363,364,365,366,367,368,369,370,371,372,373,374,375,376,377,378,379,380,381,382,383,384,385,386,387,388,389,390,391,392,393,394,395,396,397,398,399,400,401,402,403,404,405,406,407,408,409,410,411,412,413,414,415,416,417,418,419,420,421,422,423,424,425,426,427,428,429,430,431,432,433,434,435,436,437,438,439,440,441,442,443,444,445,446,447,448,449,450,451,452,453,454,455,456,457,458,459,460,461,462,463,464,465,466,467,468,469,470,471,472,473,474,475,476,477,478,479,480,481,482,483,484,485,486,487,488,489,490,491,492,493,494,495,496,497,498,499,500,501,502,503,504,505,506,507,508,509,510,511,512,513,514,515,516,517,518,519,520,521,522,523,524,525,526,527,528,529,530,531,532,533,534,535,536,537,538,539,540,541,542,543,544,545,546,547,548,549,550,551,552,553,554,555,556,557,558,559,560,561,562,563,564,565,566,567,568,569,570,571,572,573,574,575,576,577,578,579,580,581,582,583,584,585,586,587,588,589,590,591,592,593,594,595,596,597,598,599,600,601,602,603,604,605,606,607,608,609,610,611,612,613,614,615,616,617,618,619,620,621,622,623,624,625,626,627,628,629,630,631,632,633,634,635,636,637,638,639,640,641,642,643,644,645,646,647,648,649,650,651,652,653,654,655,656,657,658,659,660,661,662,663,664,665,666,667,668,669,670,671,672,673,674,675,676,677,678,679,680,681,682,683,684,685,686,687,688,689,690,691,692,693,694,695,696,697,698,699,700,701,702,703,704,705,706,707,708,709,710,711,712,713,714,715,716,717,718,719,720,721,722,723,724,725,726,727,728,729,730,731,732,733,734,735,736,737,738,739,740,741,742,743,744,745,746,747,748,749,750,751,752,753,754,755,756,757,758,759,760,761,762,763,764,765,766,767,768,769,770,771,772,773,774,775,776,777,778,779,780,781,782,783,784,785,786,787,788,789,790,791,792,793,794,795,796,797,798,799,800],"tree_info":[0,0,0,0,0,0,0,0,0,0,0,0,0,0,0,0,0,0,0,0,0,0,0,0,0,0,0,0,0,0,0,0,0,0,0,0,0,0,0,0,0,0,0,0,0,0,0,0,0,0,0,0,0,0,0,0,0,0,0,0,0,0,0,0,0,0,0,0,0,0,0,0,0,0,0,0,0,0,0,0,0,0,0,0,0,0,0,0,0,0,0,0,0,0,0,0,0,0,0,0,0,0,0,0,0,0,0,0,0,0,0,0,0,0,0,0,0,0,0,0,0,0,0,0,0,0,0,0,0,0,0,0,0,0,0,0,0,0,0,0,0,0,0,0,0,0,0,0,0,0,0,0,0,0,0,0,0,0,0,0,0,0,0,0,0,0,0,0,0,0,0,0,0,0,0,0,0,0,0,0,0,0,0,0,0,0,0,0,0,0,0,0,0,0,0,0,0,0,0,0,0,0,0,0,0,0,0,0,0,0,0,0,0,0,0,0,0,0,0,0,0,0,0,0,0,0,0,0,0,0,0,0,0,0,0,0,0,0,0,0,0,0,0,0,0,0,0,0,0,0,0,0,0,0,0,0,0,0,0,0,0,0,0,0,0,0,0,0,0,0,0,0,0,0,0,0,0,0,0,0,0,0,0,0,0,0,0,0,0,0,0,0,0,0,0,0,0,0,0,0,0,0,0,0,0,0,0,0,0,0,0,0,0,0,0,0,0,0,0,0,0,0,0,0,0,0,0,0,0,0,0,0,0,0,0,0,0,0,0,0,0,0,0,0,0,0,0,0,0,0,0,0,0,0,0,0,0,0,0,0,0,0,0,0,0,0,0,0,0,0,0,0,0,0,0,0,0,0,0,0,0,0,0,0,0,0,0,0,0,0,0,0,0,0,0,0,0,0,0,0,0,0,0,0,0,0,0,0,0,0,0,0,0,0,0,0,0,0,0,0,0,0,0,0,0,0,0,0,0,0,0,0,0,0,0,0,0,0,0,0,0,0,0,0,0,0,0,0,0,0,0,0,0,0,0,0,0,0,0,0,0,0,0,0,0,0,0,0,0,0,0,0,0,0,0,0,0,0,0,0,0,0,0,0,0,0,0,0,0,0,0,0,0,0,0,0,0,0,0,0,0,0,0,0,0,0,0,0,0,0,0,0,0,0,0,0,0,0,0,0,0,0,0,0,0,0,0,0,0,0,0,0,0,0,0,0,0,0,0,0,0,0,0,0,0,0,0,0,0,0,0,0,0,0,0,0,0,0,0,0,0,0,0,0,0,0,0,0,0,0,0,0,0,0,0,0,0,0,0,0,0,0,0,0,0,0,0,0,0,0,0,0,0,0,0,0,0,0,0,0,0,0,0,0,0,0,0,0,0,0,0,0,0,0,0,0,0,0,0,0,0,0,0,0,0,0,0,0,0,0,0,0,0,0,0,0,0,0,0,0,0,0,0,0,0,0,0,0,0,0,0,0,0,0,0,0,0,0,0,0,0,0,0,0,0,0,0,0,0,0,0,0,0,0,0,0,0,0,0,0,0,0,0,0,0,0,0,0,0,0,0,0,0,0,0,0,0,0,0,0,0,0,0,0,0,0,0,0,0,0,0,0,0,0,0,0,0,0,0,0,0,0,0,0,0,0,0,0,0,0,0,0,0,0,0,0,0,0,0,0,0,0,0,0,0,0,0,0,0,0,0,0,0,0,0,0,0,0,0,0,0,0,0,0,0,0,0,0,0,0,0,0,0,0,0,0,0,0,0,0,0,0,0,0,0,0,0,0,0,0,0,0,0,0,0,0,0,0,0,0],"trees":[{"base_weights":[1.3008678E1,1.5740588E1,1.0407579E1,1.4729721E1,1.96054E1,1.3636938E1,9.539733E0,1.9185372E-1,1.3165179E-1,2.1063486E-1,1.8082395E-1,1.4590916E-1,1.2086082E-1,8.1615E-2,1.3047022E-1],"categories":[],"categories_nodes":[],"categories_segments":[],"categories_sizes":[],"default_left":[0,0,0,0,0,0,0,0,0,0,0,0,0,0,0],"id":0,"left_children":[1,3,5,7,9,11,13,-1,-1,-1,-1,-1,-1,-1,-1],"loss_changes":[4.2450688E4,1.11308125E4,8.487875E3,1.592725E4,9.582031E2,7.8384375E2,1.1625281E4,0E0,0E0,0E0,0E0,0E0,0E0,0E0,0E0],"parents":[2147483647,0,0,1,1,2,2,3,3,4,4,5,5,6,6],"right_children":[2,4,6,8,10,12,14,-1,-1,-1,-1,-1,-1,-1,-1],"split_conditions":[2.008E3,2.91E2,7.3E1,7.6E1,2.004E3,4.5E1,2.81E2,1.9185372E-1,1.3165179E-1,2.1063486E-1,1.8082395E-1,1.4590916E-1,1.2086082E-1,8.1615E-2,1.3047022E-1],"split_indices":[3,0,0,0,3,0,0,0,0,0,0,0,0,0,0],"split_type":[0,0,0,0,0,0,0,0,0,0,0,0,0,0,0],"sum_hessian":[5.996E3,2.922E3,3.074E3,2.32E3,6.02E2,6.48E2,2.426E3,6E2,1.72E3,3.01E2,3.01E2,3.96E2,2.52E2,1.744E3,6.82E2],"tree_param":{"num_deleted":"0","num_feature":"5","num_nodes":"15","size_leaf_vector":"1"}},{"base_weights":[1.2878791E1,1.5583426E1,1.0303659E1,1.4582562E1,1.9409996E1,1.3500979E1,9.444424E0,1.8993835E-1,1.3033603E-1,2.0853548E-1,1.790217E-1,1.4445375E-1,1.1965699E-1,8.079931E-2,1.2916742E-1],"categories":[],"categories_nodes":[],"categories_segments":[],"categories_sizes":[],"default_left":[0,0,0,0,0,0,0,0,0,0,0,0,0,0,0],"id":1,"left_children":[1,3,5,7,9,11,13,-1,-1,-1,-1,-1,-1,-1,-1],"loss_changes":[4.1607312E4,1.09116875E4,8.320281E3,1.56115625E4,9.392031E2,7.6814844E2,1.1394641E4,0E0,0E0,0E0,0E0,0E0,0E0,0E0,0E0],"parents":[2147483647,0,0,1,1,2,2,3,3,4,4,5,5,6,6],"right_children":[2,4,6,8,10,12,14,-1,-1,-1,-1,-1,-1,-1,-1],"split_conditions":[2.008E3,2.91E2,7.3E1,7.6E1,2.004E3,4.5E1,2.81E2,1.8993835E-1,1.3033603E-1,2.0853548E-1,1.790217E-1,1.4445375E-1,1.1965699E-1,8.079931E-2,1.2916742E-1],"split_indices":[3,0,0,0,3,0,0,0,0,0,0,0,0,0,0],"split_type":[0,0,0,0,0,0,0,0,0,0,0,0,0,0,0],"sum_hessian":[5.996E3,2.922E3,3.074E3,2.32E3,6.02E2,6.48E2,2.426E3,6E2,1.72E3,3.01E2,3.01E2,3.96E2,2.52E2,1.744E3,6.82E2],"tree_param":{"num_deleted":"0","num_feature":"5","num_nodes":"15","size_leaf_vector":"1"}},{"base_weights":[1.2750199E1,1.54278345E1,1.0200776E1,1.4544517E1,1.9689592E1,1.3366377E1,9.350065E0,1.8804213E-1,1.3133764E-1,2.1499777E-1,1.8535733E-1,1.4301285E-1,1.1846515E-1,7.999178E-2,1.2787764E-1],"categories":[],"categories_nodes":[],"categories_segments":[],"categories_sizes":[],"default_left":[0,0,0,0,0,0,0,0,0,0,0,0,0,0,0],"id":2,"left_children":[1,3,5,7,9,11,13,-1,-1,-1,-1,-1,-1,-1,-1],"loss_changes":[4.078075E4,1.07171875E4,8.1560625E3,1.43258125E4,6.4375E2,7.527656E2,1.11685625E4,0E0,0E0,0E0,0E0,0E0,0E0,0E0,0E0],"parents":[2147483647,0,0,1,1,2,2,3,3,4,4,5,5,6,6],"right_children":[2,4,6,8,10,12,14,-1,-1,-1,-1,-1,-1,-1,-1],"split_conditions":[2.008E3,3.04E2,7.3E1,7.6E1,2.003E3,4.5E1,2.81E2,1.8804213E-1,1.3133764E-1,2.1499777E-1,1.8535733E-1,1.4301285E-1,1.1846515E-1,7.999178E-2,1.2787764E-1],"split_indices":[3,0,0,0,3,0,0,0,0,0,0,0,0,0,0],"split_type":[0,0,0,0,0,0,0,0,0,0,0,0,0,0,0],"sum_hessian":[5.996E3,2.922E3,3.074E3,2.424E3,4.98E2,6.48E2,2.426E3,6E2,1.824E3,1.87E2,3.11E2,3.96E2,2.52E2,1.744E3,6.82E2],"tree_param":{"num_deleted":"0","num_feature":"5","num_nodes":"15","size_leaf_vector":"1"}},{"base_weights":[1.2622896E1,1.5273802E1,1.0098922E1,1.42909355E1,1.9031612E1,1.3233116E1,9.256651E0,1.8616486E-1,1.2772082E-1,2.0451906E-1,1.7548299E-1,1.4158632E-1,1.17285185E-1,7.9192325E-2,1.2660074E-1],"categories":[],"categories_nodes":[],"categories_segments":[],"categories_sizes":[],"default_left":[0,0,0,0,0,0,0,0,0,0,0,0,0,0,0],"id":3,"left_children":[1,3,5,7,9,11,13,-1,-1,-1,-1,-1,-1,-1,-1],"loss_changes":[3.9970562E4,1.0523875E4,7.9950312E3,1.5010875E4,9.114844E2,7.377031E2,1.0946953E4,0E0,0E0,0E0,0E0,0E0,0E0,0E0,0E0],"parents":[2147483647,0,0,1,1,2,2,3,3,4,4,5,5,6,6],"right_children":[2,4,6,8,10,12,14,-1,-1,-1,-1,-1,-1,-1,-1],"split_conditions":[2.008E3,2.91E2,7.3E1,7.6E1,2.004E3,4.5E1,2.81E2,1.8616486E-1,1.2772082E-1,2.0451906E-1,1.7548299E-1,1.4158632E-1,1.17285185E-1,7.9192325E-2,1.2660074E-1],"split_indices":[3,0,0,0,3,0,0,0,0,0,0,0,0,0,0],"split_type":[0,0,0,0,0,0,0,0,0,0,0,0,0,0,0],"sum_hessian":[5.996E3,2.922E3,3.074E3,2.32E3,6.02E2,6.48E2,2.426E3,6E2,1.72E3,3.01E2,3.01E2,3.96E2,2.52E2,1.744E3,6.82E2],"tree_param":{"num_deleted":"0","num_feature":"5","num_nodes":"15","size_leaf_vector":"1"}},{"base_weights":[1.24968605E1,1.5121302E1,9.998083E0,1.4254403E1,1.9303879E1,1.3101184E1,9.164169E0,1.843063E-1,1.2871298E-1,2.108249E-1,1.8170281E-1,1.4017402E-1,1.1611697E-1,7.840085E-2,1.2533657E-1],"categories":[],"categories_nodes":[],"categories_segments":[],"categories_sizes":[],"default_left":[0,0,0,0,0,0,0,0,0,0,0,0,0,0,0],"id":4,"left_children":[1,3,5,7,9,11,13,-1,-1,-1,-1,-1,-1,-1,-1],"loss_changes":[3.9176438E4,1.032325E4,7.8371875E3,1.3769969E4,6.230156E2,7.2291406E2,1.072975E4,0E0,0E0,0E0,0E0,0E0,0E0,0E0,0E0],"parents":[2147483647,0,0,1,1,2,2,3,3,4,4,5,5,6,6],"right_children":[2,4,6,8,10,12,14,-1,-1,-1,-1,-1,-1,-1,-1],"split_conditions":[2.008E3,3.04E2,7.3E1,7.6E1,2.003E3,4.5E1,2.81E2,1.843063E-1,1.2871298E-1,2.108249E-1,1.8170281E-1,1.4017402E-1,1.1611697E-1,7.840085E-2,1.2533657E-1],"split_indices":[3,0,0,0,3,0,0,0,0,0,0,0,0,0,0],"split_type":[0,0,0,0,0,0,0,0,0,0,0,0,0,0,0],"sum_hessian":[5.996E3,2.922E3,3.074E3,2.424E3,4.98E2,6.48E2,2.426E3,6E2,1.824E3,1.87E2,3.11E2,3.96E2,2.52E2,1.744E3,6.82E2],"tree_param":{"num_deleted":"0","num_feature":"5","num_nodes":"15","size_leaf_vector":"1"}},{"base_weights":[1.2372086E1,1.531218E1,1.0182221E1,1.4445462E1,1.9591768E1,1.3296381E1,9.338446E0,1.9497314E-1,1.3316801E-1,2.0946534E-1,1.8494344E-1,1.5738991E-1,1.2659867E-1,7.986416E-2,1.2746851E-1],"categories":[],"categories_nodes":[],"categories_segments":[],"categories_sizes":[],"default_left":[0,0,0,0,0,0,0,0,0,0,0,0,0,0,0],"id":5,"left_children":[1,3,5,7,9,11,13,-1,-1,-1,-1,-1,-1,-1,-1],"loss_changes":[3.8455125E4,9.205125E3,8.9149375E3,1.18909375E4,2.4895312E2,9.372578E2,1.2386609E4,0E0,0E0,0E0,0E0,0E0,0E0,0E0,0E0],"parents":[2147483647,0,0,1,1,2,2,3,3,4,4,5,5,6,6],"right_children":[2,4,6,8,10,12,14,-1,-1,-1,-1,-1,-1,-1,-1],"split_conditions":[2.007E3,1.1E1,7.4E1,9E0,2.003E3,2.009E3,2.81E2,1.9497314E-1,1.3316801E-1,2.0946534E-1,1.8494344E-1,1.5738991E-1,1.2659867E-1,7.986416E-2,1.2746851E-1],"split_indices":[3,2,0,4,3,3,0,0,0,0,0,0,0,0,0],"split_type":[0,0,0,0,0,0,0,0,0,0,0,0,0,0,0],"sum_hessian":[5.996E3,2.557E3,3.439E3,2.13E3,4.27E2,7.3E2,2.709E3,3.86E2,1.744E3,1.83E2,2.44E2,1.46E2,5.84E2,1.942E3,7.67E2],"tree_param":{"num_deleted":"0","num_feature":"5","num_nodes":"15","size_leaf_vector":"1"}},{"base_weights":[1.2248568E1,1.4823282E1,9.79714E0,1.3857546E1,1.8454912E1,1.28678465E1,8.986364E0,1.8071224E-1,1.2371102E-1,1.9859703E-1,1.6989812E-1,1.3747889E-1,1.13832355E-1,7.6982364E-2,1.22812234E-1],"categories":[],"categories_nodes":[],"categories_segments":[],"categories_sizes":[],"default_left":[0,0,0,0,0,0,0,0,0,0,0,0,0,0,0],"id":6,"left_children":[1,3,5,7,9,11,13,-1,-1,-1,-1,-1,-1,-1,-1],"loss_changes":[3.770625E4,9.9958125E3,7.5400312E3,1.4263656E4,9.201094E2,6.796719E2,1.0244328E4,0E0,0E0,0E0,0E0,0E0,0E0,0E0,0E0],"parents":[2147483647,0,0,1,1,2,2,3,3,4,4,5,5,6,6],"right_children":[2,4,6,8,10,12,14,-1,-1,-1,-1,-1,-1,-1,-1],"split_conditions":[2.008E3,2.9E2,7.2E1,7.6E1,2.004E3,4.5E1,2.81E2,1.8071224E-1,1.2371102E-1,1.9859703E-1,1.6989812E-1,1.3747889E-1,1.13832355E-1,7.6982364E-2,1.22812234E-1],"split_indices":[3,0,0,0,3,0,0,0,0,0,0,0,0,0,0],"split_type":[0,0,0,0,0,0,0,0,0,0,0,0,0,0,0],"sum_hessian":[5.996E3,2.922E3,3.074E3,2.312E3,6.1E2,6.39E2,2.435E3,6E2,1.712E3,3.05E2,3.05E2,3.96E2,2.43E2,1.753E3,6.82E2],"tree_param":{"num_deleted":"0","num_feature":"5","num_nodes":"15","size_leaf_vector":"1"}},{"base_weights":[1.2126269E1,1.5010916E1,9.977708E0,1.4160325E1,1.9210909E1,1.3031548E1,9.150278E0,1.9186662E-1,1.3065548E-1,2.054069E-1,1.8133806E-1,1.4226922E-1,1.1800567E-1,7.824614E-2,1.2492225E-1],"categories":[],"categories_nodes":[],"categories_segments":[],"categories_sizes":[],"default_left":[0,0,0,0,0,0,0,0,0,0,0,0,0,0,0],"id":7,"left_children":[1,3,5,7,9,11,13,-1,-1,-1,-1,-1,-1,-1,-1],"loss_changes":[3.7018688E4,8.866375E3,8.5730625E3,1.1475625E4,2.4054688E2,9.0777344E2,1.1908375E4,0E0,0E0,0E0,0E0,0E0,0E0,0E0,0E0],"parents":[2147483647,0,0,1,1,2,2,3,3,4,4,5,5,6,6],"right_children":[2,4,6,8,10,12,14,-1,-1,-1,-1,-1,-1,-1,-1],"split_conditions":[2.007E3,1.1E1,7.4E1,5.5E1,2.003E3,2.012E3,2.81E2,1.9186662E-1,1.3065548E-1,2.054069E-1,1.8133806E-1,1.4226922E-1,1.1800567E-1,7.824614E-2,1.2492225E-1],"split_indices":[3,2,0,0,3,3,0,0,0,0,0,0,0,0,0],"split_type":[0,0,0,0,0,0,0,0,0,0,0,0,0,0,0],"sum_hessian":[5.996E3,2.557E3,3.439E3,2.13E3,4.27E2,7.3E2,2.709E3,3.78E2,1.752E3,1.83E2,2.44E2,3.65E2,3.65E2,1.942E3,7.67E2],"tree_param":{"num_deleted":"0","num_feature":"5","num_nodes":"15","size_leaf_vector":"1"}},{"base_weights":[1.2005202E1,1.4531431E1,9.599943E0,1.3582846E1,1.809861E1,1.2584581E1,8.797871E0,1.772064E-1,1.2123186E-1,1.9476719E-1,1.6661353E-1,1.3482292E-1,1.1126181E-1,7.5876795E-2,1.22011356E-1],"categories":[],"categories_nodes":[],"categories_segments":[],"categories_sizes":[],"default_left":[0,0,0,0,0,0,0,0,0,0,0,0,0,0,0],"id":8,"left_children":[1,3,5,7,9,11,13,-1,-1,-1,-1,-1,-1,-1,-1],"loss_changes":[3.6299688E4,9.6449375E3,7.2505312E3,1.3755156E4,8.857031E2,6.996797E2,9.903266E3,0E0,0E0,0E0,0E0,0E0,0E0,0E0,0E0],"parents":[2147483647,0,0,1,1,2,2,3,3,4,4,5,5,6,6],"right_children":[2,4,6,8,10,12,14,-1,-1,-1,-1,-1,-1,-1,-1],"split_conditions":[2.008E3,2.9E2,7.3E1,7.6E1,2.004E3,4.5E1,2.87E2,1.772064E-1,1.2123186E-1,1.9476719E-1,1.6661353E-1,1.3482292E-1,1.1126181E-1,7.5876795E-2,1.22011356E-1],"split_indices":[3,0,0,0,3,0,0,0,0,0,0,0,0,0,0],"split_type":[0,0,0,0,0,0,0,0,0,0,0,0,0,0,0],"sum_hessian":[5.996E3,2.922E3,3.074E3,2.312E3,6.1E2,6.48E2,2.426E3,6E2,1.712E3,3.05E2,3.05E2,3.96E2,2.52E2,1.792E3,6.34E2],"tree_param":{"num_deleted":"0","num_feature":"5","num_nodes":"15","size_leaf_vector":"1"}},{"base_weights":[1.1885334E1,1.4715581E1,9.777295E0,1.3718299E1,1.816975E1,1.2771565E1,8.966007E0,1.8756695E-1,1.249336E-1,1.6620746E-1,1.9230117E-1,1.3949987E-1,1.1558247E-1,7.66568E-2,1.2244092E-1],"categories":[],"categories_nodes":[],"categories_segments":[],"categories_sizes":[],"default_left":[0,0,0,0,0,0,0,0,0,0,0,0,0,0,0],"id":9,"left_children":[1,3,5,7,9,11,13,-1,-1,-1,-1,-1,-1,-1,-1],"loss_changes":[3.563575E4,8.5625E3,8.242E3,1.204125E4,6.166094E2,8.839453E2,1.1457766E4,0E0,0E0,0E0,0E0,0E0,0E0,0E0,0E0],"parents":[2147483647,0,0,1,1,2,2,3,3,4,4,5,5,6,6],"right_children":[2,4,6,8,10,12,14,-1,-1,-1,-1,-1,-1,-1,-1],"split_conditions":[2.007E3,2.85E2,7.4E1,9E0,3.19E2,2.012E3,2.81E2,1.8756695E-1,1.249336E-1,1.6620746E-1,1.9230117E-1,1.3949987E-1,1.1558247E-1,7.66568E-2,1.2244092E-1],"split_indices":[3,0,0,4,0,3,0,0,0,0,0,0,0,0,0],"split_type":[0,0,0,0,0,0,0,0,0,0,0,0,0,0,0],"sum_hessian":[5.996E3,2.557E3,3.439E3,1.988E3,5.69E2,7.3E2,2.709E3,3.86E2,1.602E3,2.38E2,3.31E2,3.65E2,3.65E2,1.942E3,7.67E2],"tree_param":{"num_deleted":"0","num_feature":"5","num_nodes":"15","size_leaf_vector":"1"}},{"base_weights":[1.1766668E1,1.4245318E1,9.4067135E0,1.3292098E1,1.7658981E1,1.2359291E1,8.627134E0,1.7377166E-1,1.1830631E-1,1.9042848E-1,1.6219582E-1,1.3221914E-1,1.0905107E-1,7.368565E-2,1.1744108E-1],"categories":[],"categories_nodes":[],"categories_segments":[],"categories_sizes":[],"default_left":[0,0,0,0,0,0,0,0,0,0,0,0,0,0,0],"id":10,"left_children":[1,3,5,7,9,11,13,-1,-1,-1,-1,-1,-1,-1,-1],"loss_changes":[3.49455E4,9.276625E3,6.9713125E3,1.34601875E4,9.56E2,6.586406E2,9.469719E3,0E0,0E0,0E0,0E0,0E0,0E0,0E0,0E0],"parents":[2147483647,0,0,1,1,2,2,3,3,4,4,5,5,6,6],"right_children":[2,4,6,8,10,12,14,-1,-1,-1,-1,-1,-1,-1,-1],"split_conditions":[2.008E3,2.87E2,7.2E1,7.6E1,2.004E3,4.5E1,2.79E2,1.7377166E-1,1.1830631E-1,1.9042848E-1,1.6219582E-1,1.3221914E-1,1.0905107E-1,7.368565E-2,1.1744108E-1],"split_indices":[3,0,0,0,3,0,0,0,0,0,0,0,0,0,0],"split_type":[0,0,0,0,0,0,0,0,0,0,0,0,0,0,0],"sum_hessian":[5.996E3,2.922E3,3.074E3,2.288E3,6.34E2,6.39E2,2.435E3,6E2,1.688E3,3.17E2,3.17E2,3.96E2,2.43E2,1.737E3,6.98E2],"tree_param":{"num_deleted":"0","num_feature":"5","num_nodes":"15","size_leaf_vector":"1"}},{"base_weights":[1.1649181E1,1.4426022E1,9.580923E0,1.3606334E1,1.8473518E1,1.2467657E1,8.771438E0,1.8459171E-1,1.2549385E-1,1.9767857E-1,1.7426042E-1,1.36413E-1,1.1260854E-1,7.5404406E-2,1.2167668E-1],"categories":[],"categories_nodes":[],"categories_segments":[],"categories_sizes":[],"default_left":[0,0,0,0,0,0,0,0,0,0,0,0,0,0,0],"id":11,"left_children":[1,3,5,7,9,11,13,-1,-1,-1,-1,-1,-1,-1,-1],"loss_changes":[3.4303875E4,8.2353125E3,7.929125E3,1.0698656E4,2.358125E2,9.100703E2,1.1154469E4,0E0,0E0,0E0,0E0,0E0,0E0,0E0,0E0],"parents":[2147483647,0,0,1,1,2,2,3,3,4,4,5,5,6,6],"right_children":[2,4,6,8,10,12,14,-1,-1,-1,-1,-1,-1,-1,-1],"split_conditions":[2.007E3,1.1E1,7.6E1,5.5E1,2.003E3,2.012E3,2.87E2,1.8459171E-1,1.2549385E-1,1.9767857E-1,1.7426042E-1,1.36413E-1,1.1260854E-1,7.5404406E-2,1.2167668E-1],"split_indices":[3,2,0,0,3,3,0,0,0,0,0,0,0,0,0],"split_type":[0,0,0,0,0,0,0,0,0,0,0,0,0,0,0],"sum_hessian":[5.996E3,2.557E3,3.439E3,2.13E3,4.27E2,7.5E2,2.689E3,3.78E2,1.752E3,1.83E2,2.44E2,3.75E2,3.75E2,1.976E3,7.13E2],"tree_param":{"num_deleted":"0","num_feature":"5","num_nodes":"15","size_leaf_vector":"1"}},{"base_weights":[1.1532878E1,1.3964841E1,9.217378E0,1.3028366E1,1.7318584E1,1.2113079E1,8.452819E0,1.7039867E-1,1.1593233E-1,1.8677025E-1,1.5905681E-1,1.296715E-1,1.067382E-1,7.365301E-2,1.19280405E-1],"categories":[],"categories_nodes":[],"categories_segments":[],"categories_sizes":[],"default_left":[0,0,0,0,0,0,0,0,0,0,0,0,0,0,0],"id":12,"left_children":[1,3,5,7,9,11,13,-1,-1,-1,-1,-1,-1,-1,-1],"loss_changes":[3.3641625E4,8.9545625E3,6.7054688E3,1.2980281E4,9.217031E2,6.482969E2,9.118672E3,0E0,0E0,0E0,0E0,0E0,0E0,0E0,0E0],"parents":[2147483647,0,0,1,1,2,2,3,3,4,4,5,5,6,6],"right_children":[2,4,6,8,10,12,14,-1,-1,-1,-1,-1,-1,-1,-1],"split_conditions":[2.008E3,2.87E2,7.2E1,7.6E1,2.004E3,4.5E1,2.94E2,1.7039867E-1,1.1593233E-1,1.8677025E-1,1.5905681E-1,1.296715E-1,1.067382E-1,7.365301E-2,1.19280405E-1],"split_indices":[3,0,0,0,3,0,0,0,0,0,0,0,0,0,0],"split_type":[0,0,0,0,0,0,0,0,0,0,0,0,0,0,0],"sum_hessian":[5.996E3,2.922E3,3.074E3,2.288E3,6.34E2,6.39E2,2.435E3,6E2,1.688E3,3.17E2,3.17E2,3.96E2,2.43E2,1.857E3,5.78E2],"tree_param":{"num_deleted":"0","num_feature":"5","num_nodes":"15","size_leaf_vector":"1"}},{"base_weights":[1.1417726E1,1.4142172E1,9.388496E0,1.3181474E1,1.7469692E1,1.22198515E1,8.5945425E0,1.8044353E-1,1.1999243E-1,1.5961885E-1,1.850251E-1,1.3376771E-1,1.10304326E-1,7.324014E-2,1.1764636E-1],"categories":[],"categories_nodes":[],"categories_segments":[],"categories_sizes":[],"default_left":[0,0,0,0,0,0,0,0,0,0,0,0,0,0,0],"id":13,"left_children":[1,3,5,7,9,11,13,-1,-1,-1,-1,-1,-1,-1,-1],"loss_changes":[3.302175E4,7.947E3,7.628E3,1.1218344E4,5.923125E2,8.858672E2,1.0748328E4,0E0,0E0,0E0,0E0,0E0,0E0,0E0,0E0],"parents":[2147483647,0,0,1,1,2,2,3,3,4,4,5,5,6,6],"right_children":[2,4,6,8,10,12,14,-1,-1,-1,-1,-1,-1,-1,-1],"split_conditions":[2.007E3,2.85E2,7.6E1,9E0,3.19E2,2.012E3,2.81E2,1.8044353E-1,1.1999243E-1,1.5961885E-1,1.850251E-1,1.3376771E-1,1.10304326E-1,7.324014E-2,1.1764636E-1],"split_indices":[3,0,0,4,0,3,0,0,0,0,0,0,0,0,0],"split_type":[0,0,0,0,0,0,0,0,0,0,0,0,0,0,0],"sum_hessian":[5.996E3,2.557E3,3.439E3,1.988E3,5.69E2,7.5E2,2.689E3,3.86E2,1.602E3,2.38E2,3.31E2,3.75E2,3.75E2,1.922E3,7.67E2],"tree_param":{"num_deleted":"0","num_feature":"5","num_nodes":"15","size_leaf_vector":"1"}},{"base_weights":[1.1303729E1,1.36898775E1,9.031854E0,1.2793413E1,1.7061125E1,1.1846915E1,8.275361E0,1.657322E-1,1.1362472E-1,1.8372078E-1,1.5694417E-1,1.2717377E-1,1.04341865E-1,7.0551194E-2,1.1281831E-1],"categories":[],"categories_nodes":[],"categories_segments":[],"categories_sizes":[],"default_left":[0,0,0,0,0,0,0,0,0,0,0,0,0,0,0],"id":14,"left_children":[1,3,5,7,9,11,13,-1,-1,-1,-1,-1,-1,-1,-1],"loss_changes":[3.2386188E4,8.6156875E3,6.4503906E3,1.2321969E4,8.06375E2,6.6539844E2,8.824156E3,0E0,0E0,0E0,0E0,0E0,0E0,0E0,0E0],"parents":[2147483647,0,0,1,1,2,2,3,3,4,4,5,5,6,6],"right_children":[2,4,6,8,10,12,14,-1,-1,-1,-1,-1,-1,-1,-1],"split_conditions":[2.008E3,2.9E2,7.3E1,8E1,2.004E3,4.5E1,2.79E2,1.657322E-1,1.1362472E-1,1.8372078E-1,1.5694417E-1,1.2717377E-1,1.04341865E-1,7.0551194E-2,1.1281831E-1],"split_indices":[3,0,0,0,3,0,0,0,0,0,0,0,0,0,0],"split_type":[0,0,0,0,0,0,0,0,0,0,0,0,0,0,0],"sum_hessian":[5.996E3,2.922E3,3.074E3,2.312E3,6.1E2,6.48E2,2.426E3,6.32E2,1.68E3,3.05E2,3.05E2,3.96E2,2.52E2,1.728E3,6.98E2],"tree_param":{"num_deleted":"0","num_feature":"5","num_nodes":"15","size_leaf_vector":"1"}},{"base_weights":[1.1190864E1,1.3863921E1,9.199913E0,1.30740185E1,1.7764431E1,1.197682E1,8.42123E0,1.7814374E-1,1.20646514E-1,1.9024415E-1,1.674565E-1,1.311744E-1,1.0804346E-1,7.306093E-2,1.1902732E-1],"categories":[],"categories_nodes":[],"categories_segments":[],"categories_sizes":[],"default_left":[0,0,0,0,0,0,0,0,0,0,0,0,0,0,0],"id":15,"left_children":[1,3,5,7,9,11,13,-1,-1,-1,-1,-1,-1,-1,-1],"loss_changes":[3.1788125E4,7.649E3,7.3375625E3,9.981406E3,2.3082812E2,8.62625E2,1.0356578E4,0E0,0E0,0E0,0E0,0E0,0E0,0E0,0E0],"parents":[2147483647,0,0,1,1,2,2,3,3,4,4,5,5,6,6],"right_children":[2,4,6,8,10,12,14,-1,-1,-1,-1,-1,-1,-1,-1],"split_conditions":[2.007E3,1.1E1,7.6E1,5.4E1,2.003E3,2.012E3,2.94E2,1.7814374E-1,1.20646514E-1,1.9024415E-1,1.674565E-1,1.311744E-1,1.0804346E-1,7.306093E-2,1.1902732E-1],"split_indices":[3,2,0,0,3,3,0,0,0,0,0,0,0,0,0],"split_type":[0,0,0,0,0,0,0,0,0,0,0,0,0,0,0],"sum_hessian":[5.996E3,2.557E3,3.439E3,2.13E3,4.27E2,7.5E2,2.689E3,3.71E2,1.759E3,1.83E2,2.44E2,3.75E2,3.75E2,2.039E3,6.5E2],"tree_param":{"num_deleted":"0","num_feature":"5","num_nodes":"15","size_leaf_vector":"1"}},{"base_weights":[1.1079137E1,1.34203415E1,8.850057E0,1.2517739E1,1.665284E1,1.2337549E1,8.261476E0,1.6252649E-1,1.1083391E-1,1.7966829E-1,1.5286483E-1,1.270337E-1,9.215445E-2,7.356684E-2,1.1460077E-1],"categories":[],"categories_nodes":[],"categories_segments":[],"categories_sizes":[],"default_left":[0,0,0,0,0,0,0,0,0,0,0,0,0,0,0],"id":16,"left_children":[1,3,5,7,9,11,13,-1,-1,-1,-1,-1,-1,-1,-1],"loss_changes":[3.1178E4,8.319875E3,6.2100312E3,1.2082406E4,8.653906E2,3.877578E2,7.5386562E3,0E0,0E0,0E0,0E0,0E0,0E0,0E0,0E0],"parents":[2147483647,0,0,1,1,2,2,3,3,4,4,5,5,6,6],"right_children":[2,4,6,8,10,12,14,-1,-1,-1,-1,-1,-1,-1,-1],"split_conditions":[2.008E3,2.87E2,5E1,8E1,2.004E3,2.016E3,2.94E2,1.6252649E-1,1.1083391E-1,1.7966829E-1,1.5286483E-1,1.270337E-1,9.215445E-2,7.356684E-2,1.1460077E-1],"split_indices":[3,0,0,0,3,3,0,0,0,0,0,0,0,0,0],"split_type":[0,0,0,0,0,0,0,0,0,0,0,0,0,0,0],"sum_hessian":[5.996E3,2.922E3,3.074E3,2.288E3,6.34E2,4.41E2,2.633E3,6.32E2,1.656E3,3.17E2,3.17E2,3.92E2,4.9E1,2.055E3,5.78E2],"tree_param":{"num_deleted":"0","num_feature":"5","num_nodes":"15","size_leaf_vector":"1"}},{"base_weights":[1.0968514E1,1.3591132E1,9.015135E0,1.2665295E1,1.6797974E1,1.1745896E1,8.249404E0,1.7362255E-1,1.1523442E-1,1.5333024E-1,1.7801966E-1,1.2867628E-1,1.0592925E-1,7.024613E-2,1.1305424E-1],"categories":[],"categories_nodes":[],"categories_segments":[],"categories_sizes":[],"default_left":[0,0,0,0,0,0,0,0,0,0,0,0,0,0,0],"id":17,"left_children":[1,3,5,7,9,11,13,-1,-1,-1,-1,-1,-1,-1,-1],"loss_changes":[3.0599875E4,7.3820312E3,7.09625E3,1.0467375E4,5.6540625E2,8.3497656E2,9.989219E3,0E0,0E0,0E0,0E0,0E0,0E0,0E0,0E0],"parents":[2147483647,0,0,1,1,2,2,3,3,4,4,5,5,6,6],"right_children":[2,4,6,8,10,12,14,-1,-1,-1,-1,-1,-1,-1,-1],"split_conditions":[2.007E3,2.85E2,7.6E1,9E0,3.19E2,2.012E3,2.81E2,1.7362255E-1,1.1523442E-1,1.5333024E-1,1.7801966E-1,1.2867628E-1,1.0592925E-1,7.024613E-2,1.1305424E-1],"split_indices":[3,0,0,4,0,3,0,0,0,0,0,0,0,0,0],"split_type":[0,0,0,0,0,0,0,0,0,0,0,0,0,0,0],"sum_hessian":[5.996E3,2.557E3,3.439E3,1.988E3,5.69E2,7.5E2,2.689E3,3.86E2,1.602E3,2.38E2,3.31E2,3.75E2,3.75E2,1.922E3,7.67E2],"tree_param":{"num_deleted":"0","num_feature":"5","num_nodes":"15","size_leaf_vector":"1"}},{"base_weights":[1.0859002E1,1.3156102E1,8.671919E0,1.2392872E1,1.6838821E1,1.1411848E1,7.948509E0,1.6996948E-1,1.1408802E-1,1.8418418E-1,1.5833041E-1,1.22339025E-1,1.0027553E-1,6.920758E-2,1.1232816E-1],"categories":[],"categories_nodes":[],"categories_segments":[],"categories_sizes":[],"default_left":[0,0,0,0,0,0,0,0,0,0,0,0,0,0,0],"id":18,"left_children":[1,3,5,7,9,11,13,-1,-1,-1,-1,-1,-1,-1,-1],"loss_changes":[3.0014562E4,8.0071875E3,6.0042344E3,1.0793094E4,5.0115625E2,6.05625E2,8.1448594E3,0E0,0E0,0E0,0E0,0E0,0E0,0E0,0E0],"parents":[2147483647,0,0,1,1,2,2,3,3,4,4,5,5,6,6],"right_children":[2,4,6,8,10,12,14,-1,-1,-1,-1,-1,-1,-1,-1],"split_conditions":[2.008E3,3.04E2,7.2E1,5.4E1,2.003E3,4.5E1,2.94E2,1.6996948E-1,1.1408802E-1,1.8418418E-1,1.5833041E-1,1.22339025E-1,1.0027553E-1,6.920758E-2,1.1232816E-1],"split_indices":[3,0,0,0,3,0,0,0,0,0,0,0,0,0,0],"split_type":[0,0,0,0,0,0,0,0,0,0,0,0,0,0,0],"sum_hessian":[5.996E3,2.922E3,3.074E3,2.424E3,4.98E2,6.39E2,2.435E3,4.24E2,2E3,1.87E2,3.11E2,3.96E2,2.43E2,1.857E3,5.78E2],"tree_param":{"num_deleted":"0","num_feature":"5","num_nodes":"15","size_leaf_vector":"1"}},{"base_weights":[1.0750585E1,1.3323884E1,8.833941E0,1.2414332E1,1.6474365E1,1.151314E1,8.082673E0,1.7022438E-1,1.1294088E-1,1.504242E-1,1.745557E-1,1.2619647E-1,1.0376012E-1,6.880448E-2,1.1082408E-1],"categories":[],"categories_nodes":[],"categories_segments":[],"categories_sizes":[],"default_left":[0,0,0,0,0,0,0,0,0,0,0,0,0,0,0],"id":19,"left_children":[1,3,5,7,9,11,13,-1,-1,-1,-1,-1,-1,-1,-1],"loss_changes":[2.9460125E4,7.1254688E3,6.8309688E3,1.0075375E4,5.382969E2,8.14E2,9.624844E3,0E0,0E0,0E0,0E0,0E0,0E0,0E0,0E0],"parents":[2147483647,0,0,1,1,2,2,3,3,4,4,5,5,6,6],"right_children":[2,4,6,8,10,12,14,-1,-1,-1,-1,-1,-1,-1,-1],"split_conditions":[2.007E3,2.85E2,7.6E1,9E0,3.19E2,2.012E3,2.81E2,1.7022438E-1,1.1294088E-1,1.504242E-1,1.745557E-1,1.2619647E-1,1.0376012E-1,6.880448E-2,1.1082408E-1],"split_indices":[3,0,0,4,0,3,0,0,0,0,0,0,0,0,0],"split_type":[0,0,0,0,0,0,0,0,0,0,0,0,0,0,0],"sum_hessian":[5.996E3,2.557E3,3.439E3,1.988E3,5.69E2,7.5E2,2.689E3,3.86E2,1.602E3,2.38E2,3.31E2,3.75E2,3.75E2,1.922E3,7.67E2],"tree_param":{"num_deleted":"0","num_feature":"5","num_nodes":"15","size_leaf_vector":"1"}},{"base_weights":[1.0643249E1,1.2897077E1,8.497368E0,1.2027367E1,1.601183E1,1.18656025E1,7.9289327E0,1.5638089E-1,1.0640755E-1,1.7292336E-1,1.4680971E-1,1.2225188E-1,8.801952E-2,7.057388E-2,1.10100485E-1],"categories":[],"categories_nodes":[],"categories_segments":[],"categories_sizes":[],"default_left":[0,0,0,0,0,0,0,0,0,0,0,0,0,0,0],"id":20,"left_children":[1,3,5,7,9,11,13,-1,-1,-1,-1,-1,-1,-1,-1],"loss_changes":[2.8894562E4,7.7256562E3,5.793375E3,1.1293844E4,8.2828125E2,3.793203E2,6.9954688E3,0E0,0E0,0E0,0E0,0E0,0E0,0E0,0E0],"parents":[2147483647,0,0,1,1,2,2,3,3,4,4,5,5,6,6],"right_children":[2,4,6,8,10,12,14,-1,-1,-1,-1,-1,-1,-1,-1],"split_conditions":[2.008E3,2.87E2,5E1,8E1,2.004E3,2.016E3,2.94E2,1.5638089E-1,1.0640755E-1,1.7292336E-1,1.4680971E-1,1.2225188E-1,8.801952E-2,7.057388E-2,1.10100485E-1],"split_indices":[3,0,0,0,3,3,0,0,0,0,0,0,0,0,0],"split_type":[0,0,0,0,0,0,0,0,0,0,0,0,0,0,0],"sum_hessian":[5.996E3,2.922E3,3.074E3,2.288E3,6.34E2,4.41E2,2.633E3,6.32E2,1.656E3,3.17E2,3.17E2,3.92E2,4.9E1,2.055E3,5.78E2],"tree_param":{"num_deleted":"0","num_feature":"5","num_nodes":"15","size_leaf_vector":"1"}},{"base_weights":[1.0536978E1,1.3061711E1,8.656511E0,1.2170084E1,1.6150108E1,1.1291153E1,7.9177485E0,1.6756536E-1,1.10835314E-1,1.473481E-1,1.7120308E-1,1.2379345E-1,1.01729296E-1,6.717799E-2,1.08159505E-1],"categories":[],"categories_nodes":[],"categories_segments":[],"categories_sizes":[],"default_left":[0,0,0,0,0,0,0,0,0,0,0,0,0,0,0],"id":21,"left_children":[1,3,5,7,9,11,13,-1,-1,-1,-1,-1,-1,-1,-1],"loss_changes":[2.835875E4,6.8474375E3,6.606125E3,9.726281E3,5.303906E2,7.8791406E2,9.282344E3,0E0,0E0,0E0,0E0,0E0,0E0,0E0,0E0],"parents":[2147483647,0,0,1,1,2,2,3,3,4,4,5,5,6,6],"right_children":[2,4,6,8,10,12,14,-1,-1,-1,-1,-1,-1,-1,-1],"split_conditions":[2.007E3,2.85E2,7.6E1,5.5E1,3.19E2,2.012E3,2.79E2,1.6756536E-1,1.10835314E-1,1.473481E-1,1.7120308E-1,1.2379345E-1,1.01729296E-1,6.717799E-2,1.08159505E-1],"split_indices":[3,0,0,0,0,3,0,0,0,0,0,0,0,0,0],"split_type":[0,0,0,0,0,0,0,0,0,0,0,0,0,0,0],"sum_hessian":[5.996E3,2.557E3,3.439E3,1.988E3,5.69E2,7.5E2,2.689E3,3.78E2,1.61E3,2.38E2,3.31E2,3.75E2,3.75E2,1.904E3,7.85E2],"tree_param":{"num_deleted":"0","num_feature":"5","num_nodes":"15","size_leaf_vector":"1"}},{"base_weights":[1.0431775E1,1.2643142E1,8.326325E0,1.1907595E1,1.6192356E1,1.1636139E1,7.767759E0,1.6345993E-1,1.0958955E-1,1.7730777E-1,1.521346E-1,1.1990772E-1,8.615998E-2,6.9122635E-2,1.0792165E-1],"categories":[],"categories_nodes":[],"categories_segments":[],"categories_sizes":[],"default_left":[0,0,0,0,0,0,0,0,0,0,0,0,0,0,0],"id":22,"left_children":[1,3,5,7,9,11,13,-1,-1,-1,-1,-1,-1,-1,-1],"loss_changes":[2.7816312E4,7.438E3,5.5945156E3,1.0031156E4,4.8172656E2,3.7008203E2,6.7405312E3,0E0,0E0,0E0,0E0,0E0,0E0,0E0,0E0],"parents":[2147483647,0,0,1,1,2,2,3,3,4,4,5,5,6,6],"right_children":[2,4,6,8,10,12,14,-1,-1,-1,-1,-1,-1,-1,-1],"split_conditions":[2.008E3,3.04E2,5E1,5.4E1,2.003E3,2.016E3,2.94E2,1.6345993E-1,1.0958955E-1,1.7730777E-1,1.521346E-1,1.1990772E-1,8.615998E-2,6.9122635E-2,1.0792165E-1],"split_indices":[3,0,0,0,3,3,0,0,0,0,0,0,0,0,0],"split_type":[0,0,0,0,0,0,0,0,0,0,0,0,0,0,0],"sum_hessian":[5.996E3,2.922E3,3.074E3,2.424E3,4.98E2,4.41E2,2.633E3,4.24E2,2E3,1.87E2,3.11E2,3.92E2,4.9E1,2.055E3,5.78E2],"tree_param":{"num_deleted":"0","num_feature":"5","num_nodes":"15","size_leaf_vector":"1"}},{"base_weights":[1.0327621E1,1.2804876E1,8.482521E0,1.192894E1,1.5838967E1,1.1074048E1,7.7558594E0,1.6371343E-1,1.0849003E-1,1.8613361E-1,1.5334636E-1,1.2144805E-1,9.973839E-2,6.4505674E-2,1.03318356E-1],"categories":[],"categories_nodes":[],"categories_segments":[],"categories_sizes":[],"default_left":[0,0,0,0,0,0,0,0,0,0,0,0,0,0,0],"id":23,"left_children":[1,3,5,7,9,11,13,-1,-1,-1,-1,-1,-1,-1,-1],"loss_changes":[2.7302312E4,6.6094062E3,6.392203E3,9.364656E3,5.121094E2,7.6358594E2,8.978219E3,0E0,0E0,0E0,0E0,0E0,0E0,0E0,0E0],"parents":[2147483647,0,0,1,1,2,2,3,3,4,4,5,5,6,6],"right_children":[2,4,6,8,10,12,14,-1,-1,-1,-1,-1,-1,-1,-1],"split_conditions":[2.007E3,2.85E2,7.6E1,9E0,2.001E3,2.012E3,2.66E2,1.6371343E-1,1.0849003E-1,1.8613361E-1,1.5334636E-1,1.2144805E-1,9.973839E-2,6.4505674E-2,1.03318356E-1],"split_indices":[3,0,0,4,3,3,0,0,0,0,0,0,0,0,0],"split_type":[0,0,0,0,0,0,0,0,0,0,0,0,0,0,0],"sum_hessian":[5.996E3,2.557E3,3.439E3,1.988E3,5.69E2,7.5E2,2.689E3,3.86E2,1.602E3,8.2E1,4.87E2,3.75E2,3.75E2,1.787E3,9.02E2],"tree_param":{"num_deleted":"0","num_feature":"5","num_nodes":"15","size_leaf_vector":"1"}},{"base_weights":[1.0224512E1,1.2394222E1,8.158728E0,1.1542373E1,1.5349461E1,1.0736385E1,7.4660783E0,1.5018077E-1,1.0170989E-1,1.6607377E-1,1.4044459E-1,1.1544045E-1,9.426592E-2,6.2336933E-2,9.95071E-2],"categories":[],"categories_nodes":[],"categories_segments":[],"categories_sizes":[],"default_left":[0,0,0,0,0,0,0,0,0,0,0,0,0,0,0],"id":24,"left_children":[1,3,5,7,9,11,13,-1,-1,-1,-1,-1,-1,-1,-1],"loss_changes":[2.6778375E4,7.1812188E3,5.4099688E3,1.0681594E4,8.354219E2,5.777344E2,7.3695E3,0E0,0E0,0E0,0E0,0E0,0E0,0E0,0E0],"parents":[2147483647,0,0,1,1,2,2,3,3,4,4,5,5,6,6],"right_children":[2,4,6,8,10,12,14,-1,-1,-1,-1,-1,-1,-1,-1],"split_conditions":[2.008E3,2.85E2,7.3E1,8.1E1,2.004E3,4.5E1,2.66E2,1.5018077E-1,1.0170989E-1,1.6607377E-1,1.4044459E-1,1.1544045E-1,9.426592E-2,6.2336933E-2,9.95071E-2],"split_indices":[3,0,0,0,3,0,0,0,0,0,0,0,0,0,0],"split_type":[0,0,0,0,0,0,0,0,0,0,0,0,0,0,0],"sum_hessian":[5.996E3,2.922E3,3.074E3,2.272E3,6.5E2,6.48E2,2.426E3,6.4E2,1.632E3,3.25E2,3.25E2,3.96E2,2.52E2,1.624E3,8.02E2],"tree_param":{"num_deleted":"0","num_feature":"5","num_nodes":"15","size_leaf_vector":"1"}},{"base_weights":[1.0122422E1,1.2552913E1,8.312155E0,1.1832945E1,1.6108282E1,1.085386E1,7.5994663E0,1.649255E-1,1.0973065E-1,1.8727161E-1,1.5621962E-1,1.1198788E-1,7.642999E-2,6.579463E-2,1.0784115E-1],"categories":[],"categories_nodes":[],"categories_segments":[],"categories_sizes":[],"default_left":[0,0,0,0,0,0,0,0,0,0,0,0,0,0,0],"id":25,"left_children":[1,3,5,7,9,11,13,-1,-1,-1,-1,-1,-1,-1,-1],"loss_changes":[2.6281438E4,6.3572188E3,6.1488906E3,8.357281E3,2.5255469E2,7.4614844E2,8.667109E3,0E0,0E0,0E0,0E0,0E0,0E0,0E0,0E0],"parents":[2147483647,0,0,1,1,2,2,3,3,4,4,5,5,6,6],"right_children":[2,4,6,8,10,12,14,-1,-1,-1,-1,-1,-1,-1,-1],"split_conditions":[2.007E3,1.1E1,7.6E1,4.8E1,2.001E3,2.016E3,2.94E2,1.649255E-1,1.0973065E-1,1.8727161E-1,1.5621962E-1,1.1198788E-1,7.642999E-2,6.579463E-2,1.0784115E-1],"split_indices":[3,2,0,0,3,3,0,0,0,0,0,0,0,0,0],"split_type":[0,0,0,0,0,0,0,0,0,0,0,0,0,0,0],"sum_hessian":[5.996E3,2.557E3,3.439E3,2.13E3,4.27E2,7.5E2,2.689E3,3.29E2,1.801E3,6.1E1,3.66E2,6.75E2,7.5E1,2.039E3,6.5E2],"tree_param":{"num_deleted":"0","num_feature":"5","num_nodes":"15","size_leaf_vector":"1"}},{"base_weights":[1.0021361E1,1.2150392E1,7.9943113E0,1.1313354E1,1.5054289E1,1.1190289E1,7.4549737E0,1.4730321E-1,9.965166E-2,1.6291812E-1,1.3770585E-1,1.1536163E-1,8.2479015E-2,6.629222E-2,1.03742994E-1],"categories":[],"categories_nodes":[],"categories_segments":[],"categories_sizes":[],"default_left":[0,0,0,0,0,0,0,0,0,0,0,0,0,0,0],"id":26,"left_children":[1,3,5,7,9,11,13,-1,-1,-1,-1,-1,-1,-1,-1],"loss_changes":[2.5783875E4,6.9345625E3,5.2169844E3,1.032425E4,8.0984375E2,3.5467188E2,6.2808438E3,0E0,0E0,0E0,0E0,0E0,0E0,0E0,0E0],"parents":[2147483647,0,0,1,1,2,2,3,3,4,4,5,5,6,6],"right_children":[2,4,6,8,10,12,14,-1,-1,-1,-1,-1,-1,-1,-1],"split_conditions":[2.008E3,2.85E2,5E1,8.1E1,2.004E3,2.016E3,2.94E2,1.4730321E-1,9.965166E-2,1.6291812E-1,1.3770585E-1,1.1536163E-1,8.2479015E-2,6.629222E-2,1.03742994E-1],"split_indices":[3,0,0,0,3,3,0,0,0,0,0,0,0,0,0],"split_type":[0,0,0,0,0,0,0,0,0,0,0,0,0,0,0],"sum_hessian":[5.996E3,2.922E3,3.074E3,2.272E3,6.5E2,4.41E2,2.633E3,6.4E2,1.632E3,3.25E2,3.25E2,3.92E2,4.9E1,2.055E3,5.78E2],"tree_param":{"num_deleted":"0","num_feature":"5","num_nodes":"15","size_leaf_vector":"1"}},{"base_weights":[9.9213E0,1.2305913E1,8.145207E0,1.1599124E1,1.5796244E1,1.0644609E1,7.444391E0,1.6181266E-1,1.07535586E-1,1.838262E-1,1.5316266E-1,1.1690075E-1,9.570833E-2,6.183785E-2,9.93223E-2],"categories":[],"categories_nodes":[],"categories_segments":[],"categories_sizes":[],"default_left":[0,0,0,0,0,0,0,0,0,0,0,0,0,0,0],"id":27,"left_children":[1,3,5,7,9,11,13,-1,-1,-1,-1,-1,-1,-1,-1],"loss_changes":[2.5298812E4,6.1271875E3,5.9463438E3,8.0825312E3,2.4976562E2,7.311953E2,8.374922E3,0E0,0E0,0E0,0E0,0E0,0E0,0E0,0E0],"parents":[2147483647,0,0,1,1,2,2,3,3,4,4,5,5,6,6],"right_children":[2,4,6,8,10,12,14,-1,-1,-1,-1,-1,-1,-1,-1],"split_conditions":[2.007E3,1.1E1,7.6E1,4.8E1,2.001E3,2.012E3,2.66E2,1.6181266E-1,1.07535586E-1,1.838262E-1,1.5316266E-1,1.1690075E-1,9.570833E-2,6.183785E-2,9.93223E-2],"split_indices":[3,2,0,0,3,3,0,0,0,0,0,0,0,0,0],"split_type":[0,0,0,0,0,0,0,0,0,0,0,0,0,0,0],"sum_hessian":[5.996E3,2.557E3,3.439E3,2.13E3,4.27E2,7.5E2,2.689E3,3.29E2,1.801E3,6.1E1,3.66E2,3.75E2,3.75E2,1.787E3,9.02E2],"tree_param":{"num_deleted":"0","num_feature":"5","num_nodes":"15","size_leaf_vector":"1"}},{"base_weights":[9.82225E0,1.1911173E1,7.833391E0,1.1088564E1,1.47650585E1,1.0973944E1,7.303415E0,1.4447282E-1,9.763379E-2,1.5982302E-1,1.3502525E-1,1.1315061E-1,8.0732785E-2,6.492143E-2,1.0171585E-1],"categories":[],"categories_nodes":[],"categories_segments":[],"categories_sizes":[],"default_left":[0,0,0,0,0,0,0,0,0,0,0,0,0,0,0],"id":28,"left_children":[1,3,5,7,9,11,13,-1,-1,-1,-1,-1,-1,-1,-1],"loss_changes":[2.4821688E4,6.6984375E3,5.037953E3,9.975875E3,7.8465625E2,3.46E2,6.062922E3,0E0,0E0,0E0,0E0,0E0,0E0,0E0,0E0],"parents":[2147483647,0,0,1,1,2,2,3,3,4,4,5,5,6,6],"right_children":[2,4,6,8,10,12,14,-1,-1,-1,-1,-1,-1,-1,-1],"split_conditions":[2.008E3,2.85E2,5E1,8.1E1,2.004E3,2.016E3,2.94E2,1.4447282E-1,9.763379E-2,1.5982302E-1,1.3502525E-1,1.1315061E-1,8.0732785E-2,6.492143E-2,1.0171585E-1],"split_indices":[3,0,0,0,3,3,0,0,0,0,0,0,0,0,0],"split_type":[0,0,0,0,0,0,0,0,0,0,0,0,0,0,0],"sum_hessian":[5.996E3,2.922E3,3.074E3,2.272E3,6.5E2,4.41E2,2.633E3,6.4E2,1.632E3,3.25E2,3.25E2,3.92E2,4.9E1,2.055E3,5.78E2],"tree_param":{"num_deleted":"0","num_feature":"5","num_nodes":"15","size_leaf_vector":"1"}},{"base_weights":[9.724177E0,1.2063773E1,7.981617E0,1.1235427E1,1.4933099E1,1.0439461E1,7.292464E0,1.5458882E-1,1.0208781E-1,1.3586946E-1,1.5857188E-1,1.2507868E-1,9.902407E-2,6.053489E-2,9.737639E-2],"categories":[],"categories_nodes":[],"categories_segments":[],"categories_sizes":[],"default_left":[0,0,0,0,0,0,0,0,0,0,0,0,0,0,0],"id":29,"left_children":[1,3,5,7,9,11,13,-1,-1,-1,-1,-1,-1,-1,-1],"loss_changes":[2.435275E4,5.9120938E3,5.750672E3,8.466484E3,4.9360938E2,7.103828E2,8.090422E3,0E0,0E0,0E0,0E0,0E0,0E0,0E0,0E0],"parents":[2147483647,0,0,1,1,2,2,3,3,4,4,5,5,6,6],"right_children":[2,4,6,8,10,12,14,-1,-1,-1,-1,-1,-1,-1,-1],"split_conditions":[2.007E3,2.85E2,7.6E1,9E0,3.19E2,2.009E3,2.66E2,1.5458882E-1,1.0208781E-1,1.3586946E-1,1.5857188E-1,1.2507868E-1,9.902407E-2,6.053489E-2,9.737639E-2],"split_indices":[3,0,0,4,0,3,0,0,0,0,0,0,0,0,0],"split_type":[0,0,0,0,0,0,0,0,0,0,0,0,0,0,0],"sum_hessian":[5.996E3,2.557E3,3.439E3,1.988E3,5.69E2,7.5E2,2.689E3,3.86E2,1.602E3,2.38E2,3.31E2,1.5E2,6E2,1.787E3,9.02E2],"tree_param":{"num_deleted":"0","num_feature":"5","num_nodes":"15","size_leaf_vector":"1"}},{"base_weights":[9.627091E0,1.1676385E1,7.6759663E0,1.0991317E1,1.4982221E1,1.012255E1,7.0185666E0,1.5131718E-1,1.0106429E-1,1.6426584E-1,1.4063878E-1,1.0459454E-1,7.320959E-2,5.8501013E-2,9.374404E-2],"categories":[],"categories_nodes":[],"categories_segments":[],"categories_sizes":[],"default_left":[0,0,0,0,0,0,0,0,0,0,0,0,0,0,0],"id":30,"left_children":[1,3,5,7,9,11,13,-1,-1,-1,-1,-1,-1,-1,-1],"loss_changes":[2.3888938E4,6.4550938E3,4.8747344E3,8.731781E3,4.308672E2,5.36E2,6.626E3,0E0,0E0,0E0,0E0,0E0,0E0,0E0,0E0],"parents":[2147483647,0,0,1,1,2,2,3,3,4,4,5,5,6,6],"right_children":[2,4,6,8,10,12,14,-1,-1,-1,-1,-1,-1,-1,-1],"split_conditions":[2.008E3,3.04E2,7.3E1,5.4E1,2.003E3,2.016E3,2.66E2,1.5131718E-1,1.0106429E-1,1.6426584E-1,1.4063878E-1,1.0459454E-1,7.320959E-2,5.8501013E-2,9.374404E-2],"split_indices":[3,0,0,0,3,3,0,0,0,0,0,0,0,0,0],"split_type":[0,0,0,0,0,0,0,0,0,0,0,0,0,0,0],"sum_hessian":[5.996E3,2.922E3,3.074E3,2.424E3,4.98E2,6.48E2,2.426E3,4.24E2,2E3,1.87E2,3.11E2,5.76E2,7.2E1,1.624E3,8.02E2],"tree_param":{"num_deleted":"0","num_feature":"5","num_nodes":"15","size_leaf_vector":"1"}},{"base_weights":[9.530969E0,1.1826565E1,7.821182E0,1.1012815E1,1.4645375E1,1.0232382E1,7.14511E0,1.5156363E-1,1.00056E-1,1.732366E-1,1.4159836E-1,1.12493485E-1,9.1882005E-2,6.1765417E-2,1.01692796E-1],"categories":[],"categories_nodes":[],"categories_segments":[],"categories_sizes":[],"default_left":[0,0,0,0,0,0,0,0,0,0,0,0,0,0,0],"id":31,"left_children":[1,3,5,7,9,11,13,-1,-1,-1,-1,-1,-1,-1,-1],"loss_changes":[2.3445625E4,5.7062812E3,5.534578E3,8.149328E3,4.959375E2,6.94125E2,7.8165156E3,0E0,0E0,0E0,0E0,0E0,0E0,0E0,0E0],"parents":[2147483647,0,0,1,1,2,2,3,3,4,4,5,5,6,6],"right_children":[2,4,6,8,10,12,14,-1,-1,-1,-1,-1,-1,-1,-1],"split_conditions":[2.007E3,2.85E2,7.6E1,9E0,2.001E3,2.012E3,2.94E2,1.5156363E-1,1.00056E-1,1.732366E-1,1.4159836E-1,1.12493485E-1,9.1882005E-2,6.1765417E-2,1.01692796E-1],"split_indices":[3,0,0,4,3,3,0,0,0,0,0,0,0,0,0],"split_type":[0,0,0,0,0,0,0,0,0,0,0,0,0,0,0],"sum_hessian":[5.996E3,2.557E3,3.439E3,1.988E3,5.69E2,7.5E2,2.689E3,3.86E2,1.602E3,8.2E1,4.87E2,3.75E2,3.75E2,2.039E3,6.5E2],"tree_param":{"num_deleted":"0","num_feature":"5","num_nodes":"15","size_leaf_vector":"1"}},{"base_weights":[9.435815E0,1.1446509E1,7.5214415E0,1.0653538E1,1.4197629E1,1.0561261E1,7.008487E0,1.3900904E-1,9.3723275E-2,1.5380698E-1,1.2971008E-1,1.08939216E-1,7.735327E-2,6.2252164E-2,9.7777374E-2],"categories":[],"categories_nodes":[],"categories_segments":[],"categories_sizes":[],"default_left":[0,0,0,0,0,0,0,0,0,0,0,0,0,0,0],"id":32,"left_children":[1,3,5,7,9,11,13,-1,-1,-1,-1,-1,-1,-1,-1],"loss_changes":[2.2997688E4,6.2254062E3,4.7207812E3,9.326656E3,7.4521875E2,3.312422E2,5.6524688E3,0E0,0E0,0E0,0E0,0E0,0E0,0E0,0E0],"parents":[2147483647,0,0,1,1,2,2,3,3,4,4,5,5,6,6],"right_children":[2,4,6,8,10,12,14,-1,-1,-1,-1,-1,-1,-1,-1],"split_conditions":[2.008E3,2.85E2,5E1,8.1E1,2.004E3,2.016E3,2.94E2,1.3900904E-1,9.3723275E-2,1.5380698E-1,1.2971008E-1,1.08939216E-1,7.735327E-2,6.2252164E-2,9.7777374E-2],"split_indices":[3,0,0,0,3,3,0,0,0,0,0,0,0,0,0],"split_type":[0,0,0,0,0,0,0,0,0,0,0,0,0,0,0],"sum_hessian":[5.996E3,2.922E3,3.074E3,2.272E3,6.5E2,4.41E2,2.633E3,6.4E2,1.632E3,3.25E2,3.25E2,3.92E2,4.9E1,2.055E3,5.78E2],"tree_param":{"num_deleted":"0","num_feature":"5","num_nodes":"15","size_leaf_vector":"1"}},{"base_weights":[9.3416E0,1.1593854E1,7.6640987E0,1.0924837E1,1.4897779E1,1.0035141E1,6.999297E0,1.5282814E-1,1.0120699E-1,1.7409876E-1,1.4432798E-1,1.03624485E-1,6.991779E-2,5.8025777E-2,9.361129E-2],"categories":[],"categories_nodes":[],"categories_segments":[],"categories_sizes":[],"default_left":[0,0,0,0,0,0,0,0,0,0,0,0,0,0,0],"id":33,"left_children":[1,3,5,7,9,11,13,-1,-1,-1,-1,-1,-1,-1,-1],"loss_changes":[2.256875E4,5.4914062E3,5.3521562E3,7.31325E3,2.4866406E2,6.75625E2,7.548828E3,0E0,0E0,0E0,0E0,0E0,0E0,0E0,0E0],"parents":[2147483647,0,0,1,1,2,2,3,3,4,4,5,5,6,6],"right_children":[2,4,6,8,10,12,14,-1,-1,-1,-1,-1,-1,-1,-1],"split_conditions":[2.007E3,1.1E1,7.6E1,4.8E1,2.001E3,2.016E3,2.66E2,1.5282814E-1,1.0120699E-1,1.7409876E-1,1.4432798E-1,1.03624485E-1,6.991779E-2,5.8025777E-2,9.361129E-2],"split_indices":[3,2,0,0,3,3,0,0,0,0,0,0,0,0,0],"split_type":[0,0,0,0,0,0,0,0,0,0,0,0,0,0,0],"sum_hessian":[5.996E3,2.557E3,3.439E3,2.13E3,4.27E2,7.5E2,2.689E3,3.29E2,1.801E3,6.1E1,3.66E2,6.75E2,7.5E1,1.787E3,9.02E2],"tree_param":{"num_deleted":"0","num_feature":"5","num_nodes":"15","size_leaf_vector":"1"}},{"base_weights":[9.248334E0,1.1221323E1,7.3698645E0,1.0442064E1,1.3924908E1,1.0356417E1,6.8659062E0,1.3634622E-1,9.182498E-2,1.5088621E-1,1.271848E-1,1.0859748E-1,8.502859E-2,6.0963567E-2,9.586679E-2],"categories":[],"categories_nodes":[],"categories_segments":[],"categories_sizes":[],"default_left":[0,0,0,0,0,0,0,0,0,0,0,0,0,0,0],"id":34,"left_children":[1,3,5,7,9,11,13,-1,-1,-1,-1,-1,-1,-1,-1],"loss_changes":[2.2143438E4,6.0127188E3,4.5570625E3,9.015078E3,7.220625E2,3.2002734E2,5.456547E3,0E0,0E0,0E0,0E0,0E0,0E0,0E0,0E0],"parents":[2147483647,0,0,1,1,2,2,3,3,4,4,5,5,6,6],"right_children":[2,4,6,8,10,12,14,-1,-1,-1,-1,-1,-1,-1,-1],"split_conditions":[2.008E3,2.85E2,5E1,8.1E1,2.004E3,2.015E3,2.94E2,1.3634622E-1,9.182498E-2,1.5088621E-1,1.271848E-1,1.0859748E-1,8.502859E-2,6.0963567E-2,9.586679E-2],"split_indices":[3,0,0,0,3,3,0,0,0,0,0,0,0,0,0],"split_type":[0,0,0,0,0,0,0,0,0,0,0,0,0,0,0],"sum_hessian":[5.996E3,2.922E3,3.074E3,2.272E3,6.5E2,4.41E2,2.633E3,6.4E2,1.632E3,3.25E2,3.25E2,3.43E2,9.8E1,2.055E3,5.78E2],"tree_param":{"num_deleted":"0","num_feature":"5","num_nodes":"15","size_leaf_vector":"1"}},{"base_weights":[9.155993E0,1.1365726E1,7.5101643E0,1.0708969E1,1.4609146E1,9.803586E0,6.8450937E0,1.4994517E-1,9.9182144E-2,1.7090131E-1,1.4150207E-1,1.0811867E-1,8.769907E-2,5.9150945E-2,9.755688E-2],"categories":[],"categories_nodes":[],"categories_segments":[],"categories_sizes":[],"default_left":[0,0,0,0,0,0,0,0,0,0,0,0,0,0,0],"id":35,"left_children":[1,3,5,7,9,11,13,-1,-1,-1,-1,-1,-1,-1,-1],"loss_changes":[2.1724812E4,5.2924375E3,5.179875E3,7.0728438E3,2.4549219E2,7.0875E2,7.169586E3,0E0,0E0,0E0,0E0,0E0,0E0,0E0,0E0],"parents":[2147483647,0,0,1,1,2,2,3,3,4,4,5,5,6,6],"right_children":[2,4,6,8,10,12,14,-1,-1,-1,-1,-1,-1,-1,-1],"split_conditions":[2.007E3,1.1E1,1.2E1,4.8E1,2.001E3,2.012E3,4.3E1,1.4994517E-1,9.9182144E-2,1.7090131E-1,1.4150207E-1,1.0811867E-1,8.769907E-2,5.9150945E-2,9.755688E-2],"split_indices":[3,2,4,0,3,3,4,0,0,0,0,0,0,0,0],"split_type":[0,0,0,0,0,0,0,0,0,0,0,0,0,0,0],"sum_hessian":[5.996E3,2.557E3,3.439E3,2.13E3,4.27E2,7.7E2,2.669E3,3.29E2,1.801E3,6.1E1,3.66E2,3.85E2,3.85E2,2.025E3,6.44E2],"tree_param":{"num_deleted":"0","num_feature":"5","num_nodes":"15","size_leaf_vector":"1"}},{"base_weights":[9.064587E0,1.1000398E1,7.221516E0,1.02346E1,1.3657319E1,1.0156766E1,6.726223E0,1.337252E-1,8.996609E-2,1.4802143E-1,1.2470601E-1,1.0478965E-1,7.421137E-2,5.9715994E-2,9.3942344E-2],"categories":[],"categories_nodes":[],"categories_segments":[],"categories_sizes":[],"default_left":[0,0,0,0,0,0,0,0,0,0,0,0,0,0,0],"id":36,"left_children":[1,3,5,7,9,11,13,-1,-1,-1,-1,-1,-1,-1,-1],"loss_changes":[2.1316844E4,5.8075312E3,4.4021562E3,8.709672E3,6.9984375E2,3.1182422E2,5.247047E3,0E0,0E0,0E0,0E0,0E0,0E0,0E0,0E0],"parents":[2147483647,0,0,1,1,2,2,3,3,4,4,5,5,6,6],"right_children":[2,4,6,8,10,12,14,-1,-1,-1,-1,-1,-1,-1,-1],"split_conditions":[2.008E3,2.85E2,5E1,8.1E1,2.004E3,2.016E3,2.94E2,1.337252E-1,8.996609E-2,1.4802143E-1,1.2470601E-1,1.0478965E-1,7.421137E-2,5.9715994E-2,9.3942344E-2],"split_indices":[3,0,0,0,3,3,0,0,0,0,0,0,0,0,0],"split_type":[0,0,0,0,0,0,0,0,0,0,0,0,0,0,0],"sum_hessian":[5.996E3,2.922E3,3.074E3,2.272E3,6.5E2,4.41E2,2.633E3,6.4E2,1.632E3,3.25E2,3.25E2,3.92E2,4.9E1,2.055E3,5.78E2],"tree_param":{"num_deleted":"0","num_feature":"5","num_nodes":"15","size_leaf_vector":"1"}},{"base_weights":[8.974078E0,1.1142088E1,7.359328E0,1.0372609E1,1.380762E1,9.61486E0,6.705255E0,1.431158E-1,9.415182E-2,1.6400994E-1,1.3338238E-1,9.9393584E-2,6.604383E-2,5.5520747E-2,8.978428E-2],"categories":[],"categories_nodes":[],"categories_segments":[],"categories_sizes":[],"default_left":[0,0,0,0,0,0,0,0,0,0,0,0,0,0,0],"id":37,"left_children":[1,3,5,7,9,11,13,-1,-1,-1,-1,-1,-1,-1,-1],"loss_changes":[2.091225E4,5.1034375E3,5.0105E3,7.3663125E3,4.7508594E2,6.8753906E2,6.9492266E3,0E0,0E0,0E0,0E0,0E0,0E0,0E0,0E0],"parents":[2147483647,0,0,1,1,2,2,3,3,4,4,5,5,6,6],"right_children":[2,4,6,8,10,12,14,-1,-1,-1,-1,-1,-1,-1,-1],"split_conditions":[2.007E3,2.85E2,1.2E1,9E0,2.001E3,2.016E3,3.9E1,1.431158E-1,9.415182E-2,1.6400994E-1,1.3338238E-1,9.9393584E-2,6.604383E-2,5.5520747E-2,8.978428E-2],"split_indices":[3,0,4,4,3,3,4,0,0,0,0,0,0,0,0],"split_type":[0,0,0,0,0,0,0,0,0,0,0,0,0,0,0],"sum_hessian":[5.996E3,2.557E3,3.439E3,1.988E3,5.69E2,7.7E2,2.669E3,3.86E2,1.602E3,8.2E1,4.87E2,6.93E2,7.7E1,1.773E3,8.96E2],"tree_param":{"num_deleted":"0","num_feature":"5","num_nodes":"15","size_leaf_vector":"1"}},{"base_weights":[8.884479E0,1.0783986E1,7.0759764E0,1.0145437E1,1.3865544E1,9.230427E0,6.424096E0,1.4307757E-1,9.3746506E-2,1.5216812E-1,1.3006878E-1,1.009126E-1,8.119727E-2,5.2690353E-2,8.6629264E-2],"categories":[],"categories_nodes":[],"categories_segments":[],"categories_sizes":[],"default_left":[0,0,0,0,0,0,0,0,0,0,0,0,0,0,0],"id":38,"left_children":[1,3,5,7,9,11,13,-1,-1,-1,-1,-1,-1,-1,-1],"loss_changes":[2.0524969E4,5.611E3,4.2593594E3,7.6459062E3,3.810547E2,5.988281E2,6.067625E3,0E0,0E0,0E0,0E0,0E0,0E0,0E0,0E0],"parents":[2147483647,0,0,1,1,2,2,3,3,4,4,5,5,6,6],"right_children":[2,4,6,8,10,12,14,-1,-1,-1,-1,-1,-1,-1,-1],"split_conditions":[2.008E3,3.04E2,8E1,4.8E1,2.003E3,4.5E1,2.66E2,1.4307757E-1,9.3746506E-2,1.5216812E-1,1.3006878E-1,1.009126E-1,8.119727E-2,5.2690353E-2,8.6629264E-2],"split_indices":[3,0,0,0,3,0,0,0,0,0,0,0,0,0,0],"split_type":[0,0,0,0,0,0,0,0,0,0,0,0,0,0,0],"sum_hessian":[5.996E3,2.922E3,3.074E3,2.424E3,4.98E2,7.11E2,2.363E3,3.76E2,2.048E3,1.87E2,3.11E2,3.96E2,3.15E2,1.561E3,8.02E2],"tree_param":{"num_deleted":"0","num_feature":"5","num_nodes":"15","size_leaf_vector":"1"}},{"base_weights":[8.795774E0,1.0923016E1,7.211391E0,1.0167142E1,1.35414505E1,9.423624E0,6.5698767E0,1.403403E-1,9.227247E-2,1.6102001E-1,1.3078198E-1,1.04095034E-1,8.413331E-2,5.671726E-2,9.380856E-2],"categories":[],"categories_nodes":[],"categories_segments":[],"categories_sizes":[],"default_left":[0,0,0,0,0,0,0,0,0,0,0,0,0,0,0],"id":39,"left_children":[1,3,5,7,9,11,13,-1,-1,-1,-1,-1,-1,-1,-1],"loss_changes":[2.0133281E4,4.925125E3,4.8200625E3,7.0994844E3,4.6553906E2,6.803594E2,6.6876953E3,0E0,0E0,0E0,0E0,0E0,0E0,0E0,0E0],"parents":[2147483647,0,0,1,1,2,2,3,3,4,4,5,5,6,6],"right_children":[2,4,6,8,10,12,14,-1,-1,-1,-1,-1,-1,-1,-1],"split_conditions":[2.007E3,2.85E2,1.2E1,9E0,2.001E3,2.012E3,4.3E1,1.403403E-1,9.227247E-2,1.6102001E-1,1.3078198E-1,1.04095034E-1,8.413331E-2,5.671726E-2,9.380856E-2],"split_indices":[3,0,4,4,3,3,4,0,0,0,0,0,0,0,0],"split_type":[0,0,0,0,0,0,0,0,0,0,0,0,0,0,0],"sum_hessian":[5.996E3,2.557E3,3.439E3,1.988E3,5.69E2,7.7E2,2.669E3,3.86E2,1.602E3,8.2E1,4.87E2,3.85E2,3.85E2,2.025E3,6.44E2],"tree_param":{"num_deleted":"0","num_feature":"5","num_nodes":"15","size_leaf_vector":"1"}},{"base_weights":[8.70796E0,1.0571678E1,6.933536E0,9.944646E0,1.3597691E1,9.768658E0,6.4551544E0,1.2895274E-1,8.897411E-2,1.4925234E-1,1.2754177E-1,1.0255337E-1,7.9789E-2,5.7265695E-2,9.0311736E-2],"categories":[],"categories_nodes":[],"categories_segments":[],"categories_sizes":[],"default_left":[0,0,0,0,0,0,0,0,0,0,0,0,0,0,0],"id":40,"left_children":[1,3,5,7,9,11,13,-1,-1,-1,-1,-1,-1,-1,-1],"loss_changes":[1.9758938E4,5.4109062E3,4.1074844E3,7.3785E3,3.6841406E2,3.0316797E2,4.8918984E3,0E0,0E0,0E0,0E0,0E0,0E0,0E0,0E0],"parents":[2147483647,0,0,1,1,2,2,3,3,4,4,5,5,6,6],"right_children":[2,4,6,8,10,12,14,-1,-1,-1,-1,-1,-1,-1,-1],"split_conditions":[2.008E3,3.04E2,5E1,8E1,2.003E3,2.015E3,2.94E2,1.2895274E-1,8.897411E-2,1.4925234E-1,1.2754177E-1,1.0255337E-1,7.9789E-2,5.7265695E-2,9.0311736E-2],"split_indices":[3,0,0,0,3,3,0,0,0,0,0,0,0,0,0],"split_type":[0,0,0,0,0,0,0,0,0,0,0,0,0,0,0],"sum_hessian":[5.996E3,2.922E3,3.074E3,2.424E3,4.98E2,4.41E2,2.633E3,6.32E2,1.792E3,1.87E2,3.11E2,3.43E2,9.8E1,2.055E3,5.78E2],"tree_param":{"num_deleted":"0","num_feature":"5","num_nodes":"15","size_leaf_vector":"1"}},{"base_weights":[8.621018E0,1.0708247E1,7.066439E0,9.941489E0,1.32047415E1,9.207355E0,6.4247293E0,1.4256068E-1,9.078826E-2,1.20232485E-1,1.4153646E-1,1.0184439E-1,8.2070194E-2,5.2681938E-2,8.6564004E-2],"categories":[],"categories_nodes":[],"categories_segments":[],"categories_sizes":[],"default_left":[0,0,0,0,0,0,0,0,0,0,0,0,0,0,0],"id":41,"left_children":[1,3,5,7,9,11,13,-1,-1,-1,-1,-1,-1,-1,-1],"loss_changes":[1.9383188E4,4.76525E3,4.666875E3,7.169453E3,5.002578E2,6.895469E2,6.7940703E3,0E0,0E0,0E0,0E0,0E0,0E0,0E0,0E0],"parents":[2147483647,0,0,1,1,2,2,3,3,4,4,5,5,6,6],"right_children":[2,4,6,8,10,12,14,-1,-1,-1,-1,-1,-1,-1,-1],"split_conditions":[2.007E3,4.1E1,8E1,4.8E1,3.19E2,2.012E3,2.66E2,1.4256068E-1,9.078826E-2,1.20232485E-1,1.4153646E-1,1.0184439E-1,8.2070194E-2,5.2681938E-2,8.6564004E-2],"split_indices":[3,4,0,0,0,3,0,0,0,0,0,0,0,0,0],"split_type":[0,0,0,0,0,0,0,0,0,0,0,0,0,0,0],"sum_hessian":[5.996E3,2.557E3,3.439E3,1.96E3,5.97E2,7.9E2,2.649E3,3.24E2,1.636E3,2.72E2,3.25E2,3.95E2,3.95E2,1.747E3,9.02E2],"tree_param":{"num_deleted":"0","num_feature":"5","num_nodes":"15","size_leaf_vector":"1"}},{"base_weights":[8.534945E0,1.0363523E1,6.793979E0,9.614668E0,1.2810102E1,8.873721E0,6.164719E0,1.2661882E-1,8.402693E-2,1.3916028E-1,1.16830125E-1,9.709983E-2,7.795019E-2,5.049773E-2,8.3258405E-2],"categories":[],"categories_nodes":[],"categories_segments":[],"categories_sizes":[],"default_left":[0,0,0,0,0,0,0,0,0,0,0,0,0,0,0],"id":42,"left_children":[1,3,5,7,9,11,13,-1,-1,-1,-1,-1,-1,-1,-1],"loss_changes":[1.9021E4,5.2321562E3,3.9695312E3,8.173625E3,6.875156E2,5.6659375E2,5.6541094E3,0E0,0E0,0E0,0E0,0E0,0E0,0E0,0E0],"parents":[2147483647,0,0,1,1,2,2,3,3,4,4,5,5,6,6],"right_children":[2,4,6,8,10,12,14,-1,-1,-1,-1,-1,-1,-1,-1],"split_conditions":[2.008E3,4.1E1,8E1,8.1E1,2.004E3,4.5E1,2.66E2,1.2661882E-1,8.402693E-2,1.3916028E-1,1.16830125E-1,9.709983E-2,7.795019E-2,5.049773E-2,8.3258405E-2],"split_indices":[3,4,0,0,3,0,0,0,0,0,0,0,0,0,0],"split_type":[0,0,0,0,0,0,0,0,0,0,0,0,0,0,0],"sum_hessian":[5.996E3,2.922E3,3.074E3,2.241E3,6.81E2,7.11E2,2.363E3,6.35E2,1.606E3,3.38E2,3.43E2,3.96E2,3.15E2,1.561E3,8.02E2],"tree_param":{"num_deleted":"0","num_feature":"5","num_nodes":"15","size_leaf_vector":"1"}},{"base_weights":[8.449724E0,1.0497517E1,6.92452E0,9.886769E0,1.35138855E1,9.023214E0,6.2954664E0,1.389136E-1,9.147922E-2,1.5888305E-1,1.3075934E-1,9.986879E-2,8.036764E-2,5.1614806E-2,8.48363E-2],"categories":[],"categories_nodes":[],"categories_segments":[],"categories_sizes":[],"default_left":[0,0,0,0,0,0,0,0,0,0,0,0,0,0,0],"id":43,"left_children":[1,3,5,7,9,11,13,-1,-1,-1,-1,-1,-1,-1,-1],"loss_changes":[1.865775E4,4.5788438E3,4.4846562E3,6.178078E3,2.373125E2,6.7166797E2,6.5317734E3,0E0,0E0,0E0,0E0,0E0,0E0,0E0,0E0],"parents":[2147483647,0,0,1,1,2,2,3,3,4,4,5,5,6,6],"right_children":[2,4,6,8,10,12,14,-1,-1,-1,-1,-1,-1,-1,-1],"split_conditions":[2.007E3,1.1E1,8E1,4.8E1,2.001E3,2.012E3,2.66E2,1.389136E-1,9.147922E-2,1.5888305E-1,1.3075934E-1,9.986879E-2,8.036764E-2,5.1614806E-2,8.48363E-2],"split_indices":[3,2,0,0,3,3,0,0,0,0,0,0,0,0,0],"split_type":[0,0,0,0,0,0,0,0,0,0,0,0,0,0,0],"sum_hessian":[5.996E3,2.557E3,3.439E3,2.13E3,4.27E2,7.9E2,2.649E3,3.29E2,1.801E3,6.1E1,3.66E2,3.95E2,3.95E2,1.747E3,9.02E2],"tree_param":{"num_deleted":"0","num_feature":"5","num_nodes":"15","size_leaf_vector":"1"}},{"base_weights":[8.365367E0,9.953923E0,6.43361E0,9.271344E0,1.2398242E1,9.236383E0,5.955438E0,1.2127839E-1,8.1171684E-2,1.3741244E-1,1.1294036E-1,9.567775E-2,6.771683E-2,5.3021874E-2,8.7068826E-2],"categories":[],"categories_nodes":[],"categories_segments":[],"categories_sizes":[],"default_left":[0,0,0,0,0,0,0,0,0,0,0,0,0,0,0],"id":44,"left_children":[1,3,5,7,9,11,13,-1,-1,-1,-1,-1,-1,-1,-1],"loss_changes":[1.8338969E4,5.3725625E3,3.5756094E3,8.3910625E3,9.05125E2,2.5620703E2,4.118375E3,0E0,0E0,0E0,0E0,0E0,0E0,0E0,0E0],"parents":[2147483647,0,0,1,1,2,2,3,3,4,4,5,5,6,6],"right_children":[2,4,6,8,10,12,14,-1,-1,-1,-1,-1,-1,-1,-1],"split_conditions":[2.009E3,2.87E2,5E1,8.3E1,2.004E3,2.016E3,3.03E2,1.2127839E-1,8.1171684E-2,1.3741244E-1,1.1294036E-1,9.567775E-2,6.771683E-2,5.3021874E-2,8.7068826E-2],"split_indices":[3,0,0,0,3,3,0,0,0,0,0,0,0,0,0],"split_type":[0,0,0,0,0,0,0,0,0,0,0,0,0,0,0],"sum_hessian":[5.996E3,3.288E3,2.708E3,2.574E3,7.14E2,3.92E2,2.316E3,7.38E2,1.836E3,3.17E2,3.97E2,3.43E2,4.9E1,1.874E3,4.42E2],"tree_param":{"num_deleted":"0","num_feature":"5","num_nodes":"15","size_leaf_vector":"1"}},{"base_weights":[8.281839E0,1.029268E1,6.784161E0,9.553825E0,1.2698367E1,8.881768E0,6.1759067E0,1.3728325E-1,8.7192096E-2,1.1548061E-1,1.3622707E-1,9.194108E-2,5.98888E-2,5.322802E-2,8.846005E-2],"categories":[],"categories_nodes":[],"categories_segments":[],"categories_sizes":[],"default_left":[0,0,0,0,0,0,0,0,0,0,0,0,0,0,0],"id":45,"left_children":[1,3,5,7,9,11,13,-1,-1,-1,-1,-1,-1,-1,-1],"loss_changes":[1.7990688E4,4.4254062E3,4.334172E3,6.712625E3,4.7852344E2,6.4158594E2,6.034836E3,0E0,0E0,0E0,0E0,0E0,0E0,0E0,0E0],"parents":[2147483647,0,0,1,1,2,2,3,3,4,4,5,5,6,6],"right_children":[2,4,6,8,10,12,14,-1,-1,-1,-1,-1,-1,-1,-1],"split_conditions":[2.007E3,4.1E1,1.2E1,4.8E1,3.19E2,2.016E3,4.3E1,1.3728325E-1,8.7192096E-2,1.1548061E-1,1.3622707E-1,9.194108E-2,5.98888E-2,5.322802E-2,8.846005E-2],"split_indices":[3,4,4,0,0,3,4,0,0,0,0,0,0,0,0],"split_type":[0,0,0,0,0,0,0,0,0,0,0,0,0,0,0],"sum_hessian":[5.996E3,2.557E3,3.439E3,1.96E3,5.97E2,7.7E2,2.669E3,3.24E2,1.636E3,2.72E2,3.25E2,6.93E2,7.7E1,2.025E3,6.44E2],"tree_param":{"num_deleted":"0","num_feature":"5","num_nodes":"15","size_leaf_vector":"1"}},{"base_weights":[8.199149E0,9.7594385E0,6.3017735E0,9.089966E0,1.2156826E1,9.05656E0,5.831798E0,1.1710477E-1,7.874196E-2,1.3477741E-1,1.1070876E-1,9.3807615E-2,6.644915E-2,5.1907904E-2,8.5317016E-2],"categories":[],"categories_nodes":[],"categories_segments":[],"categories_sizes":[],"default_left":[0,0,0,0,0,0,0,0,0,0,0,0,0,0,0],"id":46,"left_children":[1,3,5,7,9,11,13,-1,-1,-1,-1,-1,-1,-1,-1],"loss_changes":[1.7692312E4,5.1682812E3,3.4544844E3,8.1115938E3,8.764219E2,2.449375E2,3.9656484E3,0E0,0E0,0E0,0E0,0E0,0E0,0E0,0E0],"parents":[2147483647,0,0,1,1,2,2,3,3,4,4,5,5,6,6],"right_children":[2,4,6,8,10,12,14,-1,-1,-1,-1,-1,-1,-1,-1],"split_conditions":[2.009E3,2.87E2,5E1,2E0,2.004E3,2.016E3,3.03E2,1.1710477E-1,7.874196E-2,1.3477741E-1,1.1070876E-1,9.3807615E-2,6.644915E-2,5.1907904E-2,8.5317016E-2],"split_indices":[3,0,0,1,3,3,0,0,0,0,0,0,0,0,0],"split_type":[0,0,0,0,0,0,0,0,0,0,0,0,0,0,0],"sum_hessian":[5.996E3,3.288E3,2.708E3,2.574E3,7.14E2,3.92E2,2.316E3,8.13E2,1.761E3,3.17E2,3.97E2,3.43E2,4.9E1,1.874E3,4.42E2],"tree_param":{"num_deleted":"0","num_feature":"5","num_nodes":"15","size_leaf_vector":"1"}},{"base_weights":[8.117281E0,9.863613E0,6.4546313E0,9.147709E0,1.2202608E1,8.44678E0,5.851897E0,1.18284464E-1,7.8795664E-2,1.3263905E-1,1.1121263E-1,9.2477016E-2,7.4138284E-2,4.782721E-2,7.924376E-2],"categories":[],"categories_nodes":[],"categories_segments":[],"categories_sizes":[],"default_left":[0,0,0,0,0,0,0,0,0,0,0,0,0,0,0],"id":47,"left_children":[1,3,5,7,9,11,13,-1,-1,-1,-1,-1,-1,-1,-1],"loss_changes":[1.7348844E4,4.7829062E3,3.6428203E3,7.5286094E3,6.351719E2,5.204844E2,5.2003594E3,0E0,0E0,0E0,0E0,0E0,0E0,0E0,0E0],"parents":[2147483647,0,0,1,1,2,2,3,3,4,4,5,5,6,6],"right_children":[2,4,6,8,10,12,14,-1,-1,-1,-1,-1,-1,-1,-1],"split_conditions":[2.008E3,4.1E1,8E1,2E0,2.004E3,4.5E1,2.66E2,1.18284464E-1,7.8795664E-2,1.3263905E-1,1.1121263E-1,9.2477016E-2,7.4138284E-2,4.782721E-2,7.924376E-2],"split_indices":[3,4,0,1,3,0,0,0,0,0,0,0,0,0,0],"split_type":[0,0,0,0,0,0,0,0,0,0,0,0,0,0,0],"sum_hessian":[5.996E3,2.922E3,3.074E3,2.241E3,6.81E2,7.11E2,2.363E3,7.17E2,1.524E3,3.38E2,3.43E2,3.96E2,3.15E2,1.561E3,8.02E2],"tree_param":{"num_deleted":"0","num_feature":"5","num_nodes":"15","size_leaf_vector":"1"}},{"base_weights":[8.036231E0,9.9929905E0,6.5788383E0,9.409336E0,1.2875644E1,8.588065E0,5.9766207E0,1.3260722E-1,8.698811E-2,1.5204006E-1,1.2447213E-1,9.516368E-2,7.638076E-2,4.8881147E-2,8.0770984E-2],"categories":[],"categories_nodes":[],"categories_segments":[],"categories_sizes":[],"default_left":[0,0,0,0,0,0,0,0,0,0,0,0,0,0,0],"id":48,"left_children":[1,3,5,7,9,11,13,-1,-1,-1,-1,-1,-1,-1,-1],"loss_changes":[1.7036281E4,4.182625E3,4.1110312E3,5.7161562E3,2.3770312E2,6.24875E2,6.0194375E3,0E0,0E0,0E0,0E0,0E0,0E0,0E0,0E0],"parents":[2147483647,0,0,1,1,2,2,3,3,4,4,5,5,6,6],"right_children":[2,4,6,8,10,12,14,-1,-1,-1,-1,-1,-1,-1,-1],"split_conditions":[2.007E3,1.1E1,8E1,4.8E1,2.001E3,2.012E3,2.66E2,1.3260722E-1,8.698811E-2,1.5204006E-1,1.2447213E-1,9.516368E-2,7.638076E-2,4.8881147E-2,8.0770984E-2],"split_indices":[3,2,0,0,3,3,0,0,0,0,0,0,0,0,0],"split_type":[0,0,0,0,0,0,0,0,0,0,0,0,0,0,0],"sum_hessian":[5.996E3,2.557E3,3.439E3,2.13E3,4.27E2,7.9E2,2.649E3,3.29E2,1.801E3,6.1E1,3.66E2,3.95E2,3.95E2,1.747E3,9.02E2],"tree_param":{"num_deleted":"0","num_feature":"5","num_nodes":"15","size_leaf_vector":"1"}},{"base_weights":[7.9560013E0,9.474683E0,6.1092315E0,8.822863E0,1.1808897E1,8.792815E0,5.6514163E0,1.1557235E-1,7.718059E-2,1.309142E-1,1.0754498E-1,9.1127E-2,6.416149E-2,5.0257195E-2,8.286924E-2],"categories":[],"categories_nodes":[],"categories_segments":[],"categories_sizes":[],"default_left":[0,0,0,0,0,0,0,0,0,0,0,0,0,0,0],"id":49,"left_children":[1,3,5,7,9,11,13,-1,-1,-1,-1,-1,-1,-1,-1],"loss_changes":[1.6761656E4,4.8999688E3,3.278539E3,7.6897188E3,8.2609375E2,2.403125E2,3.7791562E3,0E0,0E0,0E0,0E0,0E0,0E0,0E0,0E0],"parents":[2147483647,0,0,1,1,2,2,3,3,4,4,5,5,6,6],"right_children":[2,4,6,8,10,12,14,-1,-1,-1,-1,-1,-1,-1,-1],"split_conditions":[2.009E3,2.87E2,5E1,8.3E1,2.004E3,2.016E3,3.03E2,1.1557235E-1,7.718059E-2,1.309142E-1,1.0754498E-1,9.1127E-2,6.416149E-2,5.0257195E-2,8.286924E-2],"split_indices":[3,0,0,0,3,3,0,0,0,0,0,0,0,0,0],"split_type":[0,0,0,0,0,0,0,0,0,0,0,0,0,0,0],"sum_hessian":[5.996E3,3.288E3,2.708E3,2.574E3,7.14E2,3.92E2,2.316E3,7.38E2,1.836E3,3.17E2,3.97E2,3.43E2,4.9E1,1.874E3,4.42E2],"tree_param":{"num_deleted":"0","num_feature":"5","num_nodes":"15","size_leaf_vector":"1"}},{"base_weights":[7.8765616E0,9.380068E0,6.0482454E0,8.734709E0,1.1691142E1,8.705282E0,5.5949597E0,1.1261977E-1,7.562216E-2,1.2960917E-1,1.0647223E-1,9.021838E-2,6.35327E-2,4.9634613E-2,8.154311E-2],"categories":[],"categories_nodes":[],"categories_segments":[],"categories_sizes":[],"default_left":[0,0,0,0,0,0,0,0,0,0,0,0,0,0,0],"id":50,"left_children":[1,3,5,7,9,11,13,-1,-1,-1,-1,-1,-1,-1,-1],"loss_changes":[1.6428281E4,4.8033438E3,3.214E3,7.545078E3,8.097656E2,2.3528906E2,3.7043203E3,0E0,0E0,0E0,0E0,0E0,0E0,0E0,0E0],"parents":[2147483647,0,0,1,1,2,2,3,3,4,4,5,5,6,6],"right_children":[2,4,6,8,10,12,14,-1,-1,-1,-1,-1,-1,-1,-1],"split_conditions":[2.009E3,2.87E2,5E1,2E0,2.004E3,2.016E3,3.01E2,1.1261977E-1,7.562216E-2,1.2960917E-1,1.0647223E-1,9.021838E-2,6.35327E-2,4.9634613E-2,8.154311E-2],"split_indices":[3,0,0,1,3,3,0,0,0,0,0,0,0,0,0],"split_type":[0,0,0,0,0,0,0,0,0,0,0,0,0,0,0],"sum_hessian":[5.996E3,3.288E3,2.708E3,2.574E3,7.14E2,3.92E2,2.316E3,8.13E2,1.761E3,3.17E2,3.97E2,3.43E2,4.9E1,1.86E3,4.56E2],"tree_param":{"num_deleted":"0","num_feature":"5","num_nodes":"15","size_leaf_vector":"1"}},{"base_weights":[7.797914E0,9.7037115E0,6.378487E0,9.136031E0,1.25075035E1,8.339965E0,5.7905974E0,1.2901016E-1,8.44148E-2,1.4798097E-1,1.2086456E-1,9.240377E-2,7.4184924E-2,4.727548E-2,7.8420036E-2],"categories":[],"categories_nodes":[],"categories_segments":[],"categories_sizes":[],"default_left":[0,0,0,0,0,0,0,0,0,0,0,0,0,0,0],"id":51,"left_children":[1,3,5,7,9,11,13,-1,-1,-1,-1,-1,-1,-1,-1],"loss_changes":[1.61608125E4,3.9571875E3,3.9184688E3,5.4636094E3,2.3392969E2,5.877461E2,5.7419062E3,0E0,0E0,0E0,0E0,0E0,0E0,0E0,0E0],"parents":[2147483647,0,0,1,1,2,2,3,3,4,4,5,5,6,6],"right_children":[2,4,6,8,10,12,14,-1,-1,-1,-1,-1,-1,-1,-1],"split_conditions":[2.007E3,1.1E1,8E1,4.8E1,2.001E3,2.012E3,2.66E2,1.2901016E-1,8.44148E-2,1.4798097E-1,1.2086456E-1,9.240377E-2,7.4184924E-2,4.727548E-2,7.8420036E-2],"split_indices":[3,2,0,0,3,3,0,0,0,0,0,0,0,0,0],"split_type":[0,0,0,0,0,0,0,0,0,0,0,0,0,0,0],"sum_hessian":[5.996E3,2.557E3,3.439E3,2.13E3,4.27E2,7.9E2,2.649E3,3.29E2,1.801E3,6.1E1,3.66E2,3.95E2,3.95E2,1.747E3,9.02E2],"tree_param":{"num_deleted":"0","num_feature":"5","num_nodes":"15","size_leaf_vector":"1"}},{"base_weights":[7.720064E0,9.196494E0,5.9246793E0,8.562327E0,1.1467516E1,8.537809E0,5.4788938E0,1.1046659E-1,7.4097686E-2,1.2714396E-1,1.04424514E-1,8.850127E-2,6.2183067E-2,4.869771E-2,8.044641E-2],"categories":[],"categories_nodes":[],"categories_segments":[],"categories_sizes":[],"default_left":[0,0,0,0,0,0,0,0,0,0,0,0,0,0,0],"id":52,"left_children":[1,3,5,7,9,11,13,-1,-1,-1,-1,-1,-1,-1,-1],"loss_changes":[1.5842125E4,4.6386562E3,3.1089219E3,7.29125E3,7.8109375E2,2.2966602E2,3.581961E3,0E0,0E0,0E0,0E0,0E0,0E0,0E0,0E0],"parents":[2147483647,0,0,1,1,2,2,3,3,4,4,5,5,6,6],"right_children":[2,4,6,8,10,12,14,-1,-1,-1,-1,-1,-1,-1,-1],"split_conditions":[2.009E3,2.87E2,5E1,2E0,2.004E3,2.016E3,3.03E2,1.1046659E-1,7.4097686E-2,1.2714396E-1,1.04424514E-1,8.850127E-2,6.2183067E-2,4.869771E-2,8.044641E-2],"split_indices":[3,0,0,1,3,3,0,0,0,0,0,0,0,0,0],"split_type":[0,0,0,0,0,0,0,0,0,0,0,0,0,0,0],"sum_hessian":[5.996E3,3.288E3,2.708E3,2.574E3,7.14E2,3.92E2,2.316E3,8.13E2,1.761E3,3.17E2,3.97E2,3.43E2,4.9E1,1.874E3,4.42E2],"tree_param":{"num_deleted":"0","num_feature":"5","num_nodes":"15","size_leaf_vector":"1"}},{"base_weights":[7.6429796E0,9.514413E0,6.2491508E0,8.82756E0,1.17508745E1,8.177707E0,5.671137E0,1.275837E-1,8.0417685E-2,1.06566496E-1,1.2631159E-1,8.4681034E-2,5.490957E-2,4.6257455E-2,7.6884925E-2],"categories":[],"categories_nodes":[],"categories_segments":[],"categories_sizes":[],"default_left":[0,0,0,0,0,0,0,0,0,0,0,0,0,0,0],"id":53,"left_children":[1,3,5,7,9,11,13,-1,-1,-1,-1,-1,-1,-1,-1],"loss_changes":[1.55835E4,3.8256562E3,3.7882969E3,5.9545312E3,4.4140625E2,5.7066016E2,5.5530938E3,0E0,0E0,0E0,0E0,0E0,0E0,0E0,0E0],"parents":[2147483647,0,0,1,1,2,2,3,3,4,4,5,5,6,6],"right_children":[2,4,6,8,10,12,14,-1,-1,-1,-1,-1,-1,-1,-1],"split_conditions":[2.007E3,4.1E1,8E1,4.8E1,3.19E2,2.016E3,2.66E2,1.275837E-1,8.0417685E-2,1.06566496E-1,1.2631159E-1,8.4681034E-2,5.490957E-2,4.6257455E-2,7.6884925E-2],"split_indices":[3,4,0,0,0,3,0,0,0,0,0,0,0,0,0],"split_type":[0,0,0,0,0,0,0,0,0,0,0,0,0,0,0],"sum_hessian":[5.996E3,2.557E3,3.439E3,1.96E3,5.97E2,7.9E2,2.649E3,3.24E2,1.636E3,2.72E2,3.25E2,7.11E2,7.9E1,1.747E3,9.02E2],"tree_param":{"num_deleted":"0","num_feature":"5","num_nodes":"15","size_leaf_vector":"1"}},{"base_weights":[7.566667E0,9.016793E0,5.803274E0,8.394699E0,1.1244593E1,8.372061E0,5.365062E0,1.0837212E-1,7.2615534E-2,1.2470552E-1,1.02368034E-1,8.677448E-2,6.103556E-2,4.766194E-2,7.8876644E-2],"categories":[],"categories_nodes":[],"categories_segments":[],"categories_sizes":[],"default_left":[0,0,0,0,0,0,0,0,0,0,0,0,0,0,0],"id":54,"left_children":[1,3,5,7,9,11,13,-1,-1,-1,-1,-1,-1,-1,-1],"loss_changes":[1.5282875E4,4.4638125E3,3.0045234E3,7.048203E3,7.557344E2,2.1929492E2,3.462711E3,0E0,0E0,0E0,0E0,0E0,0E0,0E0,0E0],"parents":[2147483647,0,0,1,1,2,2,3,3,4,4,5,5,6,6],"right_children":[2,4,6,8,10,12,14,-1,-1,-1,-1,-1,-1,-1,-1],"split_conditions":[2.009E3,2.87E2,5E1,2E0,2.004E3,2.016E3,3.03E2,1.0837212E-1,7.2615534E-2,1.2470552E-1,1.02368034E-1,8.677448E-2,6.103556E-2,4.766194E-2,7.8876644E-2],"split_indices":[3,0,0,1,3,3,0,0,0,0,0,0,0,0,0],"split_type":[0,0,0,0,0,0,0,0,0,0,0,0,0,0,0],"sum_hessian":[5.996E3,3.288E3,2.708E3,2.574E3,7.14E2,3.92E2,2.316E3,8.13E2,1.761E3,3.17E2,3.97E2,3.43E2,4.9E1,1.874E3,4.42E2],"tree_param":{"num_deleted":"0","num_feature":"5","num_nodes":"15","size_leaf_vector":"1"}},{"base_weights":[7.491114E0,9.328796E0,6.1224275E0,8.655221E0,1.1522031E1,8.018589E0,5.5541306E0,1.2523142E-1,7.88202E-2,1.04425825E-1,1.2390642E-1,8.8894606E-2,7.127468E-2,4.5260992E-2,7.538012E-2],"categories":[],"categories_nodes":[],"categories_segments":[],"categories_sizes":[],"default_left":[0,0,0,0,0,0,0,0,0,0,0,0,0,0,0],"id":55,"left_children":[1,3,5,7,9,11,13,-1,-1,-1,-1,-1,-1,-1,-1],"loss_changes":[1.5026594E4,3.6792344E3,3.662336E3,5.7660312E3,4.313047E2,5.504961E2,5.370539E3,0E0,0E0,0E0,0E0,0E0,0E0,0E0,0E0],"parents":[2147483647,0,0,1,1,2,2,3,3,4,4,5,5,6,6],"right_children":[2,4,6,8,10,12,14,-1,-1,-1,-1,-1,-1,-1,-1],"split_conditions":[2.007E3,4.1E1,8E1,4.8E1,3.19E2,2.012E3,2.66E2,1.2523142E-1,7.88202E-2,1.04425825E-1,1.2390642E-1,8.8894606E-2,7.127468E-2,4.5260992E-2,7.538012E-2],"split_indices":[3,4,0,0,0,3,0,0,0,0,0,0,0,0,0],"split_type":[0,0,0,0,0,0,0,0,0,0,0,0,0,0,0],"sum_hessian":[5.996E3,2.557E3,3.439E3,1.96E3,5.97E2,7.9E2,2.649E3,3.24E2,1.636E3,2.72E2,3.25E2,3.95E2,3.95E2,1.747E3,9.02E2],"tree_param":{"num_deleted":"0","num_feature":"5","num_nodes":"15","size_leaf_vector":"1"}},{"base_weights":[7.416322E0,8.84033E0,5.6846943E0,8.2006855E0,1.0925773E1,8.211033E0,5.2537336E0,1.0630613E-1,7.037827E-2,1.2147023E-1,9.924386E-2,8.68034E-2,6.7296505E-2,4.664985E-2,7.7337556E-2],"categories":[],"categories_nodes":[],"categories_segments":[],"categories_sizes":[],"default_left":[0,0,0,0,0,0,0,0,0,0,0,0,0,0,0],"id":56,"left_children":[1,3,5,7,9,11,13,-1,-1,-1,-1,-1,-1,-1,-1],"loss_changes":[1.4737469E4,4.2977188E3,2.906289E3,7.0486875E3,8.198828E2,2.148086E2,3.347E3,0E0,0E0,0E0,0E0,0E0,0E0,0E0,0E0],"parents":[2147483647,0,0,1,1,2,2,3,3,4,4,5,5,6,6],"right_children":[2,4,6,8,10,12,14,-1,-1,-1,-1,-1,-1,-1,-1],"split_conditions":[2.009E3,2.81E2,5E1,2E0,2.004E3,2.015E3,3.03E2,1.0630613E-1,7.037827E-2,1.2147023E-1,9.924386E-2,8.68034E-2,6.7296505E-2,4.664985E-2,7.7337556E-2],"split_indices":[3,0,0,1,3,3,0,0,0,0,0,0,0,0,0],"split_type":[0,0,0,0,0,0,0,0,0,0,0,0,0,0,0],"sum_hessian":[5.996E3,3.288E3,2.708E3,2.52E3,7.68E2,3.92E2,2.316E3,8.13E2,1.707E3,3.41E2,4.27E2,2.94E2,9.8E1,1.874E3,4.42E2],"tree_param":{"num_deleted":"0","num_feature":"5","num_nodes":"15","size_leaf_vector":"1"}},{"base_weights":[7.3422713E0,9.14675E0,5.9983177E0,8.609604E0,1.1799818E1,7.862616E0,5.439579E0,1.2196822E-1,7.9478994E-2,1.4047249E-1,1.13879904E-1,8.1448585E-2,5.252379E-2,4.4287186E-2,7.390348E-2],"categories":[],"categories_nodes":[],"categories_segments":[],"categories_sizes":[],"default_left":[0,0,0,0,0,0,0,0,0,0,0,0,0,0,0],"id":57,"left_children":[1,3,5,7,9,11,13,-1,-1,-1,-1,-1,-1,-1,-1],"loss_changes":[1.44886875E4,3.5437656E3,3.5405234E3,4.961375E3,2.3616406E2,5.3996875E2,5.192953E3,0E0,0E0,0E0,0E0,0E0,0E0,0E0,0E0],"parents":[2147483647,0,0,1,1,2,2,3,3,4,4,5,5,6,6],"right_children":[2,4,6,8,10,12,14,-1,-1,-1,-1,-1,-1,-1,-1],"split_conditions":[2.007E3,1.1E1,8E1,4.8E1,2.001E3,2.016E3,2.66E2,1.2196822E-1,7.9478994E-2,1.4047249E-1,1.13879904E-1,8.1448585E-2,5.252379E-2,4.4287186E-2,7.390348E-2],"split_indices":[3,2,0,0,3,3,0,0,0,0,0,0,0,0,0],"split_type":[0,0,0,0,0,0,0,0,0,0,0,0,0,0,0],"sum_hessian":[5.996E3,2.557E3,3.439E3,2.13E3,4.27E2,7.9E2,2.649E3,3.29E2,1.801E3,6.1E1,3.66E2,7.11E2,7.9E1,1.747E3,9.02E2],"tree_param":{"num_deleted":"0","num_feature":"5","num_nodes":"15","size_leaf_vector":"1"}},{"base_weights":[7.2689667E0,8.66761E0,5.568189E0,8.038892E0,1.0717455E1,8.05168E0,5.1445465E0,1.0428494E-1,6.895346E-2,1.1917374E-1,9.7335994E-2,8.512658E-2,6.596725E-2,4.5657113E-2,7.582856E-2],"categories":[],"categories_nodes":[],"categories_segments":[],"categories_sizes":[],"default_left":[0,0,0,0,0,0,0,0,0,0,0,0,0,0,0],"id":58,"left_children":[1,3,5,7,9,11,13,-1,-1,-1,-1,-1,-1,-1,-1],"loss_changes":[1.4217281E4,4.152625E3,2.8087578E3,6.817047E3,7.9183594E2,2.0743164E2,3.235543E3,0E0,0E0,0E0,0E0,0E0,0E0,0E0,0E0],"parents":[2147483647,0,0,1,1,2,2,3,3,4,4,5,5,6,6],"right_children":[2,4,6,8,10,12,14,-1,-1,-1,-1,-1,-1,-1,-1],"split_conditions":[2.009E3,2.81E2,5E1,2E0,2.004E3,2.015E3,3.03E2,1.0428494E-1,6.895346E-2,1.1917374E-1,9.7335994E-2,8.512658E-2,6.596725E-2,4.5657113E-2,7.582856E-2],"split_indices":[3,0,0,1,3,3,0,0,0,0,0,0,0,0,0],"split_type":[0,0,0,0,0,0,0,0,0,0,0,0,0,0,0],"sum_hessian":[5.996E3,3.288E3,2.708E3,2.52E3,7.68E2,3.92E2,2.316E3,8.13E2,1.707E3,3.41E2,4.27E2,2.94E2,9.8E1,1.874E3,4.42E2],"tree_param":{"num_deleted":"0","num_feature":"5","num_nodes":"15","size_leaf_vector":"1"}},{"base_weights":[7.1963873E0,8.96827E0,5.876715E0,8.440945E0,1.1572856E1,7.709663E0,5.32738E0,1.1971254E-1,7.789755E-2,1.3791789E-1,1.1166461E-1,7.987225E-2,5.1429857E-2,4.287477E-2,7.1625605E-2],"categories":[],"categories_nodes":[],"categories_segments":[],"categories_sizes":[],"default_left":[0,0,0,0,0,0,0,0,0,0,0,0,0,0,0],"id":59,"left_children":[1,3,5,7,9,11,13,-1,-1,-1,-1,-1,-1,-1,-1],"loss_changes":[1.3970094E4,3.4156562E3,3.4226797E3,4.8056875E3,2.3194922E2,5.224375E2,5.026578E3,0E0,0E0,0E0,0E0,0E0,0E0,0E0,0E0],"parents":[2147483647,0,0,1,1,2,2,3,3,4,4,5,5,6,6],"right_children":[2,4,6,8,10,12,14,-1,-1,-1,-1,-1,-1,-1,-1],"split_conditions":[2.007E3,1.1E1,8E1,4.8E1,2.001E3,2.016E3,2.6E2,1.1971254E-1,7.789755E-2,1.3791789E-1,1.1166461E-1,7.987225E-2,5.1429857E-2,4.287477E-2,7.1625605E-2],"split_indices":[3,2,0,0,3,3,0,0,0,0,0,0,0,0,0],"split_type":[0,0,0,0,0,0,0,0,0,0,0,0,0,0,0],"sum_hessian":[5.996E3,2.557E3,3.439E3,2.13E3,4.27E2,7.9E2,2.649E3,3.29E2,1.801E3,6.1E1,3.66E2,7.11E2,7.9E1,1.693E3,9.56E2],"tree_param":{"num_deleted":"0","num_feature":"5","num_nodes":"15","size_leaf_vector":"1"}},{"base_weights":[7.124539E0,8.498269E0,5.4540615E0,7.8802295E0,1.0513328E1,7.7355227E0,5.0082355E0,1.0230242E-1,6.755645E-2,1.1692105E-1,9.546843E-2,8.1976146E-2,6.287884E-2,4.405221E-2,7.389543E-2],"categories":[],"categories_nodes":[],"categories_segments":[],"categories_sizes":[],"default_left":[0,0,0,0,0,0,0,0,0,0,0,0,0,0,0],"id":60,"left_children":[1,3,5,7,9,11,13,-1,-1,-1,-1,-1,-1,-1,-1],"loss_changes":[1.37155E4,4.0132188E3,2.7166719E3,6.5933438E3,7.6447656E2,2.4346094E2,3.2256523E3,0E0,0E0,0E0,0E0,0E0,0E0,0E0,0E0],"parents":[2147483647,0,0,1,1,2,2,3,3,4,4,5,5,6,6],"right_children":[2,4,6,8,10,12,14,-1,-1,-1,-1,-1,-1,-1,-1],"split_conditions":[2.009E3,2.81E2,5.6E1,2E0,2.004E3,2.015E3,3.01E2,1.0230242E-1,6.755645E-2,1.1692105E-1,9.546843E-2,8.1976146E-2,6.287884E-2,4.405221E-2,7.389543E-2],"split_indices":[3,0,0,1,3,3,0,0,0,0,0,0,0,0,0],"split_type":[0,0,0,0,0,0,0,0,0,0,0,0,0,0,0],"sum_hessian":[5.996E3,3.288E3,2.708E3,2.52E3,7.68E2,4.4E2,2.268E3,8.13E2,1.707E3,3.41E2,4.27E2,3.3E2,1.1E2,1.812E3,4.56E2],"tree_param":{"num_deleted":"0","num_feature":"5","num_nodes":"15","size_leaf_vector":"1"}},{"base_weights":[7.053401E0,8.793273E0,5.7575736E0,8.155917E0,1.08686285E1,7.558661E0,5.2177935E0,1.1845426E-1,7.418442E-2,9.828221E-2,1.17065504E-1,7.831517E-2,5.035754E-2,4.1951347E-2,7.022565E-2],"categories":[],"categories_nodes":[],"categories_segments":[],"categories_sizes":[],"default_left":[0,0,0,0,0,0,0,0,0,0,0,0,0,0,0],"id":61,"left_children":[1,3,5,7,9,11,13,-1,-1,-1,-1,-1,-1,-1,-1],"loss_changes":[1.34700625E4,3.2949219E3,3.3048906E3,5.2478516E3,4.0627344E2,5.0507812E2,4.8615547E3,0E0,0E0,0E0,0E0,0E0,0E0,0E0,0E0],"parents":[2147483647,0,0,1,1,2,2,3,3,4,4,5,5,6,6],"right_children":[2,4,6,8,10,12,14,-1,-1,-1,-1,-1,-1,-1,-1],"split_conditions":[2.007E3,4.1E1,8E1,4.8E1,3.19E2,2.016E3,2.6E2,1.1845426E-1,7.418442E-2,9.828221E-2,1.17065504E-1,7.831517E-2,5.035754E-2,4.1951347E-2,7.022565E-2],"split_indices":[3,4,0,0,0,3,0,0,0,0,0,0,0,0,0],"split_type":[0,0,0,0,0,0,0,0,0,0,0,0,0,0,0],"sum_hessian":[5.996E3,2.557E3,3.439E3,1.96E3,5.97E2,7.9E2,2.649E3,3.24E2,1.636E3,2.72E2,3.25E2,7.11E2,7.9E1,1.693E3,9.56E2],"tree_param":{"num_deleted":"0","num_feature":"5","num_nodes":"15","size_leaf_vector":"1"}},{"base_weights":[6.9829755E0,8.332236E0,5.342259E0,7.753363E0,1.0405334E1,7.743789E0,4.9326158E0,1.04287475E-1,6.848289E-2,1.1547321E-1,9.466748E-2,8.1884705E-2,6.340507E-2,4.3725558E-2,7.291938E-2],"categories":[],"categories_nodes":[],"categories_segments":[],"categories_sizes":[],"default_left":[0,0,0,0,0,0,0,0,0,0,0,0,0,0,0],"id":62,"left_children":[1,3,5,7,9,11,13,-1,-1,-1,-1,-1,-1,-1,-1],"loss_changes":[1.3231375E4,3.8663438E3,2.626836E3,6.1637344E3,6.570547E2,1.933164E2,3.0297148E3,0E0,0E0,0E0,0E0,0E0,0E0,0E0,0E0],"parents":[2147483647,0,0,1,1,2,2,3,3,4,4,5,5,6,6],"right_children":[2,4,6,8,10,12,14,-1,-1,-1,-1,-1,-1,-1,-1],"split_conditions":[2.009E3,2.87E2,5E1,7.3E1,2.004E3,2.015E3,3.03E2,1.04287475E-1,6.848289E-2,1.1547321E-1,9.466748E-2,8.1884705E-2,6.340507E-2,4.3725558E-2,7.291938E-2],"split_indices":[3,0,0,0,3,3,0,0,0,0,0,0,0,0,0],"split_type":[0,0,0,0,0,0,0,0,0,0,0,0,0,0,0],"sum_hessian":[5.996E3,3.288E3,2.708E3,2.574E3,7.14E2,3.92E2,2.316E3,6.48E2,1.926E3,3.17E2,3.97E2,2.94E2,9.8E1,1.874E3,4.42E2],"tree_param":{"num_deleted":"0","num_feature":"5","num_nodes":"15","size_leaf_vector":"1"}},{"base_weights":[6.9132533E0,8.855182E0,5.792212E0,1.188733E1,8.412427E0,7.6586356E0,5.2990603E0,1.2590258E-1,8.179591E-2,7.418482E-2,1.0619112E-1,8.792681E-2,6.9944814E-2,4.5346133E-2,7.714064E-2],"categories":[],"categories_nodes":[],"categories_segments":[],"categories_sizes":[],"default_left":[0,0,0,0,0,0,0,0,0,0,0,0,0,0,0],"id":63,"left_children":[1,3,5,7,9,11,13,-1,-1,-1,-1,-1,-1,-1,-1],"loss_changes":[1.30040625E4,2.8440938E3,3.4616484E3,6.189531E2,4.1258125E3,5.3577344E2,5.5274453E3,0E0,0E0,0E0,0E0,0E0,0E0,0E0,0E0],"parents":[2147483647,0,0,1,1,2,2,3,3,4,4,5,5,6,6],"right_children":[2,4,6,8,10,12,14,-1,-1,-1,-1,-1,-1,-1,-1],"split_conditions":[2.006E3,4.7E1,7.3E1,2.005E3,3.9E1,2.01E3,2.94E2,1.2590258E-1,8.179591E-2,7.418482E-2,1.0619112E-1,8.792681E-2,6.9944814E-2,4.5346133E-2,7.714064E-2],"split_indices":[3,0,0,3,4,3,0,0,0,0,0,0,0,0,0],"split_type":[0,0,0,0,0,0,0,0,0,0,0,0,0,0,0],"sum_hessian":[5.996E3,2.192E3,3.804E3,2.76E2,1.916E3,7.92E2,3.012E3,2.3E2,4.6E1,1.324E3,5.92E2,2.88E2,5.04E2,2.29E3,7.22E2],"tree_param":{"num_deleted":"0","num_feature":"5","num_nodes":"15","size_leaf_vector":"1"}},{"base_weights":[6.844232E0,8.170099E0,5.2319684E0,7.5741525E0,1.0113159E1,7.594712E0,4.8289514E0,9.848575E-2,6.4857714E-2,1.1250888E-1,9.180411E-2,8.034169E-2,6.2085032E-2,4.2798284E-2,7.142217E-2],"categories":[],"categories_nodes":[],"categories_segments":[],"categories_sizes":[],"default_left":[0,0,0,0,0,0,0,0,0,0,0,0,0,0,0],"id":64,"left_children":[1,3,5,7,9,11,13,-1,-1,-1,-1,-1,-1,-1,-1],"loss_changes":[1.277675E4,3.7319375E3,2.5429062E3,6.176703E3,7.1278906E2,1.8952734E2,2.9126367E3,0E0,0E0,0E0,0E0,0E0,0E0,0E0,0E0],"parents":[2147483647,0,0,1,1,2,2,3,3,4,4,5,5,6,6],"right_children":[2,4,6,8,10,12,14,-1,-1,-1,-1,-1,-1,-1,-1],"split_conditions":[2.009E3,2.81E2,5E1,2E0,2.004E3,2.015E3,3.03E2,9.848575E-2,6.4857714E-2,1.1250888E-1,9.180411E-2,8.034169E-2,6.2085032E-2,4.2798284E-2,7.142217E-2],"split_indices":[3,0,0,1,3,3,0,0,0,0,0,0,0,0,0],"split_type":[0,0,0,0,0,0,0,0,0,0,0,0,0,0,0],"sum_hessian":[5.996E3,3.288E3,2.708E3,2.52E3,7.68E2,3.92E2,2.316E3,8.13E2,1.707E3,3.41E2,4.27E2,2.94E2,9.8E1,1.874E3,4.42E2],"tree_param":{"num_deleted":"0","num_feature":"5","num_nodes":"15","size_leaf_vector":"1"}},{"base_weights":[6.775894E0,8.684157E0,5.6742916E0,1.1671077E1,8.248027E0,7.5080333E0,5.1897807E0,1.2366842E-1,8.003145E-2,7.231925E-2,1.03270374E-1,8.614422E-2,6.860005E-2,4.4388574E-2,7.562084E-2],"categories":[],"categories_nodes":[],"categories_segments":[],"categories_sizes":[],"default_left":[0,0,0,0,0,0,0,0,0,0,0,0,0,0,0],"id":65,"left_children":[1,3,5,7,9,11,13,-1,-1,-1,-1,-1,-1,-1,-1],"loss_changes":[1.25573125E4,2.7605156E3,3.3416562E3,6.079375E2,3.974961E3,5.0946484E2,5.3338438E3,0E0,0E0,0E0,0E0,0E0,0E0,0E0,0E0],"parents":[2147483647,0,0,1,1,2,2,3,3,4,4,5,5,6,6],"right_children":[2,4,6,8,10,12,14,-1,-1,-1,-1,-1,-1,-1,-1],"split_conditions":[2.006E3,4.7E1,7.3E1,2.005E3,2.62E2,2.01E3,2.94E2,1.2366842E-1,8.003145E-2,7.231925E-2,1.03270374E-1,8.614422E-2,6.860005E-2,4.4388574E-2,7.562084E-2],"split_indices":[3,0,0,3,0,3,0,0,0,0,0,0,0,0,0],"split_type":[0,0,0,0,0,0,0,0,0,0,0,0,0,0,0],"sum_hessian":[5.996E3,2.192E3,3.804E3,2.76E2,1.916E3,7.92E2,3.012E3,2.3E2,4.6E1,1.29E3,6.26E2,2.88E2,5.04E2,2.29E3,7.22E2],"tree_param":{"num_deleted":"0","num_feature":"5","num_nodes":"15","size_leaf_vector":"1"}},{"base_weights":[6.708244E0,8.180876E0,5.3062243E0,7.685695E0,1.0629922E1,6.9507694E0,4.7671013E0,1.1002985E-1,7.074571E-2,1.2999435E-1,1.0261839E-1,8.059502E-2,6.351095E-2,3.7706323E-2,6.481608E-2],"categories":[],"categories_nodes":[],"categories_segments":[],"categories_sizes":[],"default_left":[0,0,0,0,0,0,0,0,0,0,0,0,0,0,0],"id":66,"left_children":[1,3,5,7,9,11,13,-1,-1,-1,-1,-1,-1,-1,-1],"loss_changes":[1.2338344E4,3.4630938E3,2.6931953E3,4.8585625E3,2.9309766E2,4.521289E2,3.9374648E3,0E0,0E0,0E0,0E0,0E0,0E0,0E0,0E0],"parents":[2147483647,0,0,1,1,2,2,3,3,4,4,5,5,6,6],"right_children":[2,4,6,8,10,12,14,-1,-1,-1,-1,-1,-1,-1,-1],"split_conditions":[2.008E3,1.1E1,8.5E1,4.8E1,2.001E3,3E1,2.6E2,1.1002985E-1,7.074571E-2,1.2999435E-1,1.0261839E-1,8.059502E-2,6.351095E-2,3.7706323E-2,6.481608E-2],"split_indices":[3,2,0,0,3,0,0,0,0,0,0,0,0,0,0],"split_type":[0,0,0,0,0,0,0,0,0,0,0,0,0,0,0],"sum_hessian":[5.996E3,2.922E3,3.074E3,2.434E3,4.88E2,7.56E2,2.318E3,3.76E2,2.058E3,6.1E1,4.27E2,2.61E2,4.95E2,1.468E3,8.5E2],"tree_param":{"num_deleted":"0","num_feature":"5","num_nodes":"15","size_leaf_vector":"1"}},{"base_weights":[6.6412716E0,7.932661E0,5.0709424E0,9.42654E0,7.1817636E0,7.2233744E0,4.650364E0,1.3360032E-1,8.929734E-2,6.649272E-2,9.4336964E-2,7.667975E-2,5.8325056E-2,4.094863E-2,6.930836E-2],"categories":[],"categories_nodes":[],"categories_segments":[],"categories_sizes":[],"default_left":[0,0,0,0,0,0,0,0,0,0,0,0,0,0,0],"id":67,"left_children":[1,3,5,7,9,11,13,-1,-1,-1,-1,-1,-1,-1,-1],"loss_changes":[1.2121125E4,3.62175E3,2.4187734E3,2.0244297E3,2.5669766E3,2.2798438E2,2.845996E3,0E0,0E0,0E0,0E0,0E0,0E0,0E0,0E0],"parents":[2147483647,0,0,1,1,2,2,3,3,4,4,5,5,6,6],"right_children":[2,4,6,8,10,12,14,-1,-1,-1,-1,-1,-1,-1,-1],"split_conditions":[2.009E3,2.003E3,5.6E1,4.1E1,2.97E2,2.015E3,3.03E2,1.3360032E-1,8.929734E-2,6.649272E-2,9.4336964E-2,7.667975E-2,5.8325056E-2,4.094863E-2,6.930836E-2],"split_indices":[3,3,0,0,0,3,0,0,0,0,0,0,0,0,0],"split_type":[0,0,0,0,0,0,0,0,0,0,0,0,0,0,0],"sum_hessian":[5.996E3,3.288E3,2.708E3,1.096E3,2.192E3,4.4E2,2.268E3,1.2E2,9.76E2,1.776E3,4.16E2,3.3E2,1.1E2,1.826E3,4.42E2],"tree_param":{"num_deleted":"0","num_feature":"5","num_nodes":"15","size_leaf_vector":"1"}},{"base_weights":[6.5749636E0,8.432718E0,5.502525E0,1.1348661E1,8.006975E0,7.2777286E0,5.0252542E0,1.20313115E-1,7.752049E-2,6.996643E-2,1.001669E-1,8.36715E-2,6.640076E-2,4.0992167E-2,6.866779E-2],"categories":[],"categories_nodes":[],"categories_segments":[],"categories_sizes":[],"default_left":[0,0,0,0,0,0,0,0,0,0,0,0,0,0,0],"id":68,"left_children":[1,3,5,7,9,11,13,-1,-1,-1,-1,-1,-1,-1,-1],"loss_changes":[1.1901578E4,2.6316094E3,3.1872344E3,5.868281E2,3.8223516E3,5.0295703E2,5.0912188E3,0E0,0E0,0E0,0E0,0E0,0E0,0E0,0E0],"parents":[2147483647,0,0,1,1,2,2,3,3,4,4,5,5,6,6],"right_children":[2,4,6,8,10,12,14,-1,-1,-1,-1,-1,-1,-1,-1],"split_conditions":[2.006E3,4.7E1,7.4E1,2.005E3,2.6E2,2.01E3,2.66E2,1.20313115E-1,7.752049E-2,6.996643E-2,1.001669E-1,8.36715E-2,6.640076E-2,4.0992167E-2,6.866779E-2],"split_indices":[3,0,0,3,0,3,0,0,0,0,0,0,0,0,0],"split_type":[0,0,0,0,0,0,0,0,0,0,0,0,0,0,0],"sum_hessian":[5.996E3,2.192E3,3.804E3,2.76E2,1.916E3,8.03E2,3.001E3,2.3E2,4.6E1,1.278E3,6.38E2,2.92E2,5.11E2,1.999E3,1.002E3],"tree_param":{"num_deleted":"0","num_feature":"5","num_nodes":"15","size_leaf_vector":"1"}},{"base_weights":[6.509319E0,7.7783017E0,4.966242E0,9.24746E0,7.039841E0,7.2347865E0,4.5793176E0,1.3163173E-1,8.7665394E-2,6.5159716E-2,9.255371E-2,7.512806E-2,5.1773127E-2,4.0538147E-2,6.793172E-2],"categories":[],"categories_nodes":[],"categories_segments":[],"categories_sizes":[],"default_left":[0,0,0,0,0,0,0,0,0,0,0,0,0,0,0],"id":69,"left_children":[1,3,5,7,9,11,13,-1,-1,-1,-1,-1,-1,-1,-1],"loss_changes":[1.17043125E4,3.5031875E3,2.344711E3,1.9504062E3,2.4849922E3,1.8590625E2,2.6680273E3,0E0,0E0,0E0,0E0,0E0,0E0,0E0,0E0],"parents":[2147483647,0,0,1,1,2,2,3,3,4,4,5,5,6,6],"right_children":[2,4,6,8,10,12,14,-1,-1,-1,-1,-1,-1,-1,-1],"split_conditions":[2.009E3,2.003E3,5E1,4E1,2.97E2,2.016E3,3.03E2,1.3163173E-1,8.7665394E-2,6.5159716E-2,9.255371E-2,7.512806E-2,5.1773127E-2,4.0538147E-2,6.793172E-2],"split_indices":[3,3,0,0,0,3,0,0,0,0,0,0,0,0,0],"split_type":[0,0,0,0,0,0,0,0,0,0,0,0,0,0,0],"sum_hessian":[5.996E3,3.288E3,2.708E3,1.096E3,2.192E3,3.92E2,2.316E3,1.17E2,9.79E2,1.776E3,4.16E2,3.43E2,4.9E1,1.874E3,4.42E2],"tree_param":{"num_deleted":"0","num_feature":"5","num_nodes":"15","size_leaf_vector":"1"}},{"base_weights":[6.444328E0,7.7006335E0,4.9166665E0,9.155185E0,6.9695144E0,7.1627617E0,4.533571E0,1.2978764E-1,8.6722694E-2,6.450848E-2,9.163039E-2,7.437897E-2,5.1265754E-2,4.0132985E-2,6.725394E-2],"categories":[],"categories_nodes":[],"categories_segments":[],"categories_sizes":[],"default_left":[0,0,0,0,0,0,0,0,0,0,0,0,0,0,0],"id":70,"left_children":[1,3,5,7,9,11,13,-1,-1,-1,-1,-1,-1,-1,-1],"loss_changes":[1.1471625E4,3.4338906E3,2.298539E3,1.9130234E3,2.435875E3,1.8203711E2,2.6151914E3,0E0,0E0,0E0,0E0,0E0,0E0,0E0,0E0],"parents":[2147483647,0,0,1,1,2,2,3,3,4,4,5,5,6,6],"right_children":[2,4,6,8,10,12,14,-1,-1,-1,-1,-1,-1,-1,-1],"split_conditions":[2.009E3,2.003E3,5E1,4.1E1,2.97E2,2.016E3,3.03E2,1.2978764E-1,8.6722694E-2,6.450848E-2,9.163039E-2,7.437897E-2,5.1265754E-2,4.0132985E-2,6.725394E-2],"split_indices":[3,3,0,0,0,3,0,0,0,0,0,0,0,0,0],"split_type":[0,0,0,0,0,0,0,0,0,0,0,0,0,0,0],"sum_hessian":[5.996E3,3.288E3,2.708E3,1.096E3,2.192E3,3.92E2,2.316E3,1.2E2,9.76E2,1.776E3,4.16E2,3.43E2,4.9E1,1.874E3,4.42E2],"tree_param":{"num_deleted":"0","num_feature":"5","num_nodes":"15","size_leaf_vector":"1"}},{"base_weights":[6.3799853E0,8.186727E0,5.336999E0,1.0915017E1,7.748585E0,7.051745E0,4.8599124E0,1.1584763E-1,7.404796E-2,6.724817E-2,9.7471446E-2,7.793395E-2,6.143404E-2,3.8981598E-2,6.590657E-2],"categories":[],"categories_nodes":[],"categories_segments":[],"categories_sizes":[],"default_left":[0,0,0,0,0,0,0,0,0,0,0,0,0,0,0],"id":71,"left_children":[1,3,5,7,9,11,13,-1,-1,-1,-1,-1,-1,-1,-1],"loss_changes":[1.1257078E4,2.5368906E3,3.078539E3,6.2185547E2,3.8076562E3,5.0857812E2,4.9346562E3,0E0,0E0,0E0,0E0,0E0,0E0,0E0,0E0],"parents":[2147483647,0,0,1,1,2,2,3,3,4,4,5,5,6,6],"right_children":[2,4,6,8,10,12,14,-1,-1,-1,-1,-1,-1,-1,-1],"split_conditions":[2.006E3,5.1E1,7.6E1,2.005E3,2.6E2,2.012E3,2.6E2,1.1584763E-1,7.404796E-2,6.724817E-2,9.7471446E-2,7.793395E-2,6.143404E-2,3.8981598E-2,6.590657E-2],"split_indices":[3,0,0,3,0,3,0,0,0,0,0,0,0,0,0],"split_type":[0,0,0,0,0,0,0,0,0,0,0,0,0,0,0],"sum_hessian":[5.996E3,2.192E3,3.804E3,3E2,1.892E3,8.25E2,2.979E3,2.5E2,5E1,1.254E3,6.38E2,4.5E2,3.75E2,1.917E3,1.062E3],"tree_param":{"num_deleted":"0","num_feature":"5","num_nodes":"15","size_leaf_vector":"1"}},{"base_weights":[6.3162856E0,7.550996E0,4.8148904E0,6.987574E0,9.388232E0,6.8790617E0,4.4115787E0,9.165036E-2,5.9457462E-2,1.04777694E-1,8.4956855E-2,7.311415E-2,5.527817E-2,3.8699675E-2,6.550594E-2],"categories":[],"categories_nodes":[],"categories_segments":[],"categories_sizes":[],"default_left":[0,0,0,0,0,0,0,0,0,0,0,0,0,0,0],"id":72,"left_children":[1,3,5,7,9,11,13,-1,-1,-1,-1,-1,-1,-1,-1],"loss_changes":[1.10808125E4,3.3389688E3,2.2249023E3,5.6645E3,6.588047E2,2.172207E2,2.6033242E3,0E0,0E0,0E0,0E0,0E0,0E0,0E0,0E0],"parents":[2147483647,0,0,1,1,2,2,3,3,4,4,5,5,6,6],"right_children":[2,4,6,8,10,12,14,-1,-1,-1,-1,-1,-1,-1,-1],"split_conditions":[2.009E3,2.81E2,5.6E1,2E0,2.004E3,2.015E3,3.01E2,9.165036E-2,5.9457462E-2,1.04777694E-1,8.4956855E-2,7.311415E-2,5.527817E-2,3.8699675E-2,6.550594E-2],"split_indices":[3,0,0,1,3,3,0,0,0,0,0,0,0,0,0],"split_type":[0,0,0,0,0,0,0,0,0,0,0,0,0,0,0],"sum_hessian":[5.996E3,3.288E3,2.708E3,2.52E3,7.68E2,4.4E2,2.268E3,8.13E2,1.707E3,3.41E2,4.27E2,3.3E2,1.1E2,1.812E3,4.56E2],"tree_param":{"num_deleted":"0","num_feature":"5","num_nodes":"15","size_leaf_vector":"1"}},{"base_weights":[6.253218E0,7.816586E0,5.088873E0,7.341038E0,1.016606E1,6.6755114E0,4.5736995E0,1.02323264E-1,6.695611E-2,1.2314566E-1,9.775397E-2,6.934223E-2,4.2929135E-2,3.602099E-2,6.2380016E-2],"categories":[],"categories_nodes":[],"categories_segments":[],"categories_sizes":[],"default_left":[0,0,0,0,0,0,0,0,0,0,0,0,0,0,0],"id":73,"left_children":[1,3,5,7,9,11,13,-1,-1,-1,-1,-1,-1,-1,-1],"loss_changes":[1.0876578E4,2.7833906E3,2.7813047E3,3.9081797E3,2.3885938E2,4.886289E2,4.181824E3,0E0,0E0,0E0,0E0,0E0,0E0,0E0,0E0],"parents":[2147483647,0,0,1,1,2,2,3,3,4,4,5,5,6,6],"right_children":[2,4,6,8,10,12,14,-1,-1,-1,-1,-1,-1,-1,-1],"split_conditions":[2.007E3,1.1E1,8.5E1,9E0,2.001E3,2.016E3,2.6E2,1.02323264E-1,6.695611E-2,1.2314566E-1,9.775397E-2,6.934223E-2,4.2929135E-2,3.602099E-2,6.2380016E-2],"split_indices":[3,2,0,4,3,3,0,0,0,0,0,0,0,0,0],"split_type":[0,0,0,0,0,0,0,0,0,0,0,0,0,0,0],"sum_hessian":[5.996E3,2.557E3,3.439E3,2.13E3,4.27E2,8.4E2,2.599E3,3.86E2,1.744E3,6.1E1,3.66E2,7.56E2,8.4E1,1.643E3,9.56E2],"tree_param":{"num_deleted":"0","num_feature":"5","num_nodes":"15","size_leaf_vector":"1"}},{"base_weights":[6.1907864E0,7.4035E0,4.7161436E0,8.82445E0,6.689326E0,6.8896513E0,4.345447E0,1.2597373E-1,8.361153E-2,6.1858453E-2,8.818812E-2,7.30356E-2,5.586694E-2,3.8423646E-2,6.4649366E-2],"categories":[],"categories_nodes":[],"categories_segments":[],"categories_sizes":[],"default_left":[0,0,0,0,0,0,0,0,0,0,0,0,0,0,0],"id":74,"left_children":[1,3,5,7,9,11,13,-1,-1,-1,-1,-1,-1,-1,-1],"loss_changes":[1.0689641E4,3.2786562E3,2.1527305E3,1.8121953E3,2.2966797E3,1.7114453E2,2.4457266E3,0E0,0E0,0E0,0E0,0E0,0E0,0E0,0E0],"parents":[2147483647,0,0,1,1,2,2,3,3,4,4,5,5,6,6],"right_children":[2,4,6,8,10,12,14,-1,-1,-1,-1,-1,-1,-1,-1],"split_conditions":[2.009E3,2.003E3,5E1,4E1,2.97E2,2.015E3,3.03E2,1.2597373E-1,8.361153E-2,6.1858453E-2,8.818812E-2,7.30356E-2,5.586694E-2,3.8423646E-2,6.4649366E-2],"split_indices":[3,3,0,0,0,3,0,0,0,0,0,0,0,0,0],"split_type":[0,0,0,0,0,0,0,0,0,0,0,0,0,0,0],"sum_hessian":[5.996E3,3.288E3,2.708E3,1.096E3,2.192E3,3.92E2,2.316E3,1.17E2,9.79E2,1.776E3,4.16E2,2.94E2,9.8E1,1.874E3,4.42E2],"tree_param":{"num_deleted":"0","num_feature":"5","num_nodes":"15","size_leaf_vector":"1"}},{"base_weights":[6.1289773E0,7.873046E0,5.1221776E0,1.0765799E1,7.481782E0,6.784172E0,4.6597853E0,1.1864517E-1,8.457246E-2,6.584811E-2,9.500585E-2,7.5035185E-2,5.9032958E-2,3.7282158E-2,6.3362576E-2],"categories":[],"categories_nodes":[],"categories_segments":[],"categories_sizes":[],"default_left":[0,0,0,0,0,0,0,0,0,0,0,0,0,0,0],"id":75,"left_children":[1,3,5,7,9,11,13,-1,-1,-1,-1,-1,-1,-1,-1],"loss_changes":[1.0489984E4,2.4015469E3,2.8925078E3,5.565996E2,3.4413594E3,4.7910547E2,4.6303906E3,0E0,0E0,0E0,0E0,0E0,0E0,0E0,0E0],"parents":[2147483647,0,0,1,1,2,2,3,3,4,4,5,5,6,6],"right_children":[2,4,6,8,10,12,14,-1,-1,-1,-1,-1,-1,-1,-1],"split_conditions":[2.006E3,4.4E1,7.6E1,2.004E3,3.9E1,2.012E3,2.6E2,1.1864517E-1,8.457246E-2,6.584811E-2,9.500585E-2,7.5035185E-2,5.9032958E-2,3.7282158E-2,6.3362576E-2],"split_indices":[3,0,0,3,4,3,0,0,0,0,0,0,0,0,0],"split_type":[0,0,0,0,0,0,0,0,0,0,0,0,0,0,0],"sum_hessian":[5.996E3,2.192E3,3.804E3,2.58E2,1.934E3,8.25E2,2.979E3,1.72E2,8.6E1,1.342E3,5.92E2,4.5E2,3.75E2,1.917E3,1.062E3],"tree_param":{"num_deleted":"0","num_feature":"5","num_nodes":"15","size_leaf_vector":"1"}},{"base_weights":[6.067787E0,7.2596545E0,4.6185E0,8.656585E0,6.5575604E0,6.1511254E0,4.109872E0,1.2354828E-1,8.202452E-2,6.0623664E-2,8.652051E-2,7.121709E-2,5.4065805E-2,3.180799E-2,5.673333E-2],"categories":[],"categories_nodes":[],"categories_segments":[],"categories_sizes":[],"default_left":[0,0,0,0,0,0,0,0,0,0,0,0,0,0,0],"id":76,"left_children":[1,3,5,7,9,11,13,-1,-1,-1,-1,-1,-1,-1,-1],"loss_changes":[1.03254375E4,3.1690156E3,2.0864844E3,1.7410547E3,2.222086E3,4.4783594E2,2.9408398E3,0E0,0E0,0E0,0E0,0E0,0E0,0E0,0E0],"parents":[2147483647,0,0,1,1,2,2,3,3,4,4,5,5,6,6],"right_children":[2,4,6,8,10,12,14,-1,-1,-1,-1,-1,-1,-1,-1],"split_conditions":[2.009E3,2.003E3,8.5E1,4E1,2.97E2,3.7E1,2.58E2,1.2354828E-1,8.202452E-2,6.0623664E-2,8.652051E-2,7.121709E-2,5.4065805E-2,3.180799E-2,5.673333E-2],"split_indices":[3,3,0,0,0,0,0,0,0,0,0,0,0,0,0],"split_type":[0,0,0,0,0,0,0,0,0,0,0,0,0,0,0],"sum_hessian":[5.996E3,3.288E3,2.708E3,1.096E3,2.192E3,6.72E2,2.036E3,1.17E2,9.79E2,1.776E3,4.16E2,2.88E2,3.84E2,1.279E3,7.57E2],"tree_param":{"num_deleted":"0","num_feature":"5","num_nodes":"15","size_leaf_vector":"1"}},{"base_weights":[6.007204E0,7.1871653E0,4.572394E0,9.738309E0,6.8072376E0,6.0898004E0,4.0688167E0,1.1417043E-1,8.352634E-2,5.9198227E-2,8.78049E-2,7.050738E-2,5.3526554E-2,3.149016E-2,5.616675E-2],"categories":[],"categories_nodes":[],"categories_segments":[],"categories_sizes":[],"default_left":[0,0,0,0,0,0,0,0,0,0,0,0,0,0,0],"id":77,"left_children":[1,3,5,7,9,11,13,-1,-1,-1,-1,-1,-1,-1,-1],"loss_changes":[1.0120156E4,3.1215781E3,2.0452578E3,8.909414E2,4.9666562E3,4.3897852E2,2.8824336E3,0E0,0E0,0E0,0E0,0E0,0E0,0E0,0E0],"parents":[2147483647,0,0,1,1,2,2,3,3,4,4,5,5,6,6],"right_children":[2,4,6,8,10,12,14,-1,-1,-1,-1,-1,-1,-1,-1],"split_conditions":[2.009E3,4.8E1,8.5E1,2.004E3,3.9E1,3.7E1,2.58E2,1.1417043E-1,8.352634E-2,5.9198227E-2,8.78049E-2,7.050738E-2,5.3526554E-2,3.149016E-2,5.616675E-2],"split_indices":[3,0,0,3,4,0,0,0,0,0,0,0,0,0,0],"split_type":[0,0,0,0,0,0,0,0,0,0,0,0,0,0,0],"sum_hessian":[5.996E3,3.288E3,2.708E3,4.23E2,2.865E3,6.72E2,2.036E3,1.88E2,2.35E2,1.979E3,8.86E2,2.88E2,3.84E2,1.279E3,7.57E2],"tree_param":{"num_deleted":"0","num_feature":"5","num_nodes":"15","size_leaf_vector":"1"}},{"base_weights":[5.9472246E0,7.6458693E0,4.966653E0,1.0235369E1,7.230082E0,6.5896454E0,4.5151234E0,1.0879907E-1,6.862534E-2,6.2552534E-2,9.133337E-2,7.299415E-2,5.7207737E-2,3.824763E-2,6.664941E-2],"categories":[],"categories_nodes":[],"categories_segments":[],"categories_sizes":[],"default_left":[0,0,0,0,0,0,0,0,0,0,0,0,0,0,0],"id":78,"left_children":[1,3,5,7,9,11,13,-1,-1,-1,-1,-1,-1,-1,-1],"loss_changes":[9.950891E3,2.2871562E3,2.7586562E3,5.7968945E2,3.4550469E3,4.6763672E2,4.3972695E3,0E0,0E0,0E0,0E0,0E0,0E0,0E0,0E0],"parents":[2147483647,0,0,1,1,2,2,3,3,4,4,5,5,6,6],"right_children":[2,4,6,8,10,12,14,-1,-1,-1,-1,-1,-1,-1,-1],"split_conditions":[2.006E3,5.1E1,7.6E1,2.005E3,2.6E2,2.012E3,2.94E2,1.0879907E-1,6.862534E-2,6.2552534E-2,9.133337E-2,7.299415E-2,5.7207737E-2,3.824763E-2,6.664941E-2],"split_indices":[3,0,0,3,0,3,0,0,0,0,0,0,0,0,0],"split_type":[0,0,0,0,0,0,0,0,0,0,0,0,0,0,0],"sum_hessian":[5.996E3,2.192E3,3.804E3,3E2,1.892E3,8.25E2,2.979E3,2.5E2,5E1,1.254E3,6.38E2,4.5E2,3.75E2,2.257E3,7.22E2],"tree_param":{"num_deleted":"0","num_feature":"5","num_nodes":"15","size_leaf_vector":"1"}},{"base_weights":[5.887847E0,7.0475225E0,4.47771E0,8.419141E0,6.3581867E0,6.560916E0,4.122432E0,1.20112464E-1,7.978031E-2,5.8755077E-2,8.399822E-2,6.823778E-2,4.621205E-2,3.6392804E-2,6.1580695E-2],"categories":[],"categories_nodes":[],"categories_segments":[],"categories_sizes":[],"default_left":[0,0,0,0,0,0,0,0,0,0,0,0,0,0,0],"id":79,"left_children":[1,3,5,7,9,11,13,-1,-1,-1,-1,-1,-1,-1,-1],"loss_changes":[9.775344E3,3.0562344E3,1.9779297E3,1.6423906E3,2.11175E3,1.688457E2,2.256414E3,0E0,0E0,0E0,0E0,0E0,0E0,0E0,0E0],"parents":[2147483647,0,0,1,1,2,2,3,3,4,4,5,5,6,6],"right_children":[2,4,6,8,10,12,14,-1,-1,-1,-1,-1,-1,-1,-1],"split_conditions":[2.009E3,2.003E3,5E1,4E1,2.97E2,2.016E3,3.03E2,1.20112464E-1,7.978031E-2,5.8755077E-2,8.399822E-2,6.823778E-2,4.621205E-2,3.6392804E-2,6.1580695E-2],"split_indices":[3,3,0,0,0,3,0,0,0,0,0,0,0,0,0],"split_type":[0,0,0,0,0,0,0,0,0,0,0,0,0,0,0],"sum_hessian":[5.996E3,3.288E3,2.708E3,1.096E3,2.192E3,3.92E2,2.316E3,1.17E2,9.79E2,1.776E3,4.16E2,3.43E2,4.9E1,1.874E3,4.42E2],"tree_param":{"num_deleted":"0","num_feature":"5","num_nodes":"15","size_leaf_vector":"1"}},{"base_weights":[5.829061E0,6.9771514E0,4.433011E0,8.335132E0,6.29467E0,5.915431E0,3.9410615E0,1.18921526E-1,7.898332E-2,5.816786E-2,8.316026E-2,6.852308E-2,5.1968E-2,3.0429682E-2,5.452431E-2],"categories":[],"categories_nodes":[],"categories_segments":[],"categories_sizes":[],"default_left":[0,0,0,0,0,0,0,0,0,0,0,0,0,0,0],"id":80,"left_children":[1,3,5,7,9,11,13,-1,-1,-1,-1,-1,-1,-1,-1],"loss_changes":[9.581016E3,2.9957656E3,1.952293E3,1.6104844E3,2.0700078E3,4.175E2,2.748334E3,0E0,0E0,0E0,0E0,0E0,0E0,0E0,0E0],"parents":[2147483647,0,0,1,1,2,2,3,3,4,4,5,5,6,6],"right_children":[2,4,6,8,10,12,14,-1,-1,-1,-1,-1,-1,-1,-1],"split_conditions":[2.009E3,2.003E3,8.5E1,4E1,2.97E2,3.7E1,2.58E2,1.18921526E-1,7.898332E-2,5.816786E-2,8.316026E-2,6.852308E-2,5.1968E-2,3.0429682E-2,5.452431E-2],"split_indices":[3,3,0,0,0,0,0,0,0,0,0,0,0,0,0],"split_type":[0,0,0,0,0,0,0,0,0,0,0,0,0,0,0],"sum_hessian":[5.996E3,3.288E3,2.708E3,1.096E3,2.192E3,6.72E2,2.036E3,1.17E2,9.79E2,1.776E3,4.16E2,2.88E2,3.84E2,1.279E3,7.57E2],"tree_param":{"num_deleted":"0","num_feature":"5","num_nodes":"15","size_leaf_vector":"1"}},{"base_weights":[5.770861E0,7.422734E0,4.8172927E0,9.965018E0,7.014572E0,6.408294E0,4.3746805E0,1.0592663E-1,6.680624E-2,6.055017E-2,8.888167E-2,7.1098246E-2,5.5497874E-2,3.488977E-2,5.9686635E-2],"categories":[],"categories_nodes":[],"categories_segments":[],"categories_sizes":[],"default_left":[0,0,0,0,0,0,0,0,0,0,0,0,0,0,0],"id":81,"left_children":[1,3,5,7,9,11,13,-1,-1,-1,-1,-1,-1,-1,-1],"loss_changes":[9.410547E3,2.2057031E3,2.6514375E3,5.4972656E2,3.3494531E3,4.5801562E2,4.186328E3,0E0,0E0,0E0,0E0,0E0,0E0,0E0,0E0],"parents":[2147483647,0,0,1,1,2,2,3,3,4,4,5,5,6,6],"right_children":[2,4,6,8,10,12,14,-1,-1,-1,-1,-1,-1,-1,-1],"split_conditions":[2.006E3,5.1E1,7.6E1,2.005E3,2.6E2,2.012E3,2.6E2,1.0592663E-1,6.680624E-2,6.055017E-2,8.888167E-2,7.1098246E-2,5.5497874E-2,3.488977E-2,5.9686635E-2],"split_indices":[3,0,0,3,0,3,0,0,0,0,0,0,0,0,0],"split_type":[0,0,0,0,0,0,0,0,0,0,0,0,0,0,0],"sum_hessian":[5.996E3,2.192E3,3.804E3,3E2,1.892E3,8.25E2,2.979E3,2.5E2,5E1,1.254E3,6.38E2,4.5E2,3.75E2,1.917E3,1.062E3],"tree_param":{"num_deleted":"0","num_feature":"5","num_nodes":"15","size_leaf_vector":"1"}},{"base_weights":[5.713243E0,6.8415804E0,4.341219E0,9.306741E0,6.474494E0,5.7980294E0,3.857775E0,1.0892678E-1,7.99721E-2,5.6178644E-2,8.3794E-2,6.903463E-2,5.2008316E-2,2.9776996E-2,5.338829E-2],"categories":[],"categories_nodes":[],"categories_segments":[],"categories_sizes":[],"default_left":[0,0,0,0,0,0,0,0,0,0,0,0,0,0,0],"id":82,"left_children":[1,3,5,7,9,11,13,-1,-1,-1,-1,-1,-1,-1,-1],"loss_changes":[9.254281E3,2.9160469E3,1.8855391E3,7.9346484E2,4.6296562E3,4.0838867E2,2.6392031E3,0E0,0E0,0E0,0E0,0E0,0E0,0E0,0E0],"parents":[2147483647,0,0,1,1,2,2,3,3,4,4,5,5,6,6],"right_children":[2,4,6,8,10,12,14,-1,-1,-1,-1,-1,-1,-1,-1],"split_conditions":[2.009E3,4.8E1,8.5E1,2.004E3,3.9E1,3E1,2.58E2,1.0892678E-1,7.99721E-2,5.6178644E-2,8.3794E-2,6.903463E-2,5.2008316E-2,2.9776996E-2,5.338829E-2],"split_indices":[3,0,0,3,4,0,0,0,0,0,0,0,0,0,0],"split_type":[0,0,0,0,0,0,0,0,0,0,0,0,0,0,0],"sum_hessian":[5.996E3,3.288E3,2.708E3,4.23E2,2.865E3,6.72E2,2.036E3,1.88E2,2.35E2,1.979E3,8.86E2,2.32E2,4.4E2,1.279E3,7.57E2],"tree_param":{"num_deleted":"0","num_feature":"5","num_nodes":"15","size_leaf_vector":"1"}},{"base_weights":[5.6561995E0,7.2795043E0,4.7191267E0,9.769574E0,6.87972E0,5.427852E0,3.7536707E0,1.038724E-1,6.538124E-2,5.938381E-2,8.717749E-2,4.999341E-2,7.458019E-2,5.4702368E-2,3.2476526E-2],"categories":[],"categories_nodes":[],"categories_segments":[],"categories_sizes":[],"default_left":[0,0,0,0,0,0,0,0,0,0,0,0,0,0,0],"id":83,"left_children":[1,3,5,7,9,11,13,-1,-1,-1,-1,-1,-1,-1,-1],"loss_changes":[9.088E3,2.1158906E3,2.583164E3,5.328711E2,3.2235234E3,1.8696484E3,1.3841777E3,0E0,0E0,0E0,0E0,0E0,0E0,0E0,0E0],"parents":[2147483647,0,0,1,1,2,2,3,3,4,4,5,5,6,6],"right_children":[2,4,6,8,10,12,14,-1,-1,-1,-1,-1,-1,-1,-1],"split_conditions":[2.006E3,5.1E1,2.012E3,2.005E3,2.6E2,3.03E2,7.4E1,1.038724E-1,6.538124E-2,5.938381E-2,8.717749E-2,4.999341E-2,7.458019E-2,5.4702368E-2,3.2476526E-2],"split_indices":[3,0,3,3,0,0,0,0,0,0,0,0,0,0,0],"split_type":[0,0,0,0,0,0,0,0,0,0,0,0,0,0,0],"sum_hessian":[5.996E3,2.192E3,3.804E3,3E2,1.892E3,2.191E3,1.613E3,2.5E2,5E1,1.254E3,6.38E2,1.812E3,3.79E2,3.65E2,1.248E3],"tree_param":{"num_deleted":"0","num_feature":"5","num_nodes":"15","size_leaf_vector":"1"}},{"base_weights":[5.5997257E0,6.8514957E0,4.4080105E0,6.4097214E0,9.037324E0,5.8119235E0,3.9184308E0,8.393299E-2,5.5687774E-2,1.13488555E-1,8.68136E-2,6.078102E-2,3.6381267E-2,3.0231021E-2,5.3991344E-2],"categories":[],"categories_nodes":[],"categories_segments":[],"categories_sizes":[],"default_left":[0,0,0,0,0,0,0,0,0,0,0,0,0,0,0],"id":84,"left_children":[1,3,5,7,9,11,13,-1,-1,-1,-1,-1,-1,-1,-1],"loss_changes":[8.915844E3,2.7646562E3,2.0907578E3,4.0150234E3,3.0383594E2,4.3673438E2,3.0102852E3,0E0,0E0,0E0,0E0,0E0,0E0,0E0,0E0],"parents":[2147483647,0,0,1,1,2,2,3,3,4,4,5,5,6,6],"right_children":[2,4,6,8,10,12,14,-1,-1,-1,-1,-1,-1,-1,-1],"split_conditions":[2.008E3,1.1E1,8.9E1,1.4E1,2.001E3,2.016E3,2.59E2,8.393299E-2,5.5687774E-2,1.13488555E-1,8.68136E-2,6.078102E-2,3.6381267E-2,3.0231021E-2,5.3991344E-2],"split_indices":[3,2,0,4,3,3,0,0,0,0,0,0,0,0,0],"split_type":[0,0,0,0,0,0,0,0,0,0,0,0,0,0,0],"sum_hessian":[5.996E3,2.922E3,3.074E3,2.434E3,4.88E2,7.92E2,2.282E3,7.22E2,1.712E3,6.1E1,4.27E2,7.04E2,8.8E1,1.424E3,