{"learner":{"attributes":{"best_iteration":"999","best_score":"0.4606471995944588","scikit_learn":"{\"_estimator_type\": \"regressor\"}"},"feature_names":["dayofyear","quarter","month","year","weekofyear"],"feature_types":["int","int","int","int","i"],"gradient_booster":{"model":{"gbtree_model_param":{"num_parallel_tree":"1","num_trees":"1000"},"iteration_indptr":[0,1,2,3,4,5,6,7,8,9,10,11,12,13,14,15,16,17,18,19,20,21,22,23,24,25,26,27,28,29,30,31,32,33,34,35,36,37,38,39,40,41,42,43,44,45,46,47,48,49,50,51,52,53,54,55,56,57,58,59,60,61,62,63,64,65,66,67,68,69,70,71,72,73,74,75,76,77,78,79,80,81,82,83,84,85,86,87,88,89,90,91,92,93,94,95,96,97,98,99,100,101,102,103,104,105,106,107,108,109,110,111,112,113,114,115,116,117,118,119,120,121,122,123,124,125,126,127,128,129,130,131,132,133,134,135,136,137,138,139,140,141,142,143,144,145,146,147,148,149,150,151,152,153,154,155,156,157,158,159,160,161,162,163,164,165,166,167,168,169,170,171,172,173,174,175,176,177,178,179,180,181,182,183,184,185,186,187,188,189,190,191,192,193,194,195,196,197,198,199,200,201,202,203,204,205,206,207,208,209,210,211,212,213,214,215,216,217,218,219,220,221,222,223,224,225,226,227,228,229,230,231,232,233,234,235,236,237,238,239,240,241,242,243,244,245,246,247,248,249,250,251,252,253,254,255,256,257,258,259,260,261,262,263,264,265,266,267,268,269,270,271,272,273,274,275,276,277,278,279,280,281,282,283,284,285,286,287,288,289,290,291,292,293,294,295,296,297,298,299,300,301,302,303,304,305,306,307,308,309,310,311,312,313,314,315,316,317,318,319,320,321,322,323,324,325,326,327,328,329,330,331,332,333,334,335,336,337,338,339,340,341,342,343,344,345,346,347,348,349,350,351,352,353,354,355,356,357,358,359,360,361,362,363,364,365,366,367,368,369,370,371,372,373,374,375,376,377,378,379,380,381,382,383,384,385,386,387,388,389,390,391,392,393,394,395,396,397,398,399,400,401,402,403,404,405,406,407,408,409,410,411,412,413,414,415,416,417,418,419,420,421,422,423,424,425,426,427,428,429,430,431,432,433,434,435,436,437,438,439,440,441,442,443,444,445,446,447,448,449,450,451,452,453,454,455,456,457,458,459,460,461,462,463,464,465,466,467,468,469,470,471,472,473,474,475,476,477,478,479,480,481,482,483,484,485,486,487,488,489,490,491,492,493,494,495,496,497,498,499,500,501,502,503,504,505,506,507,508,509,510,511,512,513,514,515,516,517,518,519,520,521,522,523,524,525,526,527,528,529,530,531,532,533,534,535,536,537,538,539,540,541,542,543,544,545,546,547,548,549,550,551,552,553,554,555,556,557,558,559,560,561,562,563,564,565,566,567,568,569,570,571,572,573,574,575,576,577,578,579,580,581,582,583,584,585,586,587,588,589,590,591,592,593,594,595,596,597,598,599,600,601,602,603,604,605,606,607,608,609,610,611,612,613,614,615,616,617,618,619,620,621,622,623,624,625,626,627,628,629,630,631,632,633,634,635,636,637,638,639,640,641,642,643,644,645,646,647,648,649,650,651,652,653,654,655,656,657,658,659,660,661,662,663,664,665,666,667,668,669,670,671,672,673,674,675,676,677,678,679,680,681,682,683,684,685,686,687,688,689,690,691,692,693,694,695,696,697,698,699,700,701,702,703,704,705,706,707,708,709,710,711,712,713,714,715,716,717,718,719,720,721,722,723,724,725,726,727,728,729,730,731,732,733,734,735,736,737,738,739,740,741,742,743,744,745,746,747,748,749,750,751,752,753,754,755,756,757,758,759,760,761,762,763,764,765,766,767,768,769,770,771,772,773,774,775,776,777,778,779,780,781,782,783,784,785,786,787,788,789,790,791,792,793,794,795,796,797,798,799,800,801,802,803,804,805,806,807,808,809,810,811,812,813,814,815,816,817,818,819,820,821,822,823,824,825,826,827,828,829,830,831,832,833,834,835,836,837,838,839,840,841,842,843,844,845,846,847,848,849,850,851,852,853,854,855,856,857,858,859,860,861,862,863,864,865,866,867,868,869,870,871,872,873,874,875,876,877,878,879,880,881,882,883,884,885,886,887,888,889,890,891,892,893,894,895,896,897,898,899,900,901,902,903,904,905,906,907,908,909,910,911,912,913,914,915,916,917,918,919,920,921,922,923,924,925,926,927,928,929,930,931,932,933,934,935,936,937,938,939,940,941,942,943,944,945,946,947,948,949,950,951,952,953,954,955,956,957,958,959,960,961,962,963,964,965,966,967,968,969,970,971,972,973,974,975,976,977,978,979,980,981,982,983,984,985,986,987,988,989,990,991,992,993,994,995,996,997,998,999,1000],"tree_info":[0,0,0,0,0,0,0,0,0,0,0,0,0,0,0,0,0,0,0,0,0,0,0,0,0,0,0,0,0,0,0,0,0,0,0,0,0,0,0,0,0,0,0,0,0,0,0,0,0,0,0,0,0,0,0,0,0,0,0,0,0,0,0,0,0,0,0,0,0,0,0,0,0,0,0,0,0,0,0,0,0,0,0,0,0,0,0,0,0,0,0,0,0,0,0,0,0,0,0,0,0,0,0,0,0,0,0,0,0,0,0,0,0,0,0,0,0,0,0,0,0,0,0,0,0,0,0,0,0,0,0,0,0,0,0,0,0,0,0,0,0,0,0,0,0,0,0,0,0,0,0,0,0,0,0,0,0,0,0,0,0,0,0,0,0,0,0,0,0,0,0,0,0,0,0,0,0,0,0,0,0,0,0,0,0,0,0,0,0,0,0,0,0,0,0,0,0,0,0,0,0,0,0,0,0,0,0,0,0,0,0,0,0,0,0,0,0,0,0,0,0,0,0,0,0,0,0,0,0,0,0,0,0,0,0,0,0,0,0,0,0,0,0,0,0,0,0,0,0,0,0,0,0,0,0,0,0,0,0,0,0,0,0,0,0,0,0,0,0,0,0,0,0,0,0,0,0,0,0,0,0,0,0,0,0,0,0,0,0,0,0,0,0,0,0,0,0,0,0,0,0,0,0,0,0,0,0,0,0,0,0,0,0,0,0,0,0,0,0,0,0,0,0,0,0,0,0,0,0,0,0,0,0,0,0,0,0,0,0,0,0,0,0,0,0,0,0,0,0,0,0,0,0,0,0,0,0,0,0,0,0,0,0,0,0,0,0,0,0,0,0,0,0,0,0,0,0,0,0,0,0,0,0,0,0,0,0,0,0,0,0,0,0,0,0,0,0,0,0,0,0,0,0,0,0,0,0,0,0,0,0,0,0,0,0,0,0,0,0,0,0,0,0,0,0,0,0,0,0,0,0,0,0,0,0,0,0,0,0,0,0,0,0,0,0,0,0,0,0,0,0,0,0,0,0,0,0,0,0,0,0,0,0,0,0,0,0,0,0,0,0,0,0,0,0,0,0,0,0,0,0,0,0,0,0,0,0,0,0,0,0,0,0,0,0,0,0,0,0,0,0,0,0,0,0,0,0,0,0,0,0,0,0,0,0,0,0,0,0,0,0,0,0,0,0,0,0,0,0,0,0,0,0,0,0,0,0,0,0,0,0,0,0,0,0,0,0,0,0,0,0,0,0,0,0,0,0,0,0,0,0,0,0,0,0,0,0,0,0,0,0,0,0,0,0,0,0,0,0,0,0,0,0,0,0,0,0,0,0,0,0,0,0,0,0,0,0,0,0,0,0,0,0,0,0,0,0,0,0,0,0,0,0,0,0,0,0,0,0,0,0,0,0,0,0,0,0,0,0,0,0,0,0,0,0,0,0,0,0,0,0,0,0,0,0,0,0,0,0,0,0,0,0,0,0,0,0,0,0,0,0,0,0,0,0,0,0,0,0,0,0,0,0,0,0,0,0,0,0,0,0,0,0,0,0,0,0,0,0,0,0,0,0,0,0,0,0,0,0,0,0,0,0,0,0,0,0,0,0,0,0,0,0,0,0,0,0,0,0,0,0,0,0,0,0,0,0,0,0,0,0,0,0,0,0,0,0,0,0,0,0,0,0,0,0,0,0,0,0,0,0,0,0,0,0,0,0,0,0,0,0,0,0,0,0,0,0,0,0,0,0,0,0,0,0,0,0,0,0,0,0,0,0,0,0,0,0,0,0,0,0,0,0,0,0,0,0,0,0,0,0,0,0,0,0,0,0,0,0,0,0,0,0,0,0,0,0,0,0,0,0,0,0,0,0,0,0,0,0,0,0,0,0,0,0,0,0,0,0,0,0,0,0,0,0,0,0,0,0,0,0,0,0,0,0,0,0,0,0,0,0,0,0,0,0,0,0,0,0,0,0,0,0,0,0,0,0,0,0,0,0,0,0,0,0,0,0,0,0,0,0,0,0,0,0,0,0,0,0,0,0,0,0,0,0,0,0,0,0,0,0,0,0,0,0,0,0,0,0,0,0,0,0,0,0,0,0,0,0,0,0,0,0,0,0,0,0,0,0,0,0,0,0,0,0,0,0,0,0,0,0,0,0,0,0,0,0,0,0,0,0,0,0,0,0,0,0,0,0,0,0,0,0,0,0,0,0,0,0,0,0,0,0,0,0,0,0,0,0,0,0,0,0,0,0,0,0,0,0,0],"trees":[{"base_weights":[1.4958274E0,2.3863904E0,6.487993E-1,3.1473088E0,2.2762444E0,9.990711E-1,3.3111268E-1,2.9408805E-2,3.8077652E-2,2.3955341E-2,1.9749874E-2,1.2317615E-2,7.6469574E-3,6.238286E-3,2.5104112E-3],"categories":[],"categories_nodes":[],"categories_segments":[],"categories_sizes":[],"default_left":[0,0,0,0,0,0,0,0,0,0,0,0,0,0,0],"id":0,"left_children":[1,3,5,7,9,11,13,-1,-1,-1,-1,-1,-1,-1,-1],"loss_changes":[4.5221807E3,2.3782031E2,3.4184497E2,3.8837646E1,8.715918E1,7.8791016E1,3.7672684E1,0E0,0E0,0E0,0E0,0E0,0E0,0E0,0E0],"parents":[2147483647,0,0,1,1,2,2,3,3,4,4,5,5,6,6],"right_children":[2,4,6,8,10,12,14,-1,-1,-1,-1,-1,-1,-1,-1],"split_conditions":[2.008E3,2.001E3,2.012E3,2.84E2,2.006E3,2.01E3,7E1,2.9408805E-2,3.8077652E-2,2.3955341E-2,1.9749874E-2,1.2317615E-2,7.6469574E-3,6.238286E-3,2.5104112E-3],"split_indices":[3,3,3,0,3,3,0,0,0,0,0,0,0,0,0],"split_type":[0,0,0,0,0,0,0,0,0,0,0,0,0,0,0],"sum_hessian":[5.996E3,2.922E3,3.074E3,3.66E2,2.556E3,1.461E3,1.613E3,2.83E2,8.3E1,1.826E3,7.3E2,7.31E2,7.3E2,3.45E2,1.268E3],"tree_param":{"num_deleted":"0","num_feature":"5","num_nodes":"15","size_leaf_vector":"1"}},{"base_weights":[1.4808925E0,2.3625646E0,6.4232063E-1,3.1160197E0,2.253499E0,9.890941E-1,3.2780698E-1,2.9115753E-2,3.770141E-2,2.371592E-2,1.9552644E-2,1.2194607E-2,7.570592E-3,6.1760833E-3,2.4853267E-3],"categories":[],"categories_nodes":[],"categories_segments":[],"categories_sizes":[],"default_left":[0,0,0,0,0,0,0,0,0,0,0,0,0,0,0],"id":1,"left_children":[1,3,5,7,9,11,13,-1,-1,-1,-1,-1,-1,-1,-1],"loss_changes":[4.432337E3,2.3317871E2,3.3505054E2,3.810205E1,8.541797E1,7.722534E1,3.6926224E1,0E0,0E0,0E0,0E0,0E0,0E0,0E0,0E0],"parents":[2147483647,0,0,1,1,2,2,3,3,4,4,5,5,6,6],"right_children":[2,4,6,8,10,12,14,-1,-1,-1,-1,-1,-1,-1,-1],"split_conditions":[2.008E3,2.001E3,2.012E3,2.84E2,2.006E3,2.01E3,7E1,2.9115753E-2,3.770141E-2,2.371592E-2,1.9552644E-2,1.2194607E-2,7.570592E-3,6.1760833E-3,2.4853267E-3],"split_indices":[3,3,3,0,3,3,0,0,0,0,0,0,0,0,0],"split_type":[0,0,0,0,0,0,0,0,0,0,0,0,0,0,0],"sum_hessian":[5.996E3,2.922E3,3.074E3,3.66E2,2.556E3,1.461E3,1.613E3,2.83E2,8.3E1,1.826E3,7.3E2,7.31E2,7.3E2,3.45E2,1.268E3],"tree_param":{"num_deleted":"0","num_feature":"5","num_nodes":"15","size_leaf_vector":"1"}},{"base_weights":[1.4661067E0,2.3389766E0,6.359067E-1,2.8287742E0,2.1743457E0,9.7921664E-1,3.2453427E-1,3.0850414E-2,2.5640778E-2,2.2921622E-2,1.9357385E-2,1.2072828E-2,7.4949902E-3,6.114501E-3,2.460493E-3],"categories":[],"categories_nodes":[],"categories_segments":[],"categories_sizes":[],"default_left":[0,0,0,0,0,0,0,0,0,0,0,0,0,0,0],"id":2,"left_children":[1,3,5,7,9,11,13,-1,-1,-1,-1,-1,-1,-1,-1],"loss_changes":[4.3442783E3,2.2954883E2,3.2839136E2,4.1743652E1,5.7183594E1,7.569043E1,3.619455E1,0E0,0E0,0E0,0E0,0E0,0E0,0E0,0E0],"parents":[2147483647,0,0,1,1,2,2,3,3,4,4,5,5,6,6],"right_children":[2,4,6,8,10,12,14,-1,-1,-1,-1,-1,-1,-1,-1],"split_conditions":[2.008E3,2.002E3,2.012E3,2.001E3,2.006E3,2.01E3,7E1,3.0850414E-2,2.5640778E-2,2.2921622E-2,1.9357385E-2,1.2072828E-2,7.4949902E-3,6.114501E-3,2.460493E-3],"split_indices":[3,3,3,3,3,3,0,0,0,0,0,0,0,0,0],"split_type":[0,0,0,0,0,0,0,0,0,0,0,0,0,0,0],"sum_hessian":[5.996E3,2.922E3,3.074E3,7.31E2,2.191E3,1.461E3,1.613E3,3.66E2,3.65E2,1.461E3,7.3E2,7.31E2,7.3E2,3.45E2,1.268E3],"tree_param":{"num_deleted":"0","num_feature":"5","num_nodes":"15","size_leaf_vector":"1"}},{"base_weights":[1.4514668E0,2.3156207E0,6.295568E-1,2.8005636E0,2.1526217E0,9.694379E-1,3.2129425E-1,3.0542752E-2,2.5385069E-2,2.2692561E-2,1.9164076E-2,1.1952264E-2,7.4201426E-3,6.0535334E-3,2.4359075E-3],"categories":[],"categories_nodes":[],"categories_segments":[],"categories_sizes":[],"default_left":[0,0,0,0,0,0,0,0,0,0,0,0,0,0,0],"id":3,"left_children":[1,3,5,7,9,11,13,-1,-1,-1,-1,-1,-1,-1,-1],"loss_changes":[4.257951E3,2.2501953E2,3.2186426E2,4.091504E1,5.604297E1,7.418628E1,3.547737E1,0E0,0E0,0E0,0E0,0E0,0E0,0E0,0E0],"parents":[2147483647,0,0,1,1,2,2,3,3,4,4,5,5,6,6],"right_children":[2,4,6,8,10,12,14,-1,-1,-1,-1,-1,-1,-1,-1],"split_conditions":[2.008E3,2.002E3,2.012E3,2.001E3,2.006E3,2.01E3,7E1,3.0542752E-2,2.5385069E-2,2.2692561E-2,1.9164076E-2,1.1952264E-2,7.4201426E-3,6.0535334E-3,2.4359075E-3],"split_indices":[3,3,3,3,3,3,0,0,0,0,0,0,0,0,0],"split_type":[0,0,0,0,0,0,0,0,0,0,0,0,0,0,0],"sum_hessian":[5.996E3,2.922E3,3.074E3,7.31E2,2.191E3,1.461E3,1.613E3,3.66E2,3.65E2,1.461E3,7.3E2,7.31E2,7.3E2,3.45E2,1.268E3],"tree_param":{"num_deleted":"0","num_feature":"5","num_nodes":"15","size_leaf_vector":"1"}},{"base_weights":[1.4369731E0,2.2924979E0,6.232703E-1,2.7726345E0,2.1311145E0,9.597568E-1,3.1808656E-1,3.0238157E-2,2.5131911E-2,2.2465792E-2,1.8972699E-2,1.3484305E-2,8.287321E-3,5.993173E-3,2.4115676E-3],"categories":[],"categories_nodes":[],"categories_segments":[],"categories_sizes":[],"default_left":[0,0,0,0,0,0,0,0,0,0,0,0,0,0,0],"id":4,"left_children":[1,3,5,7,9,11,13,-1,-1,-1,-1,-1,-1,-1,-1],"loss_changes":[4.173339E3,2.2058496E2,3.1546704E2,4.0103027E1,5.492285E1,7.333618E1,3.47744E1,0E0,0E0,0E0,0E0,0E0,0E0,0E0,0E0],"parents":[2147483647,0,0,1,1,2,2,3,3,4,4,5,5,6,6],"right_children":[2,4,6,8,10,12,14,-1,-1,-1,-1,-1,-1,-1,-1],"split_conditions":[2.008E3,2.002E3,2.012E3,2.001E3,2.006E3,2.009E3,7E1,3.0238157E-2,2.5131911E-2,2.2465792E-2,1.8972699E-2,1.3484305E-2,8.287321E-3,5.993173E-3,2.4115676E-3],"split_indices":[3,3,3,3,3,3,0,0,0,0,0,0,0,0,0],"split_type":[0,0,0,0,0,0,0,0,0,0,0,0,0,0,0],"sum_hessian":[5.996E3,2.922E3,3.074E3,7.31E2,2.191E3,1.461E3,1.613E3,3.66E2,3.65E2,1.461E3,7.3E2,3.66E2,1.095E3,3.45E2,1.268E3],"tree_param":{"num_deleted":"0","num_feature":"5","num_nodes":"15","size_leaf_vector":"1"}},{"base_weights":[1.4226245E0,2.269606E0,6.170474E-1,2.744984E0,2.1098223E0,9.501741E-1,3.1491092E-1,2.9936599E-2,2.4881281E-2,2.2241287E-2,1.878323E-2,1.3349829E-2,8.2045235E-3,5.9334147E-3,2.387471E-3],"categories":[],"categories_nodes":[],"categories_segments":[],"categories_sizes":[],"default_left":[0,0,0,0,0,0,0,0,0,0,0,0,0,0,0],"id":5,"left_children":[1,3,5,7,9,11,13,-1,-1,-1,-1,-1,-1,-1,-1],"loss_changes":[4.0904072E3,2.1623242E2,3.0919873E2,3.930713E1,5.382715E1,7.188489E1,3.4085358E1,0E0,0E0,0E0,0E0,0E0,0E0,0E0,0E0],"parents":[2147483647,0,0,1,1,2,2,3,3,4,4,5,5,6,6],"right_children":[2,4,6,8,10,12,14,-1,-1,-1,-1,-1,-1,-1,-1],"split_conditions":[2.008E3,2.002E3,2.012E3,2.001E3,2.006E3,2.009E3,7E1,2.9936599E-2,2.4881281E-2,2.2241287E-2,1.878323E-2,1.3349829E-2,8.2045235E-3,5.9334147E-3,2.387471E-3],"split_indices":[3,3,3,3,3,3,0,0,0,0,0,0,0,0,0],"split_type":[0,0,0,0,0,0,0,0,0,0,0,0,0,0,0],"sum_hessian":[5.996E3,2.922E3,3.074E3,7.31E2,2.191E3,1.461E3,1.613E3,3.66E2,3.65E2,1.461E3,7.3E2,3.66E2,1.095E3,3.45E2,1.268E3],"tree_param":{"num_deleted":"0","num_feature":"5","num_nodes":"15","size_leaf_vector":"1"}},{"base_weights":[1.4084193E0,2.2469428E0,6.1088663E-1,2.717609E0,2.0887427E0,9.406871E-1,3.1176698E-1,2.9638048E-2,2.4633149E-2,2.2019025E-2,1.8595656E-2,1.16165E-2,7.1813506E-3,5.8742515E-3,2.3636152E-3],"categories":[],"categories_nodes":[],"categories_segments":[],"categories_sizes":[],"default_left":[0,0,0,0,0,0,0,0,0,0,0,0,0,0,0],"id":6,"left_children":[1,3,5,7,9,11,13,-1,-1,-1,-1,-1,-1,-1,-1],"loss_changes":[4.00912E3,2.1196777E2,3.0305505E2,3.8526855E1,5.2751953E1,7.106067E1,3.3409973E1,0E0,0E0,0E0,0E0,0E0,0E0,0E0,0E0],"parents":[2147483647,0,0,1,1,2,2,3,3,4,4,5,5,6,6],"right_children":[2,4,6,8,10,12,14,-1,-1,-1,-1,-1,-1,-1,-1],"split_conditions":[2.008E3,2.002E3,2.012E3,2.001E3,2.006E3,2.01E3,7E1,2.9638048E-2,2.4633149E-2,2.2019025E-2,1.8595656E-2,1.16165E-2,7.1813506E-3,5.8742515E-3,2.3636152E-3],"split_indices":[3,3,3,3,3,3,0,0,0,0,0,0,0,0,0],"split_type":[0,0,0,0,0,0,0,0,0,0,0,0,0,0,0],"sum_hessian":[5.996E3,2.922E3,3.074E3,7.31E2,2.191E3,1.461E3,1.613E3,3.66E2,3.65E2,1.461E3,7.3E2,7.31E2,7.3E2,3.45E2,1.268E3],"tree_param":{"num_deleted":"0","num_feature":"5","num_nodes":"15","size_leaf_vector":"1"}},{"base_weights":[1.3943554E0,2.224506E0,6.047866E-1,2.690507E0,2.067874E0,9.312931E-1,3.086544E-1,2.9342476E-2,2.438749E-2,2.1798987E-2,1.8409954E-2,1.3100847E-2,8.036034E-3,5.7912963E-3,2.3330196E-3],"categories":[],"categories_nodes":[],"categories_segments":[],"categories_sizes":[],"default_left":[0,0,0,0,0,0,0,0,0,0,0,0,0,0,0],"id":7,"left_children":[1,3,5,7,9,11,13,-1,-1,-1,-1,-1,-1,-1,-1],"loss_changes":[3.929454E3,2.0778711E2,2.9703162E2,3.7762695E1,5.169922E1,6.966089E1,3.275978E1,0E0,0E0,0E0,0E0,0E0,0E0,0E0,0E0],"parents":[2147483647,0,0,1,1,2,2,3,3,4,4,5,5,6,6],"right_children":[2,4,6,8,10,12,14,-1,-1,-1,-1,-1,-1,-1,-1],"split_conditions":[2.008E3,2.002E3,2.012E3,2.001E3,2.006E3,2.009E3,1.1E1,2.9342476E-2,2.438749E-2,2.1798987E-2,1.8409954E-2,1.3100847E-2,8.036034E-3,5.7912963E-3,2.3330196E-3],"split_indices":[3,3,3,3,3,3,4,0,0,0,0,0,0,0,0],"split_type":[0,0,0,0,0,0,0,0,0,0,0,0,0,0,0],"sum_hessian":[5.996E3,2.922E3,3.074E3,7.31E2,2.191E3,1.461E3,1.613E3,3.66E2,3.65E2,1.461E3,7.3E2,3.66E2,1.095E3,3.5E2,1.263E3],"tree_param":{"num_deleted":"0","num_feature":"5","num_nodes":"15","size_leaf_vector":"1"}},{"base_weights":[1.3804324E0,2.202293E0,5.987482E-1,2.663675E0,2.0472136E0,9.219946E-1,3.0557287E-1,2.9049851E-2,2.4144279E-2,2.1581147E-2,1.8226106E-2,1.1394919E-2,7.029385E-3,5.758633E-3,2.3163585E-3],"categories":[],"categories_nodes":[],"categories_segments":[],"categories_sizes":[],"default_left":[0,0,0,0,0,0,0,0,0,0,0,0,0,0,0],"id":8,"left_children":[1,3,5,7,9,11,13,-1,-1,-1,-1,-1,-1,-1,-1],"loss_changes":[3.8513662E3,2.0369043E2,2.9112952E2,3.7013184E1,5.0666992E1,6.885474E1,3.212152E1,0E0,0E0,0E0,0E0,0E0,0E0,0E0,0E0],"parents":[2147483647,0,0,1,1,2,2,3,3,4,4,5,5,6,6],"right_children":[2,4,6,8,10,12,14,-1,-1,-1,-1,-1,-1,-1,-1],"split_conditions":[2.008E3,2.002E3,2.012E3,2.001E3,2.006E3,2.01E3,7E1,2.9049851E-2,2.4144279E-2,2.1581147E-2,1.8226106E-2,1.1394919E-2,7.029385E-3,5.758633E-3,2.3163585E-3],"split_indices":[3,3,3,3,3,3,0,0,0,0,0,0,0,0,0],"split_type":[0,0,0,0,0,0,0,0,0,0,0,0,0,0,0],"sum_hessian":[5.996E3,2.922E3,3.074E3,7.31E2,2.191E3,1.461E3,1.613E3,3.66E2,3.65E2,1.461E3,7.3E2,7.31E2,7.3E2,3.45E2,1.268E3],"tree_param":{"num_deleted":"0","num_feature":"5","num_nodes":"15","size_leaf_vector":"1"}},{"base_weights":[1.366648E0,2.180302E0,5.927693E-1,2.6371112E0,2.0267596E0,9.1278726E-1,3.0252215E-1,2.8760144E-2,2.3903498E-2,2.1365482E-2,1.8044094E-2,1.2856556E-2,7.87098E-3,5.677303E-3,2.2863718E-3],"categories":[],"categories_nodes":[],"categories_segments":[],"categories_sizes":[],"default_left":[0,0,0,0,0,0,0,0,0,0,0,0,0,0,0],"id":9,"left_children":[1,3,5,7,9,11,13,-1,-1,-1,-1,-1,-1,-1,-1],"loss_changes":[3.774835E3,1.9967285E2,2.8534314E2,3.627832E1,4.9654297E1,6.750549E1,3.1496338E1,0E0,0E0,0E0,0E0,0E0,0E0,0E0,0E0],"parents":[2147483647,0,0,1,1,2,2,3,3,4,4,5,5,6,6],"right_children":[2,4,6,8,10,12,14,-1,-1,-1,-1,-1,-1,-1,-1],"split_conditions":[2.008E3,2.002E3,2.012E3,2.001E3,2.006E3,2.009E3,1.1E1,2.8760144E-2,2.3903498E-2,2.1365482E-2,1.8044094E-2,1.2856556E-2,7.87098E-3,5.677303E-3,2.2863718E-3],"split_indices":[3,3,3,3,3,3,4,0,0,0,0,0,0,0,0],"split_type":[0,0,0,0,0,0,0,0,0,0,0,0,0,0,0],"sum_hessian":[5.996E3,2.922E3,3.074E3,7.31E2,2.191E3,1.461E3,1.613E3,3.66E2,3.65E2,1.461E3,7.3E2,3.66E2,1.095E3,3.5E2,1.263E3],"tree_param":{"num_deleted":"0","num_feature":"5","num_nodes":"15","size_leaf_vector":"1"}},{"base_weights":[1.3530016E0,2.1585302E0,5.86851E-1,2.610812E0,2.0065098E0,9.036736E-1,2.9950187E-1,2.8473327E-2,2.3665115E-2,2.1151973E-2,1.78639E-2,1.1177596E-2,6.8805846E-3,5.64529E-3,2.2700469E-3],"categories":[],"categories_nodes":[],"categories_segments":[],"categories_sizes":[],"default_left":[0,0,0,0,0,0,0,0,0,0,0,0,0,0,0],"id":10,"left_children":[1,3,5,7,9,11,13,-1,-1,-1,-1,-1,-1,-1,-1],"loss_changes":[3.6998203E3,1.9573535E2,2.7967322E2,3.5558105E1,4.8663086E1,6.671716E1,3.0882782E1,0E0,0E0,0E0,0E0,0E0,0E0,0E0,0E0],"parents":[2147483647,0,0,1,1,2,2,3,3,4,4,5,5,6,6],"right_children":[2,4,6,8,10,12,14,-1,-1,-1,-1,-1,-1,-1,-1],"split_conditions":[2.008E3,2.002E3,2.012E3,2.001E3,2.006E3,2.01E3,7E1,2.8473327E-2,2.3665115E-2,2.1151973E-2,1.78639E-2,1.1177596E-2,6.8805846E-3,5.64529E-3,2.2700469E-3],"split_indices":[3,3,3,3,3,3,0,0,0,0,0,0,0,0,0],"split_type":[0,0,0,0,0,0,0,0,0,0,0,0,0,0,0],"sum_hessian":[5.996E3,2.922E3,3.074E3,7.31E2,2.191E3,1.461E3,1.613E3,3.66E2,3.65E2,1.461E3,7.3E2,7.31E2,7.3E2,3.45E2,1.268E3],"tree_param":{"num_deleted":"0","num_feature":"5","num_nodes":"15","size_leaf_vector":"1"}},{"base_weights":[1.3394911E0,2.1369762E0,5.809909E-1,2.584775E0,1.9864626E0,8.946492E-1,2.9651174E-1,2.818937E-2,2.3429113E-2,2.0940598E-2,1.7685505E-2,1.2616869E-2,7.7092885E-3,5.565554E-3,2.2406566E-3],"categories":[],"categories_nodes":[],"categories_segments":[],"categories_sizes":[],"default_left":[0,0,0,0,0,0,0,0,0,0,0,0,0,0,0],"id":11,"left_children":[1,3,5,7,9,11,13,-1,-1,-1,-1,-1,-1,-1,-1],"loss_changes":[3.6262988E3,1.9187598E2,2.7411462E2,3.485205E1,4.7691406E1,6.541687E1,3.0281662E1,0E0,0E0,0E0,0E0,0E0,0E0,0E0,0E0],"parents":[2147483647,0,0,1,1,2,2,3,3,4,4,5,5,6,6],"right_children":[2,4,6,8,10,12,14,-1,-1,-1,-1,-1,-1,-1,-1],"split_conditions":[2.008E3,2.002E3,2.012E3,2.001E3,2.006E3,2.009E3,1.1E1,2.818937E-2,2.3429113E-2,2.0940598E-2,1.7685505E-2,1.2616869E-2,7.7092885E-3,5.565554E-3,2.2406566E-3],"split_indices":[3,3,3,3,3,3,4,0,0,0,0,0,0,0,0],"split_type":[0,0,0,0,0,0,0,0,0,0,0,0,0,0,0],"sum_hessian":[5.996E3,2.922E3,3.074E3,7.31E2,2.191E3,1.461E3,1.613E3,3.66E2,3.65E2,1.461E3,7.3E2,3.66E2,1.095E3,3.5E2,1.263E3],"tree_param":{"num_deleted":"0","num_feature":"5","num_nodes":"15","size_leaf_vector":"1"}},{"base_weights":[1.326116E0,2.1156373E0,5.751902E-1,2.5589979E0,1.9666156E0,8.857166E-1,2.9355145E-1,2.7908243E-2,2.3195462E-2,2.0337995E-2,1.6258718E-2,1.0964447E-2,6.734886E-3,5.534178E-3,2.224661E-3],"categories":[],"categories_nodes":[],"categories_segments":[],"categories_sizes":[],"default_left":[0,0,0,0,0,0,0,0,0,0,0,0,0,0,0],"id":12,"left_children":[1,3,5,7,9,11,13,-1,-1,-1,-1,-1,-1,-1,-1],"loss_changes":[3.5542363E3,1.880918E2,2.686681E2,3.4160645E1,4.6873047E1,6.464575E1,2.9691803E1,0E0,0E0,0E0,0E0,0E0,0E0,0E0,0E0],"parents":[2147483647,0,0,1,1,2,2,3,3,4,4,5,5,6,6],"right_children":[2,4,6,8,10,12,14,-1,-1,-1,-1,-1,-1,-1,-1],"split_conditions":[2.008E3,2.002E3,2.012E3,2.001E3,2.007E3,2.01E3,7E1,2.7908243E-2,2.3195462E-2,2.0337995E-2,1.6258718E-2,1.0964447E-2,6.734886E-3,5.534178E-3,2.224661E-3],"split_indices":[3,3,3,3,3,3,0,0,0,0,0,0,0,0,0],"split_type":[0,0,0,0,0,0,0,0,0,0,0,0,0,0,0],"sum_hessian":[5.996E3,2.922E3,3.074E3,7.31E2,2.191E3,1.461E3,1.613E3,3.66E2,3.65E2,1.826E3,3.65E2,7.31E2,7.3E2,3.45E2,1.268E3],"tree_param":{"num_deleted":"0","num_feature":"5","num_nodes":"15","size_leaf_vector":"1"}},{"base_weights":[1.3128737E0,2.094511E0,5.694465E-1,2.5334775E0,1.9469662E0,8.768715E-1,2.9062074E-1,2.7629921E-2,2.2964139E-2,2.0528095E-2,1.732616E-2,1.2381699E-2,7.550893E-3,5.456004E-3,2.1958554E-3],"categories":[],"categories_nodes":[],"categories_segments":[],"categories_sizes":[],"default_left":[0,0,0,0,0,0,0,0,0,0,0,0,0,0,0],"id":13,"left_children":[1,3,5,7,9,11,13,-1,-1,-1,-1,-1,-1,-1,-1],"loss_changes":[3.4836055E3,1.8438184E2,2.6332806E2,3.348242E1,4.6174805E1,6.3392822E1,2.9113815E1,0E0,0E0,0E0,0E0,0E0,0E0,0E0,0E0],"parents":[2147483647,0,0,1,1,2,2,3,3,4,4,5,5,6,6],"right_children":[2,4,6,8,10,12,14,-1,-1,-1,-1,-1,-1,-1,-1],"split_conditions":[2.008E3,2.002E3,2.012E3,2.001E3,2.006E3,2.009E3,1.1E1,2.7629921E-2,2.2964139E-2,2.0528095E-2,1.732616E-2,1.2381699E-2,7.550893E-3,5.456004E-3,2.1958554E-3],"split_indices":[3,3,3,3,3,3,4,0,0,0,0,0,0,0,0],"split_type":[0,0,0,0,0,0,0,0,0,0,0,0,0,0,0],"sum_hessian":[5.996E3,2.922E3,3.074E3,7.31E2,2.191E3,1.461E3,1.613E3,3.66E2,3.65E2,1.461E3,7.3E2,3.66E2,1.095E3,3.5E2,1.263E3],"tree_param":{"num_deleted":"0","num_feature":"5","num_nodes":"15","size_leaf_vector":"1"}},{"base_weights":[1.2997643E0,2.073596E0,5.6376106E-1,2.508212E0,1.9275137E0,8.681165E-1,2.8771928E-1,2.7354376E-2,2.2735126E-2,1.9935956E-2,1.5923787E-2,1.0755392E-2,6.5922234E-3,5.4252534E-3,2.1801824E-3],"categories":[],"categories_nodes":[],"categories_segments":[],"categories_sizes":[],"default_left":[0,0,0,0,0,0,0,0,0,0,0,0,0,0,0],"id":14,"left_children":[1,3,5,7,9,11,13,-1,-1,-1,-1,-1,-1,-1,-1],"loss_changes":[3.414379E3,1.8074512E2,2.580957E2,3.281836E1,4.536963E1,6.263855E1,2.8546768E1,0E0,0E0,0E0,0E0,0E0,0E0,0E0,0E0],"parents":[2147483647,0,0,1,1,2,2,3,3,4,4,5,5,6,6],"right_children":[2,4,6,8,10,12,14,-1,-1,-1,-1,-1,-1,-1,-1],"split_conditions":[2.008E3,2.002E3,2.012E3,2.001E3,2.007E3,2.01E3,7E1,2.7354376E-2,2.2735126E-2,1.9935956E-2,1.5923787E-2,1.0755392E-2,6.5922234E-3,5.4252534E-3,2.1801824E-3],"split_indices":[3,3,3,3,3,3,0,0,0,0,0,0,0,0,0],"split_type":[0,0,0,0,0,0,0,0,0,0,0,0,0,0,0],"sum_hessian":[5.996E3,2.922E3,3.074E3,7.31E2,2.191E3,1.461E3,1.613E3,3.66E2,3.65E2,1.826E3,3.65E2,7.31E2,7.3E2,3.45E2,1.268E3],"tree_param":{"num_deleted":"0","num_feature":"5","num_nodes":"15","size_leaf_vector":"1"}},{"base_weights":[1.2867851E0,2.0528896E0,5.581316E-1,2.4831984E0,1.908255E0,8.594472E-1,2.848468E-1,2.7081577E-2,2.2508396E-2,2.0123731E-2,1.697408E-2,1.2150958E-2,7.3957257E-3,5.34861E-3,2.1519505E-3],"categories":[],"categories_nodes":[],"categories_segments":[],"categories_sizes":[],"default_left":[0,0,0,0,0,0,0,0,0,0,0,0,0,0,0],"id":15,"left_children":[1,3,5,7,9,11,13,-1,-1,-1,-1,-1,-1,-1,-1],"loss_changes":[3.3465273E3,1.7718164E2,2.5296594E2,3.2166992E1,4.470459E1,6.1431274E1,2.7990982E1,0E0,0E0,0E0,0E0,0E0,0E0,0E0,0E0],"parents":[2147483647,0,0,1,1,2,2,3,3,4,4,5,5,6,6],"right_children":[2,4,6,8,10,12,14,-1,-1,-1,-1,-1,-1,-1,-1],"split_conditions":[2.008E3,2.002E3,2.012E3,2.001E3,2.006E3,2.009E3,1.1E1,2.7081577E-2,2.2508396E-2,2.0123731E-2,1.697408E-2,1.2150958E-2,7.3957257E-3,5.34861E-3,2.1519505E-3],"split_indices":[3,3,3,3,3,3,4,0,0,0,0,0,0,0,0],"split_type":[0,0,0,0,0,0,0,0,0,0,0,0,0,0,0],"sum_hessian":[5.996E3,2.922E3,3.074E3,7.31E2,2.191E3,1.461E3,1.613E3,3.66E2,3.65E2,1.461E3,7.3E2,3.66E2,1.095E3,3.5E2,1.263E3],"tree_param":{"num_deleted":"0","num_feature":"5","num_nodes":"15","size_leaf_vector":"1"}},{"base_weights":[1.2739363E0,2.0323904E0,5.52559E-1,2.458434E0,1.8891894E0,8.508661E-1,2.82003E-1,2.68115E-2,2.2283928E-2,1.9541873E-2,1.5595707E-2,1.0550354E-2,6.4525353E-3,5.318472E-3,2.136593E-3],"categories":[],"categories_nodes":[],"categories_segments":[],"categories_sizes":[],"default_left":[0,0,0,0,0,0,0,0,0,0,0,0,0,0,0],"id":16,"left_children":[1,3,5,7,9,11,13,-1,-1,-1,-1,-1,-1,-1,-1],"loss_changes":[3.2800234E3,1.736875E2,2.4793958E2,3.152832E1,4.391504E1,6.0693726E1,2.7445847E1,0E0,0E0,0E0,0E0,0E0,0E0,0E0,0E0],"parents":[2147483647,0,0,1,1,2,2,3,3,4,4,5,5,6,6],"right_children":[2,4,6,8,10,12,14,-1,-1,-1,-1,-1,-1,-1,-1],"split_conditions":[2.008E3,2.002E3,2.012E3,2.001E3,2.007E3,2.01E3,7E1,2.68115E-2,2.2283928E-2,1.9541873E-2,1.5595707E-2,1.0550354E-2,6.4525353E-3,5.318472E-3,2.136593E-3],"split_indices":[3,3,3,3,3,3,0,0,0,0,0,0,0,0,0],"split_type":[0,0,0,0,0,0,0,0,0,0,0,0,0,0,0],"sum_hessian":[5.996E3,2.922E3,3.074E3,7.31E2,2.191E3,1.461E3,1.613E3,3.66E2,3.65E2,1.826E3,3.65E2,7.31E2,7.3E2,3.45E2,1.268E3],"tree_param":{"num_deleted":"0","num_feature":"5","num_nodes":"15","size_leaf_vector":"1"}},{"base_weights":[1.261215E0,2.0120952E0,5.4704136E-1,2.4339168E0,1.8703135E0,8.42369E-1,2.7918756E-1,2.6544115E-2,2.2061696E-2,1.9727346E-2,1.6629124E-2,1.3764449E-2,7.6439837E-3,5.243331E-3,2.1089225E-3],"categories":[],"categories_nodes":[],"categories_segments":[],"categories_sizes":[],"default_left":[0,0,0,0,0,0,0,0,0,0,0,0,0,0,0],"id":17,"left_children":[1,3,5,7,9,11,13,-1,-1,-1,-1,-1,-1,-1,-1],"loss_changes":[3.2148438E3,1.702627E2,2.4301141E2,3.0902832E1,4.3283203E1,5.9828857E1,2.6911491E1,0E0,0E0,0E0,0E0,0E0,0E0,0E0,0E0],"parents":[2147483647,0,0,1,1,2,2,3,3,4,4,5,5,6,6],"right_children":[2,4,6,8,10,12,14,-1,-1,-1,-1,-1,-1,-1,-1],"split_conditions":[2.008E3,2.002E3,2.012E3,2.001E3,2.006E3,4.7E1,1.1E1,2.6544115E-2,2.2061696E-2,1.9727346E-2,1.6629124E-2,1.3764449E-2,7.6439837E-3,5.243331E-3,2.1089225E-3],"split_indices":[3,3,3,3,3,0,4,0,0,0,0,0,0,0,0],"split_type":[0,0,0,0,0,0,0,0,0,0,0,0,0,0,0],"sum_hessian":[5.996E3,2.922E3,3.074E3,7.31E2,2.191E3,1.461E3,1.613E3,3.66E2,3.65E2,1.461E3,7.3E2,1.84E2,1.277E3,3.5E2,1.263E3],"tree_param":{"num_deleted":"0","num_feature":"5","num_nodes":"15","size_leaf_vector":"1"}},{"base_weights":[1.2486218E0,1.9920033E0,5.415803E-1,2.4096441E0,1.851627E0,8.3395994E-1,2.7640024E-1,2.6279397E-2,2.1841682E-2,1.9155584E-2,1.5274341E-2,1.184066E-2,7.159646E-3,5.213794E-3,2.0938748E-3],"categories":[],"categories_nodes":[],"categories_segments":[],"categories_sizes":[],"default_left":[0,0,0,0,0,0,0,0,0,0,0,0,0,0,0],"id":18,"left_children":[1,3,5,7,9,11,13,-1,-1,-1,-1,-1,-1,-1,-1],"loss_changes":[3.150955E3,1.669043E2,2.3818427E2,3.028955E1,4.250537E1,5.954883E1,2.6387436E1,0E0,0E0,0E0,0E0,0E0,0E0,0E0,0E0],"parents":[2147483647,0,0,1,1,2,2,3,3,4,4,5,5,6,6],"right_children":[2,4,6,8,10,12,14,-1,-1,-1,-1,-1,-1,-1,-1],"split_conditions":[2.008E3,2.002E3,2.012E3,2.001E3,2.007E3,2.009E3,7E1,2.6279397E-2,2.1841682E-2,1.9155584E-2,1.5274341E-2,1.184066E-2,7.159646E-3,5.213794E-3,2.0938748E-3],"split_indices":[3,3,3,3,3,3,0,0,0,0,0,0,0,0,0],"split_type":[0,0,0,0,0,0,0,0,0,0,0,0,0,0,0],"sum_hessian":[5.996E3,2.922E3,3.074E3,7.31E2,2.191E3,1.461E3,1.613E3,3.66E2,3.65E2,1.826E3,3.65E2,3.66E2,1.095E3,3.45E2,1.268E3],"tree_param":{"num_deleted":"0","num_feature":"5","num_nodes":"15","size_leaf_vector":"1"}},{"base_weights":[1.2361538E0,1.9721116E0,5.3617305E-1,2.3856134E0,1.8331264E0,8.2563335E-1,2.7364078E-1,2.6017318E-2,2.1623863E-2,1.9338783E-2,1.6291145E-2,1.0266062E-2,6.2325606E-3,5.1401244E-3,2.0667552E-3],"categories":[],"categories_nodes":[],"categories_segments":[],"categories_sizes":[],"default_left":[0,0,0,0,0,0,0,0,0,0,0,0,0,0,0],"id":19,"left_children":[1,3,5,7,9,11,13,-1,-1,-1,-1,-1,-1,-1,-1],"loss_changes":[3.088335E3,1.636123E2,2.3345148E2,2.9688477E1,4.1905273E1,5.882312E1,2.5873611E1,0E0,0E0,0E0,0E0,0E0,0E0,0E0,0E0],"parents":[2147483647,0,0,1,1,2,2,3,3,4,4,5,5,6,6],"right_children":[2,4,6,8,10,12,14,-1,-1,-1,-1,-1,-1,-1,-1],"split_conditions":[2.008E3,2.002E3,2.012E3,2.001E3,2.006E3,2.01E3,1.1E1,2.6017318E-2,2.1623863E-2,1.9338783E-2,1.6291145E-2,1.0266062E-2,6.2325606E-3,5.1401244E-3,2.0667552E-3],"split_indices":[3,3,3,3,3,3,4,0,0,0,0,0,0,0,0],"split_type":[0,0,0,0,0,0,0,0,0,0,0,0,0,0,0],"sum_hessian":[5.996E3,2.922E3,3.074E3,7.31E2,2.191E3,1.461E3,1.613E3,3.66E2,3.65E2,1.461E3,7.3E2,7.31E2,7.3E2,3.5E2,1.263E3],"tree_param":{"num_deleted":"0","num_feature":"5","num_nodes":"15","size_leaf_vector":"1"}},{"base_weights":[1.2238101E0,1.9524189E0,5.3081906E-1,2.3618224E0,1.8148113E0,8.173883E-1,2.7090886E-1,2.5757853E-2,2.1408213E-2,1.877694E-2,1.4959547E-2,1.3462652E-2,7.4018985E-3,5.047243E-3,2.0338232E-3],"categories":[],"categories_nodes":[],"categories_segments":[],"categories_sizes":[],"default_left":[0,0,0,0,0,0,0,0,0,0,0,0,0,0,0],"id":20,"left_children":[1,3,5,7,9,11,13,-1,-1,-1,-1,-1,-1,-1,-1],"loss_changes":[3.0269658E3,1.6038672E2,2.2881158E2,2.9098877E1,4.11416E1,5.8694702E1,2.5380394E1,0E0,0E0,0E0,0E0,0E0,0E0,0E0,0E0],"parents":[2147483647,0,0,1,1,2,2,3,3,4,4,5,5,6,6],"right_children":[2,4,6,8,10,12,14,-1,-1,-1,-1,-1,-1,-1,-1],"split_conditions":[2.008E3,2.002E3,2.012E3,2.001E3,2.007E3,4.7E1,7.3E1,2.5757853E-2,2.1408213E-2,1.877694E-2,1.4959547E-2,1.3462652E-2,7.4018985E-3,5.047243E-3,2.0338232E-3],"split_indices":[3,3,3,3,3,0,0,0,0,0,0,0,0,0,0],"split_type":[0,0,0,0,0,0,0,0,0,0,0,0,0,0,0],"sum_hessian":[5.996E3,2.922E3,3.074E3,7.31E2,2.191E3,1.461E3,1.613E3,3.66E2,3.65E2,1.826E3,3.65E2,1.84E2,1.277E3,3.6E2,1.253E3],"tree_param":{"num_deleted":"0","num_feature":"5","num_nodes":"15","size_leaf_vector":"1"}},{"base_weights":[1.2115902E0,1.9329224E0,5.2551997E-1,2.3382685E0,1.7966787E0,8.0922866E-1,2.6820415E-1,2.5500976E-2,2.1194717E-2,1.8957887E-2,1.5960006E-2,1.1538782E-2,6.9308304E-3,5.0608492E-3,2.0313326E-3],"categories":[],"categories_nodes":[],"categories_segments":[],"categories_sizes":[],"default_left":[0,0,0,0,0,0,0,0,0,0,0,0,0,0,0],"id":21,"left_children":[1,3,5,7,9,11,13,-1,-1,-1,-1,-1,-1,-1,-1],"loss_changes":[2.9668066E3,1.5722363E2,2.2426642E2,2.852124E1,4.057129E1,5.772345E1,2.4880486E1,0E0,0E0,0E0,0E0,0E0,0E0,0E0,0E0],"parents":[2147483647,0,0,1,1,2,2,3,3,4,4,5,5,6,6],"right_children":[2,4,6,8,10,12,14,-1,-1,-1,-1,-1,-1,-1,-1],"split_conditions":[2.008E3,2.002E3,2.012E3,2.001E3,2.006E3,2.009E3,7E1,2.5500976E-2,2.1194717E-2,1.8957887E-2,1.5960006E-2,1.1538782E-2,6.9308304E-3,5.0608492E-3,2.0313326E-3],"split_indices":[3,3,3,3,3,3,0,0,0,0,0,0,0,0,0],"split_type":[0,0,0,0,0,0,0,0,0,0,0,0,0,0,0],"sum_hessian":[5.996E3,2.922E3,3.074E3,7.31E2,2.191E3,1.461E3,1.613E3,3.66E2,3.65E2,1.461E3,7.3E2,3.66E2,1.095E3,3.45E2,1.268E3],"tree_param":{"num_deleted":"0","num_feature":"5","num_nodes":"15","size_leaf_vector":"1"}},{"base_weights":[1.1994921E0,1.9136211E0,5.202731E-1,2.3149495E0,1.7787278E0,9.989753E-1,3.7055877E-1,2.5246663E-2,2.098335E-2,1.8405788E-2,1.4651197E-2,1.6594598E-2,9.15389E-3,6.0195616E-3,2.655265E-3],"categories":[],"categories_nodes":[],"categories_segments":[],"categories_sizes":[],"default_left":[0,0,0,0,0,0,0,0,0,0,0,0,0,0,0],"id":22,"left_children":[1,3,5,7,9,11,13,-1,-1,-1,-1,-1,-1,-1,-1],"loss_changes":[2.9078496E3,1.5412305E2,2.2001062E2,2.7955566E1,3.9821777E1,3.889276E1,5.6809174E1,0E0,0E0,0E0,0E0,0E0,0E0,0E0,0E0],"parents":[2147483647,0,0,1,1,2,2,3,3,4,4,5,5,6,6],"right_children":[2,4,6,8,10,12,14,-1,-1,-1,-1,-1,-1,-1,-1],"split_conditions":[2.008E3,2.002E3,2.01E3,2.001E3,2.007E3,4.1E1,2.012E3,2.5246663E-2,2.098335E-2,1.8405788E-2,1.4651197E-2,1.6594598E-2,9.15389E-3,6.0195616E-3,2.655265E-3],"split_indices":[3,3,3,3,3,0,3,0,0,0,0,0,0,0,0],"split_type":[0,0,0,0,0,0,0,0,0,0,0,0,0,0,0],"sum_hessian":[5.996E3,2.922E3,3.074E3,7.31E2,2.191E3,7.31E2,2.343E3,3.66E2,3.65E2,1.826E3,3.65E2,8E1,6.51E2,7.3E2,1.613E3],"tree_param":{"num_deleted":"0","num_feature":"5","num_nodes":"15","size_leaf_vector":"1"}},{"base_weights":[1.1875161E0,1.8945119E0,5.150815E-1,2.2918632E0,1.7609556E0,9.890207E-1,3.668569E-1,2.4994884E-2,2.077409E-2,1.8584507E-2,1.5635565E-2,1.64307E-2,9.062491E-3,5.959449E-3,2.628729E-3],"categories":[],"categories_nodes":[],"categories_segments":[],"categories_sizes":[],"default_left":[0,0,0,0,0,0,0,0,0,0,0,0,0,0,0],"id":23,"left_children":[1,3,5,7,9,11,13,-1,-1,-1,-1,-1,-1,-1,-1],"loss_changes":[2.8500488E3,1.5108496E2,2.1565424E2,2.7400635E1,3.9280273E1,3.8138977E1,5.568094E1,0E0,0E0,0E0,0E0,0E0,0E0,0E0,0E0],"parents":[2147483647,0,0,1,1,2,2,3,3,4,4,5,5,6,6],"right_children":[2,4,6,8,10,12,14,-1,-1,-1,-1,-1,-1,-1,-1],"split_conditions":[2.008E3,2.002E3,2.01E3,2.001E3,2.006E3,4.1E1,2.012E3,2.4994884E-2,2.077409E-2,1.8584507E-2,1.5635565E-2,1.64307E-2,9.062491E-3,5.959449E-3,2.628729E-3],"split_indices":[3,3,3,3,3,0,3,0,0,0,0,0,0,0,0],"split_type":[0,0,0,0,0,0,0,0,0,0,0,0,0,0,0],"sum_hessian":[5.996E3,2.922E3,3.074E3,7.31E2,2.191E3,7.31E2,2.343E3,3.66E2,3.65E2,1.461E3,7.3E2,8E1,6.51E2,7.3E2,1.613E3],"tree_param":{"num_deleted":"0","num_feature":"5","num_nodes":"15","size_leaf_vector":"1"}},{"base_weights":[1.17566E0,1.8755943E0,5.099418E-1,2.2690072E0,1.7433617E0,9.791653E-1,3.63192E-1,2.4745617E-2,2.0566916E-2,1.804198E-2,1.4349158E-2,1.6268423E-2,8.972006E-3,5.899936E-3,2.6024575E-3],"categories":[],"categories_nodes":[],"categories_segments":[],"categories_sizes":[],"default_left":[0,0,0,0,0,0,0,0,0,0,0,0,0,0,0],"id":24,"left_children":[1,3,5,7,9,11,13,-1,-1,-1,-1,-1,-1,-1,-1],"loss_changes":[2.7933994E3,1.4810449E2,2.1138422E2,2.6856934E1,3.854297E1,3.739978E1,5.4575073E1,0E0,0E0,0E0,0E0,0E0,0E0,0E0,0E0],"parents":[2147483647,0,0,1,1,2,2,3,3,4,4,5,5,6,6],"right_children":[2,4,6,8,10,12,14,-1,-1,-1,-1,-1,-1,-1,-1],"split_conditions":[2.008E3,2.002E3,2.01E3,2.001E3,2.007E3,4.1E1,2.012E3,2.4745617E-2,2.0566916E-2,1.804198E-2,1.4349158E-2,1.6268423E-2,8.972006E-3,5.899936E-3,2.6024575E-3],"split_indices":[3,3,3,3,3,0,3,0,0,0,0,0,0,0,0],"split_type":[0,0,0,0,0,0,0,0,0,0,0,0,0,0,0],"sum_hessian":[5.996E3,2.922E3,3.074E3,7.31E2,2.191E3,7.31E2,2.343E3,3.66E2,3.65E2,1.826E3,3.65E2,8E1,6.51E2,7.3E2,1.613E3],"tree_param":{"num_deleted":"0","num_feature":"5","num_nodes":"15","size_leaf_vector":"1"}},{"base_weights":[1.163922E0,1.8568649E0,5.0485337E-1,2.246379E0,1.7259429E0,9.6940815E-1,3.5956368E-1,2.4498833E-2,2.0361807E-2,1.8218491E-2,1.531769E-2,1.6107745E-2,8.882424E-3,5.8410172E-3,2.5764492E-3],"categories":[],"categories_nodes":[],"categories_segments":[],"categories_sizes":[],"default_left":[0,0,0,0,0,0,0,0,0,0,0,0,0,0,0],"id":25,"left_children":[1,3,5,7,9,11,13,-1,-1,-1,-1,-1,-1,-1,-1],"loss_changes":[2.7378735E3,1.4518457E2,2.0719855E2,2.632373E1,3.8029785E1,3.6674988E1,5.349109E1,0E0,0E0,0E0,0E0,0E0,0E0,0E0,0E0],"parents":[2147483647,0,0,1,1,2,2,3,3,4,4,5,5,6,6],"right_children":[2,4,6,8,10,12,14,-1,-1,-1,-1,-1,-1,-1,-1],"split_conditions":[2.008E3,2.002E3,2.01E3,2.001E3,2.006E3,4.1E1,2.012E3,2.4498833E-2,2.0361807E-2,1.8218491E-2,1.531769E-2,1.6107745E-2,8.882424E-3,5.8410172E-3,2.5764492E-3],"split_indices":[3,3,3,3,3,0,3,0,0,0,0,0,0,0,0],"split_type":[0,0,0,0,0,0,0,0,0,0,0,0,0,0,0],"sum_hessian":[5.996E3,2.922E3,3.074E3,7.31E2,2.191E3,7.31E2,2.343E3,3.66E2,3.65E2,1.461E3,7.3E2,8E1,6.51E2,7.3E2,1.613E3],"tree_param":{"num_deleted":"0","num_feature":"5","num_nodes":"15","size_leaf_vector":"1"}},{"base_weights":[1.1523014E0,1.8383231E0,4.9981567E-1,2.2239766E0,1.7086986E0,8.4499854E-1,3.0822122E-1,2.4254514E-2,2.0158745E-2,1.7685367E-2,1.4053299E-2,1.40700005E-2,7.7453065E-3,5.7108435E-3,2.4457823E-3],"categories":[],"categories_nodes":[],"categories_segments":[],"categories_sizes":[],"default_left":[0,0,0,0,0,0,0,0,0,0,0,0,0,0,0],"id":26,"left_children":[1,3,5,7,9,11,13,-1,-1,-1,-1,-1,-1,-1,-1],"loss_changes":[2.6834546E3,1.4232031E2,2.0310504E2,2.5801514E1,3.7306152E1,4.2354797E1,3.2967804E1,0E0,0E0,0E0,0E0,0E0,0E0,0E0,0E0],"parents":[2147483647,0,0,1,1,2,2,3,3,4,4,5,5,6,6],"right_children":[2,4,6,8,10,12,14,-1,-1,-1,-1,-1,-1,-1,-1],"split_conditions":[2.008E3,2.002E3,2.011E3,2.001E3,2.007E3,4.1E1,6.5E1,2.4254514E-2,2.0158745E-2,1.7685367E-2,1.4053299E-2,1.40700005E-2,7.7453065E-3,5.7108435E-3,2.4457823E-3],"split_indices":[3,3,3,3,3,0,0,0,0,0,0,0,0,0,0],"split_type":[0,0,0,0,0,0,0,0,0,0,0,0,0,0,0],"sum_hessian":[5.996E3,2.922E3,3.074E3,7.31E2,2.191E3,1.096E3,1.978E3,3.66E2,3.65E2,1.826E3,3.65E2,1.2E2,9.76E2,3.84E2,1.594E3],"tree_param":{"num_deleted":"0","num_feature":"5","num_nodes":"15","size_leaf_vector":"1"}},{"base_weights":[1.1407961E0,1.8199658E0,4.9482727E-1,2.2017972E0,1.6916262E0,9.513223E-1,3.5205886E-1,2.4012629E-2,1.9957708E-2,1.7859697E-2,1.5006246E-2,1.5809694E-2,8.716402E-3,5.7254815E-3,2.5197845E-3],"categories":[],"categories_nodes":[],"categories_segments":[],"categories_sizes":[],"default_left":[0,0,0,0,0,0,0,0,0,0,0,0,0,0,0],"id":27,"left_children":[1,3,5,7,9,11,13,-1,-1,-1,-1,-1,-1,-1,-1],"loss_changes":[2.6301172E3,1.3951562E2,2.000722E2,2.5289062E1,3.6819336E1,3.5347595E1,5.1579956E1,0E0,0E0,0E0,0E0,0E0,0E0,0E0,0E0],"parents":[2147483647,0,0,1,1,2,2,3,3,4,4,5,5,6,6],"right_children":[2,4,6,8,10,12,14,-1,-1,-1,-1,-1,-1,-1,-1],"split_conditions":[2.008E3,2.002E3,2.01E3,2.001E3,2.006E3,4.1E1,2.012E3,2.4012629E-2,1.9957708E-2,1.7859697E-2,1.5006246E-2,1.5809694E-2,8.716402E-3,5.7254815E-3,2.5197845E-3],"split_indices":[3,3,3,3,3,0,3,0,0,0,0,0,0,0,0],"split_type":[0,0,0,0,0,0,0,0,0,0,0,0,0,0,0],"sum_hessian":[5.996E3,2.922E3,3.074E3,7.31E2,2.191E3,7.31E2,2.343E3,3.66E2,3.65E2,1.461E3,7.3E2,8E1,6.51E2,7.3E2,1.613E3],"tree_param":{"num_deleted":"0","num_feature":"5","num_nodes":"15","size_leaf_vector":"1"}},{"base_weights":[1.1294063E0,1.8017925E0,4.8988965E-1,2.1798394E0,1.6747249E0,9.4184256E-1,3.4854177E-1,2.3773158E-2,1.9758679E-2,1.7335812E-2,1.3763498E-2,1.5653549E-2,8.629371E-3,5.668305E-3,2.4946022E-3],"categories":[],"categories_nodes":[],"categories_segments":[],"categories_sizes":[],"default_left":[0,0,0,0,0,0,0,0,0,0,0,0,0,0,0],"id":28,"left_children":[1,3,5,7,9,11,13,-1,-1,-1,-1,-1,-1,-1,-1],"loss_changes":[2.5778394E3,1.3676367E2,1.9611066E2,2.478711E1,3.6108887E1,3.4662476E1,5.0555542E1,0E0,0E0,0E0,0E0,0E0,0E0,0E0,0E0],"parents":[2147483647,0,0,1,1,2,2,3,3,4,4,5,5,6,6],"right_children":[2,4,6,8,10,12,14,-1,-1,-1,-1,-1,-1,-1,-1],"split_conditions":[2.008E3,2.002E3,2.01E3,2.001E3,2.007E3,4.1E1,2.012E3,2.3773158E-2,1.9758679E-2,1.7335812E-2,1.3763498E-2,1.5653549E-2,8.629371E-3,5.668305E-3,2.4946022E-3],"split_indices":[3,3,3,3,3,0,3,0,0,0,0,0,0,0,0],"split_type":[0,0,0,0,0,0,0,0,0,0,0,0,0,0,0],"sum_hessian":[5.996E3,2.922E3,3.074E3,7.31E2,2.191E3,7.31E2,2.343E3,3.66E2,3.65E2,1.826E3,3.65E2,8E1,6.51E2,7.3E2,1.613E3],"tree_param":{"num_deleted":"0","num_feature":"5","num_nodes":"15","size_leaf_vector":"1"}},{"base_weights":[1.1181302E0,1.7838001E0,4.8500133E-1,2.1581006E0,1.6579919E0,9.324573E-1,3.4505987E-1,2.3536071E-2,1.9561632E-2,1.9853923E-2,1.603819E-2,1.5498946E-2,8.54321E-3,5.0035203E-3,2.0828058E-3],"categories":[],"categories_nodes":[],"categories_segments":[],"categories_sizes":[],"default_left":[0,0,0,0,0,0,0,0,0,0,0,0,0,0,0],"id":29,"left_children":[1,3,5,7,9,11,13,-1,-1,-1,-1,-1,-1,-1,-1],"loss_changes":[2.5266006E3,1.3406543E2,1.9222754E2,2.4295654E1,3.569336E1,3.3990723E1,4.9684113E1,0E0,0E0,0E0,0E0,0E0,0E0,0E0,0E0],"parents":[2147483647,0,0,1,1,2,2,3,3,4,4,5,5,6,6],"right_children":[2,4,6,8,10,12,14,-1,-1,-1,-1,-1,-1,-1,-1],"split_conditions":[2.008E3,2.002E3,2.01E3,2.001E3,5.2E1,4.1E1,2.013E3,2.3536071E-2,1.9561632E-2,1.9853923E-2,1.603819E-2,1.5498946E-2,8.54321E-3,5.0035203E-3,2.0828058E-3],"split_indices":[3,3,3,3,0,0,3,0,0,0,0,0,0,0,0],"split_type":[0,0,0,0,0,0,0,0,0,0,0,0,0,0,0],"sum_hessian":[5.996E3,2.922E3,3.074E3,7.31E2,2.191E3,7.31E2,2.343E3,3.66E2,3.65E2,3.06E2,1.885E3,8E1,6.51E2,1.096E3,1.247E3],"tree_param":{"num_deleted":"0","num_feature":"5","num_nodes":"15","size_leaf_vector":"1"}},{"base_weights":[1.1069672E0,1.7659891E0,4.8016143E-1,2.1365783E0,1.6414284E0,7.403009E-1,2.4422336E-1,2.3301354E-2,1.936655E-2,1.7342387E-2,1.4535619E-2,1.2348751E-2,6.663489E-3,4.754922E-3,1.7980913E-3],"categories":[],"categories_nodes":[],"categories_segments":[],"categories_sizes":[],"default_left":[0,0,0,0,0,0,0,0,0,0,0,0,0,0,0],"id":30,"left_children":[1,3,5,7,9,11,13,-1,-1,-1,-1,-1,-1,-1,-1],"loss_changes":[2.4763857E3,1.314209E2,1.885528E2,2.3813232E1,3.569873E1,5.2649475E1,2.395826E1,0E0,0E0,0E0,0E0,0E0,0E0,0E0,0E0],"parents":[2147483647,0,0,1,1,2,2,3,3,4,4,5,5,6,6],"right_children":[2,4,6,8,10,12,14,-1,-1,-1,-1,-1,-1,-1,-1],"split_conditions":[2.008E3,2.002E3,2.012E3,2.001E3,2.006E3,4.8E1,1.1E1,2.3301354E-2,1.936655E-2,1.7342387E-2,1.4535619E-2,1.2348751E-2,6.663489E-3,4.754922E-3,1.7980913E-3],"split_indices":[3,3,3,3,3,0,4,0,0,0,0,0,0,0,0],"split_type":[0,0,0,0,0,0,0,0,0,0,0,0,0,0,0],"sum_hessian":[5.996E3,2.922E3,3.074E3,7.31E2,2.191E3,1.461E3,1.613E3,3.66E2,3.65E2,1.461E3,7.3E2,1.88E2,1.273E3,3.5E2,1.263E3],"tree_param":{"num_deleted":"0","num_feature":"5","num_nodes":"15","size_leaf_vector":"1"}},{"base_weights":[1.0959142E0,1.7483548E0,4.7536814E-1,2.1152709E0,1.6250286E0,9.1578114E-1,3.376302E-1,2.3068974E-2,1.9173414E-2,1.9649284E-2,1.5738158E-2,1.5223907E-2,8.390156E-3,4.8964038E-3,2.0374176E-3],"categories":[],"categories_nodes":[],"categories_segments":[],"categories_sizes":[],"default_left":[0,0,0,0,0,0,0,0,0,0,0,0,0,0,0],"id":31,"left_children":[1,3,5,7,9,11,13,-1,-1,-1,-1,-1,-1,-1,-1],"loss_changes":[2.427171E3,1.2883008E2,1.862251E2,2.3340576E1,3.5063965E1,3.280957E1,4.7606262E1,0E0,0E0,0E0,0E0,0E0,0E0,0E0,0E0],"parents":[2147483647,0,0,1,1,2,2,3,3,4,4,5,5,6,6],"right_children":[2,4,6,8,10,12,14,-1,-1,-1,-1,-1,-1,-1,-1],"split_conditions":[2.008E3,2.002E3,2.01E3,2.001E3,4.8E1,4.1E1,2.013E3,2.3068974E-2,1.9173414E-2,1.9649284E-2,1.5738158E-2,1.5223907E-2,8.390156E-3,4.8964038E-3,2.0374176E-3],"split_indices":[3,3,3,3,0,0,3,0,0,0,0,0,0,0,0],"split_type":[0,0,0,0,0,0,0,0,0,0,0,0,0,0,0],"sum_hessian":[5.996E3,2.922E3,3.074E3,7.31E2,2.191E3,7.31E2,2.343E3,3.66E2,3.65E2,2.82E2,1.909E3,8E1,6.51E2,1.096E3,1.247E3],"tree_param":{"num_deleted":"0","num_feature":"5","num_nodes":"15","size_leaf_vector":"1"}},{"base_weights":[1.0849732E0,1.7308978E0,4.706244E-1,2.0941758E0,1.6087945E0,9.066556E-1,3.342569E-1,2.2838911E-2,1.8982202E-2,1.6666882E-2,1.3154045E-2,1.5073547E-2,8.306383E-3,4.847484E-3,2.0170598E-3],"categories":[],"categories_nodes":[],"categories_segments":[],"categories_sizes":[],"default_left":[0,0,0,0,0,0,0,0,0,0,0,0,0,0,0],"id":32,"left_children":[1,3,5,7,9,11,13,-1,-1,-1,-1,-1,-1,-1,-1],"loss_changes":[2.3789326E3,1.2628711E2,1.8253796E2,2.2877197E1,3.503955E1,3.2173645E1,4.665982E1,0E0,0E0,0E0,0E0,0E0,0E0,0E0,0E0],"parents":[2147483647,0,0,1,1,2,2,3,3,4,4,5,5,6,6],"right_children":[2,4,6,8,10,12,14,-1,-1,-1,-1,-1,-1,-1,-1],"split_conditions":[2.008E3,2.002E3,2.01E3,2.001E3,2.007E3,4.1E1,2.013E3,2.2838911E-2,1.8982202E-2,1.6666882E-2,1.3154045E-2,1.5073547E-2,8.306383E-3,4.847484E-3,2.0170598E-3],"split_indices":[3,3,3,3,3,0,3,0,0,0,0,0,0,0,0],"split_type":[0,0,0,0,0,0,0,0,0,0,0,0,0,0,0],"sum_hessian":[5.996E3,2.922E3,3.074E3,7.31E2,2.191E3,7.31E2,2.343E3,3.66E2,3.65E2,1.826E3,3.65E2,8E1,6.51E2,1.096E3,1.247E3],"tree_param":{"num_deleted":"0","num_feature":"5","num_nodes":"15","size_leaf_vector":"1"}},{"base_weights":[1.0741404E0,1.7136133E0,4.65928E-1,2.0732913E0,1.5927202E0,8.97621E-1,3.3091724E-1,2.2611145E-2,1.87929E-2,1.6840225E-2,1.4079364E-2,1.4924673E-2,8.223446E-3,5.390573E-3,2.3644306E-3],"categories":[],"categories_nodes":[],"categories_segments":[],"categories_sizes":[],"default_left":[0,0,0,0,0,0,0,0,0,0,0,0,0,0,0],"id":33,"left_children":[1,3,5,7,9,11,13,-1,-1,-1,-1,-1,-1,-1,-1],"loss_changes":[2.3316465E3,1.2379785E2,1.7892377E2,2.242334E1,3.461035E1,3.1550049E1,4.596463E1,0E0,0E0,0E0,0E0,0E0,0E0,0E0,0E0],"parents":[2147483647,0,0,1,1,2,2,3,3,4,4,5,5,6,6],"right_children":[2,4,6,8,10,12,14,-1,-1,-1,-1,-1,-1,-1,-1],"split_conditions":[2.008E3,2.002E3,2.01E3,2.001E3,2.006E3,4.1E1,2.012E3,2.2611145E-2,1.87929E-2,1.6840225E-2,1.4079364E-2,1.4924673E-2,8.223446E-3,5.390573E-3,2.3644306E-3],"split_indices":[3,3,3,3,3,0,3,0,0,0,0,0,0,0,0],"split_type":[0,0,0,0,0,0,0,0,0,0,0,0,0,0,0],"sum_hessian":[5.996E3,2.922E3,3.074E3,7.31E2,2.191E3,7.31E2,2.343E3,3.66E2,3.65E2,1.461E3,7.3E2,8E1,6.51E2,7.3E2,1.613E3],"tree_param":{"num_deleted":"0","num_feature":"5","num_nodes":"15","size_leaf_vector":"1"}},{"base_weights":[1.0634162E0,1.696502E0,4.6127874E-1,2.052615E0,1.576807E0,8.886764E-1,3.2761136E-1,2.238565E-2,1.8605484E-2,1.8980732E-2,1.5236758E-2,1.4777269E-2,8.141338E-3,4.7552935E-3,1.9732798E-3],"categories":[],"categories_nodes":[],"categories_segments":[],"categories_sizes":[],"default_left":[0,0,0,0,0,0,0,0,0,0,0,0,0,0,0],"id":34,"left_children":[1,3,5,7,9,11,13,-1,-1,-1,-1,-1,-1,-1,-1],"loss_changes":[2.2853018E3,1.21356445E2,1.7538092E2,2.1978271E1,3.4523438E1,3.093866E1,4.5078003E1,0E0,0E0,0E0,0E0,0E0,0E0,0E0,0E0],"parents":[2147483647,0,0,1,1,2,2,3,3,4,4,5,5,6,6],"right_children":[2,4,6,8,10,12,14,-1,-1,-1,-1,-1,-1,-1,-1],"split_conditions":[2.008E3,2.002E3,2.01E3,2.001E3,5.2E1,4.1E1,2.013E3,2.238565E-2,1.8605484E-2,1.8980732E-2,1.5236758E-2,1.4777269E-2,8.141338E-3,4.7552935E-3,1.9732798E-3],"split_indices":[3,3,3,3,0,0,3,0,0,0,0,0,0,0,0],"split_type":[0,0,0,0,0,0,0,0,0,0,0,0,0,0,0],"sum_hessian":[5.996E3,2.922E3,3.074E3,7.31E2,2.191E3,7.31E2,2.343E3,3.66E2,3.65E2,3.06E2,1.885E3,8E1,6.51E2,1.096E3,1.247E3],"tree_param":{"num_deleted":"0","num_feature":"5","num_nodes":"15","size_leaf_vector":"1"}},{"base_weights":[1.0527996E0,1.6795627E0,4.566756E-1,2.0321448E0,1.5610546E0,7.7432305E-1,2.8036633E-1,2.2162404E-2,1.8419938E-2,1.651445E-2,1.378138E-2,1.2980855E-2,7.0866332E-3,5.8077276E-3,2.2634447E-3],"categories":[],"categories_nodes":[],"categories_segments":[],"categories_sizes":[],"default_left":[0,0,0,0,0,0,0,0,0,0,0,0,0,0,0],"id":35,"left_children":[1,3,5,7,9,11,13,-1,-1,-1,-1,-1,-1,-1,-1],"loss_changes":[2.2398828E3,1.18961914E2,1.7199579E2,2.1541992E1,3.3966797E1,3.680603E1,3.1984772E1,0E0,0E0,0E0,0E0,0E0,0E0,0E0,0E0],"parents":[2147483647,0,0,1,1,2,2,3,3,4,4,5,5,6,6],"right_children":[2,4,6,8,10,12,14,-1,-1,-1,-1,-1,-1,-1,-1],"split_conditions":[2.008E3,2.002E3,2.011E3,2.001E3,2.006E3,4.1E1,5.1E1,2.2162404E-2,1.8419938E-2,1.651445E-2,1.378138E-2,1.2980855E-2,7.0866332E-3,5.8077276E-3,2.2634447E-3],"split_indices":[3,3,3,3,3,0,0,0,0,0,0,0,0,0,0],"split_type":[0,0,0,0,0,0,0,0,0,0,0,0,0,0,0],"sum_hessian":[5.996E3,2.922E3,3.074E3,7.31E2,2.191E3,1.096E3,1.978E3,3.66E2,3.65E2,1.461E3,7.3E2,1.2E2,9.76E2,3E2,1.678E3],"tree_param":{"num_deleted":"0","num_feature":"5","num_nodes":"15","size_leaf_vector":"1"}},{"base_weights":[1.0422881E0,1.6627913E0,4.5211798E-1,2.0118787E0,1.5454578E0,8.7209976E-1,3.2077038E-1,2.1941382E-2,1.8236242E-2,1.8789984E-2,1.4952289E-2,1.4503115E-2,7.989291E-3,5.2369162E-3,2.2866612E-3],"categories":[],"categories_nodes":[],"categories_segments":[],"categories_sizes":[],"default_left":[0,0,0,0,0,0,0,0,0,0,0,0,0,0,0],"id":36,"left_children":[1,3,5,7,9,11,13,-1,-1,-1,-1,-1,-1,-1,-1],"loss_changes":[2.1953647E3,1.166167E2,1.6934833E2,2.1114502E1,3.3913574E1,2.9810852E1,4.3689392E1,0E0,0E0,0E0,0E0,0E0,0E0,0E0,0E0],"parents":[2147483647,0,0,1,1,2,2,3,3,4,4,5,5,6,6],"right_children":[2,4,6,8,10,12,14,-1,-1,-1,-1,-1,-1,-1,-1],"split_conditions":[2.008E3,2.002E3,2.01E3,2.001E3,4.8E1,4.1E1,2.012E3,2.1941382E-2,1.8236242E-2,1.8789984E-2,1.4952289E-2,1.4503115E-2,7.989291E-3,5.2369162E-3,2.2866612E-3],"split_indices":[3,3,3,3,0,0,3,0,0,0,0,0,0,0,0],"split_type":[0,0,0,0,0,0,0,0,0,0,0,0,0,0,0],"sum_hessian":[5.996E3,2.922E3,3.074E3,7.31E2,2.191E3,7.31E2,2.343E3,3.66E2,3.65E2,2.82E2,1.909E3,8E1,6.51E2,7.3E2,1.613E3],"tree_param":{"num_deleted":"0","num_feature":"5","num_nodes":"15","size_leaf_vector":"1"}},{"base_weights":[1.0318825E0,1.6461886E0,4.4760656E-1,1.9918149E0,1.5300187E0,8.634095E-1,3.1756586E-1,2.1722566E-2,1.8054377E-2,1.5866028E-2,1.2433806E-2,1.4359875E-2,7.909521E-3,4.621263E-3,1.9024182E-3],"categories":[],"categories_nodes":[],"categories_segments":[],"categories_sizes":[],"default_left":[0,0,0,0,0,0,0,0,0,0,0,0,0,0,0],"id":37,"left_children":[1,3,5,7,9,11,13,-1,-1,-1,-1,-1,-1,-1,-1],"loss_changes":[2.151733E3,1.1431494E2,1.6599506E2,2.0695557E1,3.357959E1,2.9233032E1,4.3055817E1,0E0,0E0,0E0,0E0,0E0,0E0,0E0,0E0],"parents":[2147483647,0,0,1,1,2,2,3,3,4,4,5,5,6,6],"right_children":[2,4,6,8,10,12,14,-1,-1,-1,-1,-1,-1,-1,-1],"split_conditions":[2.008E3,2.002E3,2.01E3,2.001E3,2.007E3,4.1E1,2.013E3,2.1722566E-2,1.8054377E-2,1.5866028E-2,1.2433806E-2,1.4359875E-2,7.909521E-3,4.621263E-3,1.9024182E-3],"split_indices":[3,3,3,3,3,0,3,0,0,0,0,0,0,0,0],"split_type":[0,0,0,0,0,0,0,0,0,0,0,0,0,0,0],"sum_hessian":[5.996E3,2.922E3,3.074E3,7.31E2,2.191E3,7.31E2,2.343E3,3.66E2,3.65E2,1.826E3,3.65E2,8E1,6.51E2,1.096E3,1.247E3],"tree_param":{"num_deleted":"0","num_feature":"5","num_nodes":"15","size_leaf_vector":"1"}},{"base_weights":[1.0215799E0,1.5597985E0,3.6775088E-1,1.727317E0,1.2234923E0,5.793085E-1,2.238631E-1,2.1505933E-2,1.6413456E-2,1.3348197E-2,9.9841375E-3,1.1616185E-2,5.0247065E-3,4.472504E-3,1.5937611E-3],"categories":[],"categories_nodes":[],"categories_segments":[],"categories_sizes":[],"default_left":[0,0,0,0,0,0,0,0,0,0,0,0,0,0,0],"id":38,"left_children":[1,3,5,7,9,11,13,-1,-1,-1,-1,-1,-1,-1,-1],"loss_changes":[2.109788E3,1.8318115E2,8.23338E1,7.627295E1,2.6155151E1,4.845514E1,2.3179314E1,0E0,0E0,0E0,0E0,0E0,0E0,0E0,0E0],"parents":[2147483647,0,0,1,1,2,2,3,3,4,4,5,5,6,6],"right_children":[2,4,6,8,10,12,14,-1,-1,-1,-1,-1,-1,-1,-1],"split_conditions":[2.009E3,2.006E3,2.012E3,2.001E3,2.008E3,4.3E1,7.3E1,2.1505933E-2,1.6413456E-2,1.3348197E-2,9.9841375E-3,1.1616185E-2,5.0247065E-3,4.472504E-3,1.5937611E-3],"split_indices":[3,3,3,3,3,0,0,0,0,0,0,0,0,0,0],"split_type":[0,0,0,0,0,0,0,0,0,0,0,0,0,0,0],"sum_hessian":[5.996E3,3.288E3,2.708E3,2.192E3,1.096E3,1.095E3,1.613E3,3.66E2,1.826E3,7.3E2,3.66E2,1.26E2,9.69E2,3.6E2,1.253E3],"tree_param":{"num_deleted":"0","num_feature":"5","num_nodes":"15","size_leaf_vector":"1"}},{"base_weights":[1.011378E0,1.5442191E0,3.6408177E-1,1.7100612E0,1.2112787E0,5.735306E-1,2.2162822E-1,2.129146E-2,1.624941E-2,1.3214896E-2,9.884569E-3,1.114584E-2,4.9248016E-3,4.427903E-3,1.5778361E-3],"categories":[],"categories_nodes":[],"categories_segments":[],"categories_sizes":[],"default_left":[0,0,0,0,0,0,0,0,0,0,0,0,0,0,0],"id":39,"left_children":[1,3,5,7,9,11,13,-1,-1,-1,-1,-1,-1,-1,-1],"loss_changes":[2.0678394E3,1.795332E2,8.070059E1,7.476953E1,2.56333E1,4.751352E1,2.2719818E1,0E0,0E0,0E0,0E0,0E0,0E0,0E0,0E0],"parents":[2147483647,0,0,1,1,2,2,3,3,4,4,5,5,6,6],"right_children":[2,4,6,8,10,12,14,-1,-1,-1,-1,-1,-1,-1,-1],"split_conditions":[2.009E3,2.006E3,2.012E3,2.001E3,2.008E3,4.8E1,7.3E1,2.129146E-2,1.624941E-2,1.3214896E-2,9.884569E-3,1.114584E-2,4.9248016E-3,4.427903E-3,1.5778361E-3],"split_indices":[3,3,3,3,3,0,0,0,0,0,0,0,0,0,0],"split_type":[0,0,0,0,0,0,0,0,0,0,0,0,0,0,0],"sum_hessian":[5.996E3,3.288E3,2.708E3,2.192E3,1.096E3,1.095E3,1.613E3,3.66E2,1.826E3,7.3E2,3.66E2,1.41E2,9.54E2,3.6E2,1.253E3],"tree_param":{"num_deleted":"0","num_feature":"5","num_nodes":"15","size_leaf_vector":"1"}},{"base_weights":[1.001278E0,1.5287954E0,3.604491E-1,1.6529392E0,1.0928817E0,5.6781E-1,2.1941565E-1,2.1079125E-2,1.5760103E-2,1.51663385E-2,1.0187053E-2,1.1390358E-2,4.9243523E-3,4.4243997E-3,1.5731045E-3],"categories":[],"categories_nodes":[],"categories_segments":[],"categories_sizes":[],"default_left":[0,0,0,0,0,0,0,0,0,0,0,0,0,0,0],"id":40,"left_children":[1,3,5,7,9,11,13,-1,-1,-1,-1,-1,-1,-1,-1],"loss_changes":[2.0267246E3,1.7618164E2,7.909961E1,8.620947E1,2.1463501E1,4.662845E1,2.228585E1,0E0,0E0,0E0,0E0,0E0,0E0,0E0,0E0],"parents":[2147483647,0,0,1,1,2,2,3,3,4,4,5,5,6,6],"right_children":[2,4,6,8,10,12,14,-1,-1,-1,-1,-1,-1,-1,-1],"split_conditions":[2.009E3,2.007E3,2.012E3,2.001E3,5.4E1,4.3E1,1.1E1,2.1079125E-2,1.5760103E-2,1.51663385E-2,1.0187053E-2,1.1390358E-2,4.9243523E-3,4.4243997E-3,1.5731045E-3],"split_indices":[3,3,3,3,0,0,4,0,0,0,0,0,0,0,0],"split_type":[0,0,0,0,0,0,0,0,0,0,0,0,0,0,0],"sum_hessian":[5.996E3,3.288E3,2.708E3,2.557E3,7.31E2,1.095E3,1.613E3,3.66E2,2.191E3,1.06E2,6.25E2,1.26E2,9.69E2,3.5E2,1.263E3],"tree_param":{"num_deleted":"0","num_feature":"5","num_nodes":"15","size_leaf_vector":"1"}},{"base_weights":[9.9127936E-1,1.5815376E0,4.2987576E-1,1.9158674E0,1.4691695E0,8.3085215E-1,3.0447274E-1,2.4634413E-2,1.8542456E-2,1.7837888E-2,1.4171773E-2,1.3876382E-2,7.604066E-3,4.4393498E-3,1.8164058E-3],"categories":[],"categories_nodes":[],"categories_segments":[],"categories_sizes":[],"default_left":[0,0,0,0,0,0,0,0,0,0,0,0,0,0,0],"id":41,"left_children":[1,3,5,7,9,11,13,-1,-1,-1,-1,-1,-1,-1,-1],"loss_changes":[1.9865645E3,1.0699658E2,1.543692E2,2.0131592E1,3.3328125E1,2.7656158E1,4.007315E1,0E0,0E0,0E0,0E0,0E0,0E0,0E0,0E0],"parents":[2147483647,0,0,1,1,2,2,3,3,4,4,5,5,6,6],"right_children":[2,4,6,8,10,12,14,-1,-1,-1,-1,-1,-1,-1,-1],"split_conditions":[2.008E3,2.002E3,2.01E3,3.6E1,5.2E1,4.1E1,2.013E3,2.4634413E-2,1.8542456E-2,1.7837888E-2,1.4171773E-2,1.3876382E-2,7.604066E-3,4.4393498E-3,1.8164058E-3],"split_indices":[3,3,3,0,0,0,3,0,0,0,0,0,0,0,0],"split_type":[0,0,0,0,0,0,0,0,0,0,0,0,0,0,0],"sum_hessian":[5.996E3,2.922E3,3.074E3,7.31E2,2.191E3,7.31E2,2.343E3,7E1,6.61E2,3.06E2,1.885E3,8E1,6.51E2,1.096E3,1.247E3],"tree_param":{"num_deleted":"0","num_feature":"5","num_nodes":"15","size_leaf_vector":"1"}},{"base_weights":[9.813838E-1,1.4985713E0,3.5310352E-1,1.6601794E0,1.1741365E0,5.564286E-1,2.1481515E-1,2.067818E-2,1.577386E-2,1.28031215E-2,9.594539E-3,1.0856672E-2,4.7715288E-3,4.3176226E-3,1.5218937E-3],"categories":[],"categories_nodes":[],"categories_segments":[],"categories_sizes":[],"default_left":[0,0,0,0,0,0,0,0,0,0,0,0,0,0,0],"id":42,"left_children":[1,3,5,7,9,11,13,-1,-1,-1,-1,-1,-1,-1,-1],"loss_changes":[1.9481284E3,1.7049707E2,7.605075E1,7.0751465E1,2.3776611E1,4.5465485E1,2.1862877E1,0E0,0E0,0E0,0E0,0E0,0E0,0E0,0E0],"parents":[2147483647,0,0,1,1,2,2,3,3,4,4,5,5,6,6],"right_children":[2,4,6,8,10,12,14,-1,-1,-1,-1,-1,-1,-1,-1],"split_conditions":[2.009E3,2.006E3,2.012E3,2.001E3,2.008E3,4.8E1,7.3E1,2.067818E-2,1.577386E-2,1.28031215E-2,9.594539E-3,1.0856672E-2,4.7715288E-3,4.3176226E-3,1.5218937E-3],"split_indices":[3,3,3,3,3,0,0,0,0,0,0,0,0,0,0],"split_type":[0,0,0,0,0,0,0,0,0,0,0,0,0,0,0],"sum_hessian":[5.996E3,3.288E3,2.708E3,2.192E3,1.096E3,1.095E3,1.613E3,3.66E2,1.826E3,7.3E2,3.66E2,1.41E2,9.54E2,3.6E2,1.253E3],"tree_param":{"num_deleted":"0","num_feature":"5","num_nodes":"15","size_leaf_vector":"1"}},{"base_weights":[9.715833E-1,1.4836035E0,3.495804E-1,1.6435941E0,1.1624156E0,5.508786E-1,2.1267062E-1,2.047196E-2,1.5616206E-2,1.5275372E-2,1.0988954E-2,1.1095375E-2,4.7716666E-3,4.314368E-3,1.5175322E-3],"categories":[],"categories_nodes":[],"categories_segments":[],"categories_sizes":[],"default_left":[0,0,0,0,0,0,0,0,0,0,0,0,0,0,0],"id":43,"left_children":[1,3,5,7,9,11,13,-1,-1,-1,-1,-1,-1,-1,-1],"loss_changes":[1.909394E3,1.6710156E2,7.454202E1,6.935791E1,2.3763672E1,4.4603638E1,2.1443779E1,0E0,0E0,0E0,0E0,0E0,0E0,0E0,0E0],"parents":[2147483647,0,0,1,1,2,2,3,3,4,4,5,5,6,6],"right_children":[2,4,6,8,10,12,14,-1,-1,-1,-1,-1,-1,-1,-1],"split_conditions":[2.009E3,2.006E3,2.012E3,2.001E3,5.4E1,4.3E1,1.1E1,2.047196E-2,1.5616206E-2,1.5275372E-2,1.0988954E-2,1.1095375E-2,4.7716666E-3,4.314368E-3,1.5175322E-3],"split_indices":[3,3,3,3,0,0,4,0,0,0,0,0,0,0,0],"split_type":[0,0,0,0,0,0,0,0,0,0,0,0,0,0,0],"sum_hessian":[5.996E3,3.288E3,2.708E3,2.192E3,1.096E3,1.095E3,1.613E3,3.66E2,1.826E3,1.59E2,9.37E2,1.26E2,9.69E2,3.5E2,1.263E3],"tree_param":{"num_deleted":"0","num_feature":"5","num_nodes":"15","size_leaf_vector":"1"}},{"base_weights":[9.618815E-1,1.5348887E0,4.1688576E-1,1.8605405E0,1.4254398E0,8.064588E-1,2.9504943E-1,2.4033947E-2,1.7995086E-2,1.7509535E-2,1.3764629E-2,1.3508111E-2,7.3759523E-3,4.3076496E-3,1.7551823E-3],"categories":[],"categories_nodes":[],"categories_segments":[],"categories_sizes":[],"default_left":[0,0,0,0,0,0,0,0,0,0,0,0,0,0,0],"id":44,"left_children":[1,3,5,7,9,11,13,-1,-1,-1,-1,-1,-1,-1,-1],"loss_changes":[1.8721421E3,1.0153076E2,1.457143E2,1.9927002E1,3.2535645E1,2.644342E1,3.7949326E1,0E0,0E0,0E0,0E0,0E0,0E0,0E0,0E0],"parents":[2147483647,0,0,1,1,2,2,3,3,4,4,5,5,6,6],"right_children":[2,4,6,8,10,12,14,-1,-1,-1,-1,-1,-1,-1,-1],"split_conditions":[2.008E3,2.002E3,2.01E3,3.6E1,4.8E1,4.1E1,2.013E3,2.4033947E-2,1.7995086E-2,1.7509535E-2,1.3764629E-2,1.3508111E-2,7.3759523E-3,4.3076496E-3,1.7551823E-3],"split_indices":[3,3,3,0,0,0,3,0,0,0,0,0,0,0,0],"split_type":[0,0,0,0,0,0,0,0,0,0,0,0,0,0,0],"sum_hessian":[5.996E3,2.922E3,3.074E3,7.31E2,2.191E3,7.31E2,2.343E3,7E1,6.61E2,2.82E2,1.909E3,8E1,6.51E2,1.096E3,1.247E3],"tree_param":{"num_deleted":"0","num_feature":"5","num_nodes":"15","size_leaf_vector":"1"}},{"base_weights":[9.5227945E-1,1.4542725E0,3.4245756E-1,1.5732205E0,1.0366178E0,5.398349E-1,2.0821464E-1,2.0082578E-2,1.4996657E-2,1.4460952E-2,9.649713E-3,1.0575175E-2,4.622949E-3,4.210265E-3,1.4678458E-3],"categories":[],"categories_nodes":[],"categories_segments":[],"categories_sizes":[],"default_left":[0,0,0,0,0,0,0,0,0,0,0,0,0,0,0],"id":45,"left_children":[1,3,5,7,9,11,13,-1,-1,-1,-1,-1,-1,-1,-1],"loss_changes":[1.8353413E3,1.6176465E2,7.166666E1,7.88418E1,2.0079773E1,4.350583E1,2.1038094E1,0E0,0E0,0E0,0E0,0E0,0E0,0E0,0E0],"parents":[2147483647,0,0,1,1,2,2,3,3,4,4,5,5,6,6],"right_children":[2,4,6,8,10,12,14,-1,-1,-1,-1,-1,-1,-1,-1],"split_conditions":[2.009E3,2.007E3,2.012E3,2.001E3,5.4E1,4.8E1,7.3E1,2.0082578E-2,1.4996657E-2,1.4460952E-2,9.649713E-3,1.0575175E-2,4.622949E-3,4.210265E-3,1.4678458E-3],"split_indices":[3,3,3,3,0,0,0,0,0,0,0,0,0,0,0],"split_type":[0,0,0,0,0,0,0,0,0,0,0,0,0,0,0],"sum_hessian":[5.996E3,3.288E3,2.708E3,2.557E3,7.31E2,1.095E3,1.613E3,3.66E2,2.191E3,1.06E2,6.25E2,1.41E2,9.54E2,3.6E2,1.253E3],"tree_param":{"num_deleted":"0","num_feature":"5","num_nodes":"15","size_leaf_vector":"1"}},{"base_weights":[9.4277E-1,1.5045171E0,4.0848404E-1,1.8244734E0,1.3969839E0,7.905622E-1,2.8899184E-1,2.3624066E-2,1.7640237E-2,1.7186511E-2,1.3485918E-2,1.3251063E-2,7.2294157E-3,4.2220512E-3,1.7166494E-3],"categories":[],"categories_nodes":[],"categories_segments":[],"categories_sizes":[],"default_left":[0,0,0,0,0,0,0,0,0,0,0,0,0,0,0],"id":46,"left_children":[1,3,5,7,9,11,13,-1,-1,-1,-1,-1,-1,-1,-1],"loss_changes":[1.7992866E3,9.802002E1,1.4016168E2,1.9635742E1,3.1803223E1,2.5501038E1,3.656308E1,0E0,0E0,0E0,0E0,0E0,0E0,0E0,0E0],"parents":[2147483647,0,0,1,1,2,2,3,3,4,4,5,5,6,6],"right_children":[2,4,6,8,10,12,14,-1,-1,-1,-1,-1,-1,-1,-1],"split_conditions":[2.008E3,2.002E3,2.01E3,3.6E1,4.8E1,4.1E1,2.013E3,2.3624066E-2,1.7640237E-2,1.7186511E-2,1.3485918E-2,1.3251063E-2,7.2294157E-3,4.2220512E-3,1.7166494E-3],"split_indices":[3,3,3,0,0,0,3,0,0,0,0,0,0,0,0],"split_type":[0,0,0,0,0,0,0,0,0,0,0,0,0,0,0],"sum_hessian":[5.996E3,2.922E3,3.074E3,7.31E2,2.191E3,7.31E2,2.343E3,7E1,6.61E2,2.82E2,1.909E3,8E1,6.51E2,1.096E3,1.247E3],"tree_param":{"num_deleted":"0","num_feature":"5","num_nodes":"15","size_leaf_vector":"1"}},{"base_weights":[9.3335867E-1,1.425521E0,3.3547938E-1,1.580281E0,1.1148425E0,5.2901095E-1,2.0385228E-1,1.9700672E-2,1.5011175E-2,1.4675051E-2,1.0534984E-2,1.0737377E-2,4.571457E-3,4.185061E-3,1.4408381E-3],"categories":[],"categories_nodes":[],"categories_segments":[],"categories_sizes":[],"default_left":[0,0,0,0,0,0,0,0,0,0,0,0,0,0,0],"id":47,"left_children":[1,3,5,7,9,11,13,-1,-1,-1,-1,-1,-1,-1,-1],"loss_changes":[1.7641611E3,1.56375E2,6.8901245E1,6.4711914E1,2.218628E1,4.2414154E1,2.064656E1,0E0,0E0,0E0,0E0,0E0,0E0,0E0,0E0],"parents":[2147483647,0,0,1,1,2,2,3,3,4,4,5,5,6,6],"right_children":[2,4,6,8,10,12,14,-1,-1,-1,-1,-1,-1,-1,-1],"split_conditions":[2.009E3,2.006E3,2.012E3,2.001E3,5.4E1,4.3E1,1.1E1,1.9700672E-2,1.5011175E-2,1.4675051E-2,1.0534984E-2,1.0737377E-2,4.571457E-3,4.185061E-3,1.4408381E-3],"split_indices":[3,3,3,3,0,0,4,0,0,0,0,0,0,0,0],"split_type":[0,0,0,0,0,0,0,0,0,0,0,0,0,0,0],"sum_hessian":[5.996E3,3.288E3,2.708E3,2.192E3,1.096E3,1.095E3,1.613E3,3.66E2,1.826E3,1.59E2,9.37E2,1.26E2,9.69E2,3.5E2,1.263E3],"tree_param":{"num_deleted":"0","num_feature":"5","num_nodes":"15","size_leaf_vector":"1"}},{"base_weights":[9.240386E-1,1.474871E0,4.0013385E-1,1.7889496E0,1.3693142E0,7.7448404E-1,2.8305852E-1,2.3220038E-2,1.7290767E-2,1.672111E-2,1.31929945E-2,1.29946945E-2,7.0807557E-3,4.138144E-3,1.6789646E-3],"categories":[],"categories_nodes":[],"categories_segments":[],"categories_sizes":[],"default_left":[0,0,0,0,0,0,0,0,0,0,0,0,0,0,0],"id":48,"left_children":[1,3,5,7,9,11,13,-1,-1,-1,-1,-1,-1,-1,-1],"loss_changes":[1.7300459E3,9.445703E1,1.3454935E2,1.9347168E1,3.0990723E1,2.4599915E1,3.522673E1,0E0,0E0,0E0,0E0,0E0,0E0,0E0,0E0],"parents":[2147483647,0,0,1,1,2,2,3,3,4,4,5,5,6,6],"right_children":[2,4,6,8,10,12,14,-1,-1,-1,-1,-1,-1,-1,-1],"split_conditions":[2.008E3,2.002E3,2.01E3,3.6E1,5.2E1,4.1E1,2.013E3,2.3220038E-2,1.7290767E-2,1.672111E-2,1.31929945E-2,1.29946945E-2,7.0807557E-3,4.138144E-3,1.6789646E-3],"split_indices":[3,3,3,0,0,0,3,0,0,0,0,0,0,0,0],"split_type":[0,0,0,0,0,0,0,0,0,0,0,0,0,0,0],"sum_hessian":[5.996E3,2.922E3,3.074E3,7.31E2,2.191E3,7.31E2,2.343E3,7E1,6.61E2,3.06E2,1.885E3,8E1,6.51E2,1.096E3,1.247E3],"tree_param":{"num_deleted":"0","num_feature":"5","num_nodes":"15","size_leaf_vector":"1"}},{"base_weights":[9.148143E-1,1.397338E0,3.286439E-1,1.5123343E0,9.935707E-1,5.1840466E-1,1.9958168E-1,1.9326111E-2,1.4412787E-2,1.3891595E-2,9.243669E-3,1.0233736E-2,4.4277743E-3,4.0840725E-3,1.3930607E-3],"categories":[],"categories_nodes":[],"categories_segments":[],"categories_sizes":[],"default_left":[0,0,0,0,0,0,0,0,0,0,0,0,0,0,0],"id":49,"left_children":[1,3,5,7,9,11,13,-1,-1,-1,-1,-1,-1,-1,-1],"loss_changes":[1.6957388E3,1.5121143E2,6.624252E1,7.3604004E1,1.8755371E1,4.1402435E1,2.025866E1,0E0,0E0,0E0,0E0,0E0,0E0,0E0,0E0],"parents":[2147483647,0,0,1,1,2,2,3,3,4,4,5,5,6,6],"right_children":[2,4,6,8,10,12,14,-1,-1,-1,-1,-1,-1,-1,-1],"split_conditions":[2.009E3,2.007E3,2.012E3,2.001E3,5.4E1,4.8E1,7.3E1,1.9326111E-2,1.4412787E-2,1.3891595E-2,9.243669E-3,1.0233736E-2,4.4277743E-3,4.0840725E-3,1.3930607E-3],"split_indices":[3,3,3,3,0,0,0,0,0,0,0,0,0,0,0],"split_type":[0,0,0,0,0,0,0,0,0,0,0,0,0,0,0],"sum_hessian":[5.996E3,3.288E3,2.708E3,2.557E3,7.31E2,1.095E3,1.613E3,3.66E2,2.191E3,1.06E2,6.25E2,1.41E2,9.54E2,3.6E2,1.253E3],"tree_param":{"num_deleted":"0","num_feature":"5","num_nodes":"15","size_leaf_vector":"1"}},{"base_weights":[9.05679E-1,1.4456846E0,3.9207184E-1,1.7542658E0,1.3419769E0,6.6764367E-1,2.3911868E-1,2.282479E-2,1.6949644E-2,1.6557416E-2,1.2947845E-2,1.1297786E-2,6.0972557E-3,5.203369E-3,1.8974271E-3],"categories":[],"categories_nodes":[],"categories_segments":[],"categories_sizes":[],"default_left":[0,0,0,0,0,0,0,0,0,0,0,0,0,0,0],"id":50,"left_children":[1,3,5,7,9,11,13,-1,-1,-1,-1,-1,-1,-1,-1],"loss_changes":[1.6627056E3,9.118848E1,1.2945035E2,1.9060059E1,3.0313477E1,2.86734E1,2.7380508E1,0E0,0E0,0E0,0E0,0E0,0E0,0E0,0E0],"parents":[2147483647,0,0,1,1,2,2,3,3,4,4,5,5,6,6],"right_children":[2,4,6,8,10,12,14,-1,-1,-1,-1,-1,-1,-1,-1],"split_conditions":[2.008E3,2.002E3,2.011E3,3.6E1,4.8E1,4.1E1,5E1,2.282479E-2,1.6949644E-2,1.6557416E-2,1.2947845E-2,1.1297786E-2,6.0972557E-3,5.203369E-3,1.8974271E-3],"split_indices":[3,3,3,0,0,0,0,0,0,0,0,0,0,0,0],"split_type":[0,0,0,0,0,0,0,0,0,0,0,0,0,0,0],"sum_hessian":[5.996E3,2.922E3,3.074E3,7.31E2,2.191E3,1.096E3,1.978E3,7E1,6.61E2,2.82E2,1.909E3,1.2E2,9.76E2,2.94E2,1.684E3],"tree_param":{"num_deleted":"0","num_feature":"5","num_nodes":"15","size_leaf_vector":"1"}},{"base_weights":[8.966378E-1,1.3698132E0,3.2182404E-1,1.5194247E0,1.0694782E0,5.0801355E-1,1.9519113E-1,1.895874E-2,1.4429735E-2,1.4101124E-2,1.010234E-2,1.0045235E-2,4.3365494E-3,4.0398063E-3,1.3705797E-3],"categories":[],"categories_nodes":[],"categories_segments":[],"categories_sizes":[],"default_left":[0,0,0,0,0,0,0,0,0,0,0,0,0,0,0],"id":51,"left_children":[1,3,5,7,9,11,13,-1,-1,-1,-1,-1,-1,-1,-1],"loss_changes":[1.6306704E3,1.4616162E2,6.377289E1,6.0378418E1,2.0713623E1,4.0028442E1,1.9534706E1,0E0,0E0,0E0,0E0,0E0,0E0,0E0,0E0],"parents":[2147483647,0,0,1,1,2,2,3,3,4,4,5,5,6,6],"right_children":[2,4,6,8,10,12,14,-1,-1,-1,-1,-1,-1,-1,-1],"split_conditions":[2.009E3,2.006E3,2.012E3,2.001E3,5.4E1,4.8E1,1.1E1,1.895874E-2,1.4429735E-2,1.4101124E-2,1.010234E-2,1.0045235E-2,4.3365494E-3,4.0398063E-3,1.3705797E-3],"split_indices":[3,3,3,3,0,0,4,0,0,0,0,0,0,0,0],"split_type":[0,0,0,0,0,0,0,0,0,0,0,0,0,0,0],"sum_hessian":[5.996E3,3.288E3,2.708E3,2.192E3,1.096E3,1.095E3,1.613E3,3.66E2,1.826E3,1.59E2,9.37E2,1.41E2,9.54E2,3.5E2,1.263E3],"tree_param":{"num_deleted":"0","num_feature":"5","num_nodes":"15","size_leaf_vector":"1"}},{"base_weights":[8.8768435E-1,1.4171952E0,3.8405898E-1,1.720103E0,1.3153952E0,7.447008E-1,2.712715E-1,2.2435166E-2,1.661368E-2,1.624973E-2,1.2688372E-2,1.251639E-2,6.805801E-3,3.978116E-3,1.5982455E-3],"categories":[],"categories_nodes":[],"categories_segments":[],"categories_sizes":[],"default_left":[0,0,0,0,0,0,0,0,0,0,0,0,0,0,0],"id":52,"left_children":[1,3,5,7,9,11,13,-1,-1,-1,-1,-1,-1,-1,-1],"loss_changes":[1.5987065E3,8.787109E1,1.2487634E2,1.8776123E1,2.953247E1,2.2941986E1,3.2992706E1,0E0,0E0,0E0,0E0,0E0,0E0,0E0,0E0],"parents":[2147483647,0,0,1,1,2,2,3,3,4,4,5,5,6,6],"right_children":[2,4,6,8,10,12,14,-1,-1,-1,-1,-1,-1,-1,-1],"split_conditions":[2.008E3,2.002E3,2.01E3,3.6E1,4.8E1,4.1E1,2.013E3,2.2435166E-2,1.661368E-2,1.624973E-2,1.2688372E-2,1.251639E-2,6.805801E-3,3.978116E-3,1.5982455E-3],"split_indices":[3,3,3,0,0,0,3,0,0,0,0,0,0,0,0],"split_type":[0,0,0,0,0,0,0,0,0,0,0,0,0,0,0],"sum_hessian":[5.996E3,2.922E3,3.074E3,7.31E2,2.191E3,7.31E2,2.343E3,7E1,6.61E2,2.82E2,1.909E3,8E1,6.51E2,1.096E3,1.247E3],"tree_param":{"num_deleted":"0","num_feature":"5","num_nodes":"15","size_leaf_vector":"1"}},{"base_weights":[8.78823E-1,1.3427316E0,3.1526664E-1,1.4897635E0,1.0475777E0,4.9782193E-1,1.9110562E-1,1.8598434E-2,1.4146079E-2,1.381919E-2,9.894305E-3,1.0203141E-2,4.288999E-3,3.9422726E-3,1.3247882E-3],"categories":[],"categories_nodes":[],"categories_segments":[],"categories_sizes":[],"default_left":[0,0,0,0,0,0,0,0,0,0,0,0,0,0,0],"id":53,"left_children":[1,3,5,7,9,11,13,-1,-1,-1,-1,-1,-1,-1,-1],"loss_changes":[1.5674243E3,1.4117236E2,6.130771E1,5.8364258E1,1.9959473E1,3.90307E1,1.9167892E1,0E0,0E0,0E0,0E0,0E0,0E0,0E0,0E0],"parents":[2147483647,0,0,1,1,2,2,3,3,4,4,5,5,6,6],"right_children":[2,4,6,8,10,12,14,-1,-1,-1,-1,-1,-1,-1,-1],"split_conditions":[2.009E3,2.006E3,2.012E3,2.001E3,5.4E1,4.3E1,7.3E1,1.8598434E-2,1.4146079E-2,1.381919E-2,9.894305E-3,1.0203141E-2,4.288999E-3,3.9422726E-3,1.3247882E-3],"split_indices":[3,3,3,3,0,0,0,0,0,0,0,0,0,0,0],"split_type":[0,0,0,0,0,0,0,0,0,0,0,0,0,0,0],"sum_hessian":[5.996E3,3.288E3,2.708E3,2.192E3,1.096E3,1.095E3,1.613E3,3.66E2,1.826E3,1.59E2,9.37E2,1.26E2,9.69E2,3.6E2,1.253E3],"tree_param":{"num_deleted":"0","num_feature":"5","num_nodes":"15","size_leaf_vector":"1"}},{"base_weights":[8.7004745E-1,1.3892673E0,3.7621018E-1,1.6866024E0,1.289341E0,7.295709E-1,2.6569986E-1,2.2052556E-2,1.6284285E-2,1.5807603E-2,1.2412205E-2,1.2274142E-2,6.6660326E-3,3.8991636E-3,1.5629984E-3],"categories":[],"categories_nodes":[],"categories_segments":[],"categories_sizes":[],"default_left":[0,0,0,0,0,0,0,0,0,0,0,0,0,0,0],"id":54,"left_children":[1,3,5,7,9,11,13,-1,-1,-1,-1,-1,-1,-1,-1],"loss_changes":[1.5371685E3,8.467236E1,1.1988495E2,1.8494873E1,2.8776855E1,2.212854E1,3.1792343E1,0E0,0E0,0E0,0E0,0E0,0E0,0E0,0E0],"parents":[2147483647,0,0,1,1,2,2,3,3,4,4,5,5,6,6],"right_children":[2,4,6,8,10,12,14,-1,-1,-1,-1,-1,-1,-1,-1],"split_conditions":[2.008E3,2.002E3,2.01E3,3.6E1,5.2E1,4.1E1,2.013E3,2.2052556E-2,1.6284285E-2,1.5807603E-2,1.2412205E-2,1.2274142E-2,6.6660326E-3,3.8991636E-3,1.5629984E-3],"split_indices":[3,3,3,0,0,0,3,0,0,0,0,0,0,0,0],"split_type":[0,0,0,0,0,0,0,0,0,0,0,0,0,0,0],"sum_hessian":[5.996E3,2.922E3,3.074E3,7.31E2,2.191E3,7.31E2,2.343E3,7E1,6.61E2,3.06E2,1.885E3,8E1,6.51E2,1.096E3,1.247E3],"tree_param":{"num_deleted":"0","num_feature":"5","num_nodes":"15","size_leaf_vector":"1"}},{"base_weights":[8.6136216E-1,1.316185E0,3.088433E-1,1.4255539E0,9.321934E-1,4.8783523E-1,1.8710604E-1,1.8245054E-2,1.3581082E-2,1.3082552E-2,8.664253E-3,9.721806E-3,4.1530654E-3,3.919673E-3,1.3007012E-3],"categories":[],"categories_nodes":[],"categories_segments":[],"categories_sizes":[],"default_left":[0,0,0,0,0,0,0,0,0,0,0,0,0,0,0],"id":55,"left_children":[1,3,5,7,9,11,13,-1,-1,-1,-1,-1,-1,-1,-1],"loss_changes":[1.5066289E3,1.3679834E2,5.8937805E1,6.635205E1,1.6970947E1,3.8097565E1,1.8807724E1,0E0,0E0,0E0,0E0,0E0,0E0,0E0,0E0],"parents":[2147483647,0,0,1,1,2,2,3,3,4,4,5,5,6,6],"right_children":[2,4,6,8,10,12,14,-1,-1,-1,-1,-1,-1,-1,-1],"split_conditions":[2.009E3,2.007E3,2.012E3,2.001E3,5.4E1,4.8E1,1.1E1,1.8245054E-2,1.3581082E-2,1.3082552E-2,8.664253E-3,9.721806E-3,4.1530654E-3,3.919673E-3,1.3007012E-3],"split_indices":[3,3,3,3,0,0,4,0,0,0,0,0,0,0,0],"split_type":[0,0,0,0,0,0,0,0,0,0,0,0,0,0,0],"sum_hessian":[5.996E3,3.288E3,2.708E3,2.557E3,7.31E2,1.095E3,1.613E3,3.66E2,2.191E3,1.06E2,6.25E2,1.41E2,9.54E2,3.5E2,1.263E3],"tree_param":{"num_deleted":"0","num_feature":"5","num_nodes":"15","size_leaf_vector":"1"}},{"base_weights":[8.527607E-1,1.3617709E0,3.68634E-1,1.6538942E0,1.2635975E0,7.1522063E-1,2.6024234E-1,2.1678248E-2,1.5962763E-2,1.5655912E-2,1.2181903E-2,1.2040302E-2,6.533973E-3,3.8217646E-3,1.5285293E-3],"categories":[],"categories_nodes":[],"categories_segments":[],"categories_sizes":[],"default_left":[0,0,0,0,0,0,0,0,0,0,0,0,0,0,0],"id":56,"left_children":[1,3,5,7,9,11,13,-1,-1,-1,-1,-1,-1,-1,-1],"loss_changes":[1.4773115E3,8.173779E1,1.153327E2,1.821521E1,2.8151123E1,2.1334259E1,3.0634918E1,0E0,0E0,0E0,0E0,0E0,0E0,0E0,0E0],"parents":[2147483647,0,0,1,1,2,2,3,3,4,4,5,5,6,6],"right_children":[2,4,6,8,10,12,14,-1,-1,-1,-1,-1,-1,-1,-1],"split_conditions":[2.008E3,2.002E3,2.01E3,3.6E1,4.8E1,4.1E1,2.013E3,2.1678248E-2,1.5962763E-2,1.5655912E-2,1.2181903E-2,1.2040302E-2,6.533973E-3,3.8217646E-3,1.5285293E-3],"split_indices":[3,3,3,0,0,0,3,0,0,0,0,0,0,0,0],"split_type":[0,0,0,0,0,0,0,0,0,0,0,0,0,0,0],"sum_hessian":[5.996E3,2.922E3,3.074E3,7.31E2,2.191E3,7.31E2,2.343E3,7E1,6.61E2,2.82E2,1.909E3,8E1,6.51E2,1.096E3,1.247E3],"tree_param":{"num_deleted":"0","num_feature":"5","num_nodes":"15","size_leaf_vector":"1"}},{"base_weights":[8.44248E-1,1.290163E0,3.0255046E-1,1.4324135E0,1.0046155E0,4.7804704E-1,1.8319063E-1,1.7898459E-2,1.3598299E-2,1.32737E-2,9.484905E-3,9.562836E-3,4.064369E-3,3.8800947E-3,1.2720127E-3],"categories":[],"categories_nodes":[],"categories_segments":[],"categories_sizes":[],"default_left":[0,0,0,0,0,0,0,0,0,0,0,0,0,0,0],"id":57,"left_children":[1,3,5,7,9,11,13,-1,-1,-1,-1,-1,-1,-1,-1],"loss_changes":[1.4481914E3,1.3215771E2,5.665851E1,5.446045E1,1.8612793E1,3.7145584E1,1.845948E1,0E0,0E0,0E0,0E0,0E0,0E0,0E0,0E0],"parents":[2147483647,0,0,1,1,2,2,3,3,4,4,5,5,6,6],"right_children":[2,4,6,8,10,12,14,-1,-1,-1,-1,-1,-1,-1,-1],"split_conditions":[2.009E3,2.006E3,2.012E3,2.001E3,5.4E1,4.8E1,7E1,1.7898459E-2,1.3598299E-2,1.32737E-2,9.484905E-3,9.562836E-3,4.064369E-3,3.8800947E-3,1.2720127E-3],"split_indices":[3,3,3,3,0,0,0,0,0,0,0,0,0,0,0],"split_type":[0,0,0,0,0,0,0,0,0,0,0,0,0,0,0],"sum_hessian":[5.996E3,3.288E3,2.708E3,2.192E3,1.096E3,1.095E3,1.613E3,3.66E2,1.826E3,1.59E2,9.37E2,1.41E2,9.54E2,3.45E2,1.268E3],"tree_param":{"num_deleted":"0","num_feature":"5","num_nodes":"15","size_leaf_vector":"1"}},{"base_weights":[8.358177E-1,1.3349334E0,3.611019E-1,1.6216769E0,1.2385688E0,7.0069736E-1,2.5489673E-1,2.1309253E-2,1.56461E-2,1.5365481E-2,1.1937695E-2,1.1808613E-2,6.3997037E-3,3.7459391E-3,1.4947788E-3],"categories":[],"categories_nodes":[],"categories_segments":[],"categories_sizes":[],"default_left":[0,0,0,0,0,0,0,0,0,0,0,0,0,0,0],"id":58,"left_children":[1,3,5,7,9,11,13,-1,-1,-1,-1,-1,-1,-1,-1],"loss_changes":[1.4204355E3,7.8759766E1,1.10726776E2,1.7938965E1,2.7427246E1,2.0588593E1,2.9521393E1,0E0,0E0,0E0,0E0,0E0,0E0,0E0,0E0],"parents":[2147483647,0,0,1,1,2,2,3,3,4,4,5,5,6,6],"right_children":[2,4,6,8,10,12,14,-1,-1,-1,-1,-1,-1,-1,-1],"split_conditions":[2.008E3,2.002E3,2.01E3,3.6E1,4.8E1,4.1E1,2.013E3,2.1309253E-2,1.56461E-2,1.5365481E-2,1.1937695E-2,1.1808613E-2,6.3997037E-3,3.7459391E-3,1.4947788E-3],"split_indices":[3,3,3,0,0,0,3,0,0,0,0,0,0,0,0],"split_type":[0,0,0,0,0,0,0,0,0,0,0,0,0,0,0],"sum_hessian":[5.996E3,2.922E3,3.074E3,7.31E2,2.191E3,7.31E2,2.343E3,7E1,6.61E2,2.82E2,1.909E3,8E1,6.51E2,1.096E3,1.247E3],"tree_param":{"num_deleted":"0","num_feature":"5","num_nodes":"15","size_leaf_vector":"1"}},{"base_weights":[8.274741E-1,1.321606E0,3.5749853E-1,1.7558527E0,1.2587628E0,6.100223E-1,2.1733879E-1,1.55295655E-2,2.420932E-2,1.6240478E-2,1.2131309E-2,1.0372299E-2,5.5648894E-3,4.8656357E-3,1.7007549E-3],"categories":[],"categories_nodes":[],"categories_segments":[],"categories_sizes":[],"default_left":[0,0,0,0,0,0,0,0,0,0,0,0,0,0,0],"id":59,"left_children":[1,3,5,7,9,11,13,-1,-1,-1,-1,-1,-1,-1,-1],"loss_changes":[1.3922104E3,7.755713E1,1.0870294E2,4.576416E1,4.0651367E1,2.4511047E1,2.509893E1,0E0,0E0,0E0,0E0,0E0,0E0,0E0,0E0],"parents":[2147483647,0,0,1,1,2,2,3,3,4,4,5,5,6,6],"right_children":[2,4,6,8,10,12,14,-1,-1,-1,-1,-1,-1,-1,-1],"split_conditions":[2.008E3,2.001E3,2.011E3,2.84E2,4.1E1,4.1E1,5E1,1.55295655E-2,2.420932E-2,1.6240478E-2,1.2131309E-2,1.0372299E-2,5.5648894E-3,4.8656357E-3,1.7007549E-3],"split_indices":[3,3,3,0,0,0,0,0,0,0,0,0,0,0,0],"split_type":[0,0,0,0,0,0,0,0,0,0,0,0,0,0,0],"sum_hessian":[5.996E3,2.922E3,3.074E3,3.66E2,2.556E3,1.096E3,1.978E3,2.83E2,8.3E1,2.8E2,2.276E3,1.2E2,9.76E2,2.94E2,1.684E3],"tree_param":{"num_deleted":"0","num_feature":"5","num_nodes":"15","size_leaf_vector":"1"}},{"base_weights":[8.192145E-1,1.2522532E0,2.9315934E-1,1.3910644E0,9.7361565E-1,4.6368995E-1,1.7717747E-1,1.7384024E-2,1.3205312E-2,1.2876478E-2,9.190114E-3,9.32664E-3,3.9347215E-3,3.7295967E-3,1.2067463E-3],"categories":[],"categories_nodes":[],"categories_segments":[],"categories_sizes":[],"default_left":[0,0,0,0,0,0,0,0,0,0,0,0,0,0,0],"id":60,"left_children":[1,3,5,7,9,11,13,-1,-1,-1,-1,-1,-1,-1,-1],"loss_changes":[1.365763E3,1.2585791E2,5.3497696E1,5.1430176E1,1.7627563E1,3.572464E1,1.780946E1,0E0,0E0,0E0,0E0,0E0,0E0,0E0,0E0],"parents":[2147483647,0,0,1,1,2,2,3,3,4,4,5,5,6,6],"right_children":[2,4,6,8,10,12,14,-1,-1,-1,-1,-1,-1,-1,-1],"split_conditions":[2.009E3,2.006E3,2.012E3,2.001E3,5.4E1,4.8E1,7.3E1,1.7384024E-2,1.3205312E-2,1.2876478E-2,9.190114E-3,9.32664E-3,3.9347215E-3,3.7295967E-3,1.2067463E-3],"split_indices":[3,3,3,3,0,0,0,0,0,0,0,0,0,0,0],"split_type":[0,0,0,0,0,0,0,0,0,0,0,0,0,0,0],"sum_hessian":[5.996E3,3.288E3,2.708E3,2.192E3,1.096E3,1.095E3,1.613E3,3.66E2,1.826E3,1.59E2,9.37E2,1.41E2,9.54E2,3.6E2,1.253E3],"tree_param":{"num_deleted":"0","num_feature":"5","num_nodes":"15","size_leaf_vector":"1"}},{"base_weights":[8.110342E-1,1.2397467E0,2.9023445E-1,1.3438337E0,8.743171E-1,4.5906514E-1,1.7540875E-1,1.7210659E-2,1.2800618E-2,1.2318249E-2,8.118128E-3,9.542168E-3,3.937627E-3,3.7280743E-3,1.2045435E-3],"categories":[],"categories_nodes":[],"categories_segments":[],"categories_sizes":[],"default_left":[0,0,0,0,0,0,0,0,0,0,0,0,0,0,0],"id":61,"left_children":[1,3,5,7,9,11,13,-1,-1,-1,-1,-1,-1,-1,-1],"loss_changes":[1.3386101E3,1.23927246E2,5.2436417E1,5.9334473E1,1.5357117E1,3.506299E1,1.746365E1,0E0,0E0,0E0,0E0,0E0,0E0,0E0,0E0],"parents":[2147483647,0,0,1,1,2,2,3,3,4,4,5,5,6,6],"right_children":[2,4,6,8,10,12,14,-1,-1,-1,-1,-1,-1,-1,-1],"split_conditions":[2.009E3,2.007E3,2.012E3,2.001E3,5.4E1,4.3E1,1.1E1,1.7210659E-2,1.2800618E-2,1.2318249E-2,8.118128E-3,9.542168E-3,3.937627E-3,3.7280743E-3,1.2045435E-3],"split_indices":[3,3,3,3,0,0,4,0,0,0,0,0,0,0,0],"split_type":[0,0,0,0,0,0,0,0,0,0,0,0,0,0,0],"sum_hessian":[5.996E3,3.288E3,2.708E3,2.557E3,7.31E2,1.095E3,1.613E3,3.66E2,2.191E3,1.06E2,6.25E2,1.26E2,9.69E2,3.5E2,1.263E3],"tree_param":{"num_deleted":"0","num_feature":"5","num_nodes":"15","size_leaf_vector":"1"}},{"base_weights":[8.029353E-1,1.2827185E0,3.4660715E-1,1.5602233E0,1.1894629E0,6.738142E-1,2.442769E-1,2.0643815E-2,1.5037951E-2,1.4666873E-2,1.143706E-2,1.1371945E-2,6.152136E-3,5.0722044E-3,1.9895113E-3],"categories":[],"categories_nodes":[],"categories_segments":[],"categories_sizes":[],"default_left":[0,0,0,0,0,0,0,0,0,0,0,0,0,0,0],"id":62,"left_children":[1,3,5,7,9,11,13,-1,-1,-1,-1,-1,-1,-1,-1],"loss_changes":[1.3125303E3,7.3788086E1,1.027962E2,1.771997E1,2.612793E1,1.9177399E1,2.7835144E1,0E0,0E0,0E0,0E0,0E0,0E0,0E0,0E0],"parents":[2147483647,0,0,1,1,2,2,3,3,4,4,5,5,6,6],"right_children":[2,4,6,8,10,12,14,-1,-1,-1,-1,-1,-1,-1,-1],"split_conditions":[2.008E3,2.002E3,2.01E3,3.6E1,5.2E1,4.1E1,5E1,2.0643815E-2,1.5037951E-2,1.4666873E-2,1.143706E-2,1.1371945E-2,6.152136E-3,5.0722044E-3,1.9895113E-3],"split_indices":[3,3,3,0,0,0,0,0,0,0,0,0,0,0,0],"split_type":[0,0,0,0,0,0,0,0,0,0,0,0,0,0,0],"sum_hessian":[5.996E3,2.922E3,3.074E3,7.31E2,2.191E3,7.31E2,2.343E3,7E1,6.61E2,3.06E2,1.885E3,8E1,6.51E2,3.43E2,2E3],"tree_param":{"num_deleted":"0","num_feature":"5","num_nodes":"15","size_leaf_vector":"1"}},{"base_weights":[7.949204E-1,1.2152355E0,2.843219E-1,1.3505255E0,9.4367105E-1,4.506467E-1,1.7120151E-1,1.6883705E-2,1.2819214E-2,1.2494718E-2,8.905028E-3,9.377164E-3,3.8641116E-3,3.6156538E-3,1.1626327E-3],"categories":[],"categories_nodes":[],"categories_segments":[],"categories_sizes":[],"default_left":[0,0,0,0,0,0,0,0,0,0,0,0,0,0,0],"id":63,"left_children":[1,3,5,7,9,11,13,-1,-1,-1,-1,-1,-1,-1,-1],"loss_changes":[1.2866841E3,1.1956299E2,5.0891937E1,4.8664307E1,1.6723328E1,3.3928406E1,1.6837585E1,0E0,0E0,0E0,0E0,0E0,0E0,0E0,0E0],"parents":[2147483647,0,0,1,1,2,2,3,3,4,4,5,5,6,6],"right_children":[2,4,6,8,10,12,14,-1,-1,-1,-1,-1,-1,-1,-1],"split_conditions":[2.009E3,2.006E3,2.012E3,2.001E3,5.4E1,4.3E1,7.3E1,1.6883705E-2,1.2819214E-2,1.2494718E-2,8.905028E-3,9.377164E-3,3.8641116E-3,3.6156538E-3,1.1626327E-3],"split_indices":[3,3,3,3,0,0,0,0,0,0,0,0,0,0,0],"split_type":[0,0,0,0,0,0,0,0,0,0,0,0,0,0,0],"sum_hessian":[5.996E3,3.288E3,2.708E3,2.192E3,1.096E3,1.095E3,1.613E3,3.66E2,1.826E3,1.59E2,9.37E2,1.26E2,9.69E2,3.6E2,1.253E3],"tree_param":{"num_deleted":"0","num_feature":"5","num_nodes":"15","size_leaf_vector":"1"}},{"base_weights":[7.869827E-1,1.257436E0,3.3952835E-1,1.5298359E0,1.1658968E0,5.802332E-1,2.0592919E-1,2.0293862E-2,1.4739479E-2,1.4526579E-2,1.1227977E-2,9.866135E-3,5.293097E-3,4.6310583E-3,1.6078199E-3],"categories":[],"categories_nodes":[],"categories_segments":[],"categories_sizes":[],"default_left":[0,0,0,0,0,0,0,0,0,0,0,0,0,0,0],"id":64,"left_children":[1,3,5,7,9,11,13,-1,-1,-1,-1,-1,-1,-1,-1],"loss_changes":[1.26198E3,7.110254E1,9.87663E1,1.7445435E1,2.5459717E1,2.2179413E1,2.290332E1,0E0,0E0,0E0,0E0,0E0,0E0,0E0,0E0],"parents":[2147483647,0,0,1,1,2,2,3,3,4,4,5,5,6,6],"right_children":[2,4,6,8,10,12,14,-1,-1,-1,-1,-1,-1,-1,-1],"split_conditions":[2.008E3,2.002E3,2.011E3,3.6E1,4.8E1,4.1E1,5E1,2.0293862E-2,1.4739479E-2,1.4526579E-2,1.1227977E-2,9.866135E-3,5.293097E-3,4.6310583E-3,1.6078199E-3],"split_indices":[3,3,3,0,0,0,0,0,0,0,0,0,0,0,0],"split_type":[0,0,0,0,0,0,0,0,0,0,0,0,0,0,0],"sum_hessian":[5.996E3,2.922E3,3.074E3,7.31E2,2.191E3,1.096E3,1.978E3,7E1,6.61E2,2.82E2,1.909E3,1.2E2,9.76E2,2.94E2,1.684E3],"tree_param":{"num_deleted":"0","num_feature":"5","num_nodes":"15","size_leaf_vector":"1"}},{"base_weights":[7.791266E-1,1.1912974E0,2.7842188E-1,1.2918766E0,8.38193E-1,4.416224E-1,1.6742669E-1,1.656304E-2,1.2302722E-2,1.1836988E-2,7.7779787E-3,8.913139E-3,3.7429484E-3,3.5775406E-3,1.1444223E-3],"categories":[],"categories_nodes":[],"categories_segments":[],"categories_sizes":[],"default_left":[0,0,0,0,0,0,0,0,0,0,0,0,0,0,0],"id":65,"left_children":[1,3,5,7,9,11,13,-1,-1,-1,-1,-1,-1,-1,-1],"loss_changes":[1.2373044E3,1.15725586E2,4.8998154E1,5.5390137E1,1.4353943E1,3.284958E1,1.6235264E1,0E0,0E0,0E0,0E0,0E0,0E0,0E0,0E0],"parents":[2147483647,0,0,1,1,2,2,3,3,4,4,5,5,6,6],"right_children":[2,4,6,8,10,12,14,-1,-1,-1,-1,-1,-1,-1,-1],"split_conditions":[2.009E3,2.007E3,2.012E3,2.001E3,5.4E1,4.8E1,1.1E1,1.656304E-2,1.2302722E-2,1.1836988E-2,7.7779787E-3,8.913139E-3,3.7429484E-3,3.5775406E-3,1.1444223E-3],"split_indices":[3,3,3,3,0,0,4,0,0,0,0,0,0,0,0],"split_type":[0,0,0,0,0,0,0,0,0,0,0,0,0,0,0],"sum_hessian":[5.996E3,3.288E3,2.708E3,2.557E3,7.31E2,1.095E3,1.613E3,3.66E2,2.191E3,1.06E2,6.25E2,1.41E2,9.54E2,3.5E2,1.263E3],"tree_param":{"num_deleted":"0","num_feature":"5","num_nodes":"15","size_leaf_vector":"1"}},{"base_weights":[7.7134633E-1,1.2325419E0,3.3269712E-1,1.5001694E0,1.1426077E0,6.479776E-1,2.340973E-1,1.9951487E-2,1.4448163E-2,1.4129918E-2,1.0979892E-2,1.0951707E-2,5.9142755E-3,2.9127875E-3,3.1964833E-4],"categories":[],"categories_nodes":[],"categories_segments":[],"categories_sizes":[],"default_left":[0,0,0,0,0,0,0,0,0,0,0,0,0,0,0],"id":66,"left_children":[1,3,5,7,9,11,13,-1,-1,-1,-1,-1,-1,-1,-1],"loss_changes":[1.2128013E3,6.863965E1,9.5439606E1,1.7173218E1,2.489331E1,1.7863678E1,2.7083176E1,0E0,0E0,0E0,0E0,0E0,0E0,0E0,0E0],"parents":[2147483647,0,0,1,1,2,2,3,3,4,4,5,5,6,6],"right_children":[2,4,6,8,10,12,14,-1,-1,-1,-1,-1,-1,-1,-1],"split_conditions":[2.008E3,2.002E3,2.01E3,3.6E1,5.2E1,4.1E1,2.015E3,1.9951487E-2,1.4448163E-2,1.4129918E-2,1.0979892E-2,1.0951707E-2,5.9142755E-3,2.9127875E-3,3.1964833E-4],"split_indices":[3,3,3,0,0,0,3,0,0,0,0,0,0,0,0],"split_type":[0,0,0,0,0,0,0,0,0,0,0,0,0,0,0],"sum_hessian":[5.996E3,2.922E3,3.074E3,7.31E2,2.191E3,7.31E2,2.343E3,7E1,6.61E2,3.06E2,1.885E3,8E1,6.51E2,1.826E3,5.17E2],"tree_param":{"num_deleted":"0","num_feature":"5","num_nodes":"15","size_leaf_vector":"1"}},{"base_weights":[7.636461E-1,1.167744E0,2.7274847E-1,1.2985725E0,9.051418E-1,4.331242E-1,1.6367504E-1,1.6248522E-2,1.2323201E-2,1.2003641E-2,8.53819E-3,8.771588E-3,3.6664668E-3,3.489812E-3,1.1019879E-3],"categories":[],"categories_nodes":[],"categories_segments":[],"categories_sizes":[],"default_left":[0,0,0,0,0,0,0,0,0,0,0,0,0,0,0],"id":67,"left_children":[1,3,5,7,9,11,13,-1,-1,-1,-1,-1,-1,-1,-1],"loss_changes":[1.1893113E3,1.118208E2,4.731691E1,4.540332E1,1.55963745E1,3.2030487E1,1.5955437E1,0E0,0E0,0E0,0E0,0E0,0E0,0E0,0E0],"parents":[2147483647,0,0,1,1,2,2,3,3,4,4,5,5,6,6],"right_children":[2,4,6,8,10,12,14,-1,-1,-1,-1,-1,-1,-1,-1],"split_conditions":[2.009E3,2.006E3,2.012E3,2.001E3,5.4E1,4.8E1,7.3E1,1.6248522E-2,1.2323201E-2,1.2003641E-2,8.53819E-3,8.771588E-3,3.6664668E-3,3.489812E-3,1.1019879E-3],"split_indices":[3,3,3,3,0,0,0,0,0,0,0,0,0,0,0],"split_type":[0,0,0,0,0,0,0,0,0,0,0,0,0,0,0],"sum_hessian":[5.996E3,3.288E3,2.708E3,2.192E3,1.096E3,1.095E3,1.613E3,3.66E2,1.826E3,1.59E2,9.37E2,1.41E2,9.54E2,3.6E2,1.253E3],"tree_param":{"num_deleted":"0","num_feature":"5","num_nodes":"15","size_leaf_vector":"1"}},{"base_weights":[7.560207E-1,1.208246E0,3.2590342E-1,1.4709456E0,1.1199685E0,6.348448E-1,2.292861E-1,1.9613935E-2,1.4161227E-2,1.3997471E-2,1.0779279E-2,1.0740948E-2,5.793017E-3,2.8569659E-3,2.9882154E-4],"categories":[],"categories_nodes":[],"categories_segments":[],"categories_sizes":[],"default_left":[0,0,0,0,0,0,0,0,0,0,0,0,0,0,0],"id":68,"left_children":[1,3,5,7,9,11,13,-1,-1,-1,-1,-1,-1,-1,-1],"loss_changes":[1.1660823E3,6.613818E1,9.164038E1,1.6904297E1,2.4273438E1,1.7236603E1,2.6357887E1,0E0,0E0,0E0,0E0,0E0,0E0,0E0,0E0],"parents":[2147483647,0,0,1,1,2,2,3,3,4,4,5,5,6,6],"right_children":[2,4,6,8,10,12,14,-1,-1,-1,-1,-1,-1,-1,-1],"split_conditions":[2.008E3,2.002E3,2.01E3,3.6E1,4.8E1,4.1E1,2.015E3,1.9613935E-2,1.4161227E-2,1.3997471E-2,1.0779279E-2,1.0740948E-2,5.793017E-3,2.8569659E-3,2.9882154E-4],"split_indices":[3,3,3,0,0,0,3,0,0,0,0,0,0,0,0],"split_type":[0,0,0,0,0,0,0,0,0,0,0,0,0,0,0],"sum_hessian":[5.996E3,2.922E3,3.074E3,7.31E2,2.191E3,7.31E2,2.343E3,7E1,6.61E2,2.82E2,1.909E3,8E1,6.51E2,1.826E3,5.17E2],"tree_param":{"num_deleted":"0","num_feature":"5","num_nodes":"15","size_leaf_vector":"1"}},{"base_weights":[7.484736E-1,1.1446567E0,2.6719093E-1,1.2419395E0,8.031342E-1,4.2479157E-1,1.6000539E-1,1.5940055E-2,1.1824276E-2,1.13685625E-2,7.448093E-3,8.921214E-3,3.6316717E-3,3.4367244E-3,1.0700393E-3],"categories":[],"categories_nodes":[],"categories_segments":[],"categories_sizes":[],"default_left":[0,0,0,0,0,0,0,0,0,0,0,0,0,0,0],"id":69,"left_children":[1,3,5,7,9,11,13,-1,-1,-1,-1,-1,-1,-1,-1],"loss_changes":[1.1431785E3,1.0827734E2,4.5693848E1,5.1710693E1,1.3401154E1,3.123964E1,1.5674904E1,0E0,0E0,0E0,0E0,0E0,0E0,0E0,0E0],"parents":[2147483647,0,0,1,1,2,2,3,3,4,4,5,5,6,6],"right_children":[2,4,6,8,10,12,14,-1,-1,-1,-1,-1,-1,-1,-1],"split_conditions":[2.009E3,2.007E3,2.012E3,2.001E3,5.4E1,4.3E1,7.3E1,1.5940055E-2,1.1824276E-2,1.13685625E-2,7.448093E-3,8.921214E-3,3.6316717E-3,3.4367244E-3,1.0700393E-3],"split_indices":[3,3,3,3,0,0,0,0,0,0,0,0,0,0,0],"split_type":[0,0,0,0,0,0,0,0,0,0,0,0,0,0,0],"sum_hessian":[5.996E3,3.288E3,2.708E3,2.557E3,7.31E2,1.095E3,1.613E3,3.66E2,2.191E3,1.06E2,6.25E2,1.26E2,9.69E2,3.6E2,1.253E3],"tree_param":{"num_deleted":"0","num_feature":"5","num_nodes":"15","size_leaf_vector":"1"}},{"base_weights":[7.4099946E-1,1.1843234E0,3.193484E-1,1.4424164E0,1.0975952E0,5.468811E-1,1.9306102E-1,1.9283693E-2,1.3881187E-2,1.3740924E-2,1.0560526E-2,9.313491E-3,4.987055E-3,4.4153673E-3,1.4944476E-3],"categories":[],"categories_nodes":[],"categories_segments":[],"categories_sizes":[],"default_left":[0,0,0,0,0,0,0,0,0,0,0,0,0,0,0],"id":70,"left_children":[1,3,5,7,9,11,13,-1,-1,-1,-1,-1,-1,-1,-1],"loss_changes":[1.1206294E3,6.3845215E1,8.825299E1,1.6637817E1,2.3727295E1,1.9854126E1,2.1381584E1,0E0,0E0,0E0,0E0,0E0,0E0,0E0,0E0],"parents":[2147483647,0,0,1,1,2,2,3,3,4,4,5,5,6,6],"right_children":[2,4,6,8,10,12,14,-1,-1,-1,-1,-1,-1,-1,-1],"split_conditions":[2.008E3,2.002E3,2.011E3,3.6E1,4.8E1,4.1E1,5E1,1.9283693E-2,1.3881187E-2,1.3740924E-2,1.0560526E-2,9.313491E-3,4.987055E-3,4.4153673E-3,1.4944476E-3],"split_indices":[3,3,3,0,0,0,0,0,0,0,0,0,0,0,0],"split_type":[0,0,0,0,0,0,0,0,0,0,0,0,0,0,0],"sum_hessian":[5.996E3,2.922E3,3.074E3,7.31E2,2.191E3,1.096E3,1.978E3,7E1,6.61E2,2.82E2,1.909E3,1.2E2,9.76E2,2.94E2,1.684E3],"tree_param":{"num_deleted":"0","num_feature":"5","num_nodes":"15","size_leaf_vector":"1"}},{"base_weights":[7.336024E-1,1.1221088E0,2.616455E-1,1.2486349E0,8.681492E-1,4.1628936E-1,1.5647121E-1,1.5637504E-2,1.1846523E-2,1.1532007E-2,8.186008E-3,8.477468E-3,3.5169958E-3,3.4013635E-3,1.0534546E-3],"categories":[],"categories_nodes":[],"categories_segments":[],"categories_sizes":[],"default_left":[0,0,0,0,0,0,0,0,0,0,0,0,0,0,0],"id":71,"left_children":[1,3,5,7,9,11,13,-1,-1,-1,-1,-1,-1,-1,-1],"loss_changes":[1.0993062E3,1.0459961E2,4.3995544E1,4.236255E1,1.4549805E1,3.0244888E1,1.5119652E1,0E0,0E0,0E0,0E0,0E0,0E0,0E0,0E0],"parents":[2147483647,0,0,1,1,2,2,3,3,4,4,5,5,6,6],"right_children":[2,4,6,8,10,12,14,-1,-1,-1,-1,-1,-1,-1,-1],"split_conditions":[2.009E3,2.006E3,2.012E3,2.001E3,5.4E1,4.8E1,1.1E1,1.5637504E-2,1.1846523E-2,1.1532007E-2,8.186008E-3,8.477468E-3,3.5169958E-3,3.4013635E-3,1.0534546E-3],"split_indices":[3,3,3,3,0,0,4,0,0,0,0,0,0,0,0],"split_type":[0,0,0,0,0,0,0,0,0,0,0,0,0,0,0],"sum_hessian":[5.996E3,3.288E3,2.708E3,2.192E3,1.096E3,1.095E3,1.613E3,3.66E2,1.826E3,1.59E2,9.37E2,1.41E2,9.54E2,3.5E2,1.263E3],"tree_param":{"num_deleted":"0","num_feature":"5","num_nodes":"15","size_leaf_vector":"1"}},{"base_weights":[7.26277E-1,1.1109022E0,2.5903514E-1,1.2056544E0,7.7826935E-1,4.1213742E-1,1.5490925E-1,1.5481557E-2,1.1477604E-2,1.1034544E-2,7.2144335E-3,8.940655E-3,3.5528012E-3,3.3674468E-3,1.0429284E-3],"categories":[],"categories_nodes":[],"categories_segments":[],"categories_sizes":[],"default_left":[0,0,0,0,0,0,0,0,0,0,0,0,0,0,0],"id":72,"left_children":[1,3,5,7,9,11,13,-1,-1,-1,-1,-1,-1,-1,-1],"loss_changes":[1.0774509E3,1.0272339E2,4.3122772E1,4.894507E1,1.273053E1,2.971402E1,1.4819904E1,0E0,0E0,0E0,0E0,0E0,0E0,0E0,0E0],"parents":[2147483647,0,0,1,1,2,2,3,3,4,4,5,5,6,6],"right_children":[2,4,6,8,10,12,14,-1,-1,-1,-1,-1,-1,-1,-1],"split_conditions":[2.009E3,2.007E3,2.012E3,2.001E3,5.4E1,3.9E1,1.1E1,1.5481557E-2,1.1477604E-2,1.1034544E-2,7.2144335E-3,8.940655E-3,3.5528012E-3,3.3674468E-3,1.0429284E-3],"split_indices":[3,3,3,3,0,0,4,0,0,0,0,0,0,0,0],"split_type":[0,0,0,0,0,0,0,0,0,0,0,0,0,0,0],"sum_hessian":[5.996E3,3.288E3,2.708E3,2.557E3,7.31E2,1.095E3,1.613E3,3.66E2,2.191E3,1.06E2,6.25E2,1.14E2,9.81E2,3.5E2,1.263E3],"tree_param":{"num_deleted":"0","num_feature":"5","num_nodes":"15","size_leaf_vector":"1"}},{"base_weights":[7.190246E-1,1.1494637E0,3.0962873E-1,1.4008479E0,1.0649916E0,6.0460114E-1,2.1738069E-1,1.882519E-2,1.3470722E-2,1.3373364E-2,1.0240814E-2,1.0246558E-2,5.514891E-3,2.7251926E-3,2.2485795E-4],"categories":[],"categories_nodes":[],"categories_segments":[],"categories_sizes":[],"default_left":[0,0,0,0,0,0,0,0,0,0,0,0,0,0,0],"id":73,"left_children":[1,3,5,7,9,11,13,-1,-1,-1,-1,-1,-1,-1,-1],"loss_changes":[1.0564353E3,6.0578125E1,8.354123E1,1.642456E1,2.3052979E1,1.5765808E1,2.5183022E1,0E0,0E0,0E0,0E0,0E0,0E0,0E0,0E0],"parents":[2147483647,0,0,1,1,2,2,3,3,4,4,5,5,6,6],"right_children":[2,4,6,8,10,12,14,-1,-1,-1,-1,-1,-1,-1,-1],"split_conditions":[2.008E3,2.002E3,2.01E3,3.6E1,4.8E1,4.1E1,2.015E3,1.882519E-2,1.3470722E-2,1.3373364E-2,1.0240814E-2,1.0246558E-2,5.514891E-3,2.7251926E-3,2.2485795E-4],"split_indices":[3,3,3,0,0,0,3,0,0,0,0,0,0,0,0],"split_type":[0,0,0,0,0,0,0,0,0,0,0,0,0,0,0],"sum_hessian":[5.996E3,2.922E3,3.074E3,7.31E2,2.191E3,7.31E2,2.343E3,7E1,6.61E2,2.82E2,1.909E3,8E1,6.51E2,1.826E3,5.17E2],"tree_param":{"num_deleted":"0","num_feature":"5","num_nodes":"15","size_leaf_vector":"1"}},{"base_weights":[7.118468E-1,1.0889372E0,2.537583E-1,1.2122682E0,8.4139466E-1,4.0420303E-1,1.5144035E-1,1.5187717E-2,1.1500356E-2,1.1189939E-2,7.93146E-3,8.167593E-3,3.3943744E-3,3.2696528E-3,9.988424E-4],"categories":[],"categories_nodes":[],"categories_segments":[],"categories_sizes":[],"default_left":[0,0,0,0,0,0,0,0,0,0,0,0,0,0,0],"id":74,"left_children":[1,3,5,7,9,11,13,-1,-1,-1,-1,-1,-1,-1,-1],"loss_changes":[1.0356497E3,9.9392334E1,4.1638947E1,4.0083984E1,1.3805481E1,2.9007278E1,1.4573044E1,0E0,0E0,0E0,0E0,0E0,0E0,0E0,0E0],"parents":[2147483647,0,0,1,1,2,2,3,3,4,4,5,5,6,6],"right_children":[2,4,6,8,10,12,14,-1,-1,-1,-1,-1,-1,-1,-1],"split_conditions":[2.009E3,2.006E3,2.012E3,2.001E3,5.4E1,5E1,7.4E1,1.5187717E-2,1.1500356E-2,1.1189939E-2,7.93146E-3,8.167593E-3,3.3943744E-3,3.2696528E-3,9.988424E-4],"split_indices":[3,3,3,3,0,0,0,0,0,0,0,0,0,0,0],"split_type":[0,0,0,0,0,0,0,0,0,0,0,0,0,0,0],"sum_hessian":[5.996E3,3.288E3,2.708E3,2.192E3,1.096E3,1.095E3,1.613E3,3.66E2,1.826E3,1.59E2,9.37E2,1.47E2,9.48E2,3.65E2,1.248E3],"tree_param":{"num_deleted":"0","num_feature":"5","num_nodes":"15","size_leaf_vector":"1"}},{"base_weights":[7.047386E-1,1.1268032E0,3.0330795E-1,1.5036254E0,1.0722781E0,5.9236294E-1,2.129105E-1,1.3019732E-2,2.1675015E-2,1.4104602E-2,1.0300728E-2,1.0049765E-2,5.4019415E-3,2.6731186E-3,2.0624435E-4],"categories":[],"categories_nodes":[],"categories_segments":[],"categories_sizes":[],"default_left":[0,0,0,0,0,0,0,0,0,0,0,0,0,0,0],"id":75,"left_children":[1,3,5,7,9,11,13,-1,-1,-1,-1,-1,-1,-1,-1],"loss_changes":[1.015728E3,5.8444336E1,8.0223114E1,4.630902E1,3.5043213E1,1.5213837E1,2.4514183E1,0E0,0E0,0E0,0E0,0E0,0E0,0E0,0E0],"parents":[2147483647,0,0,1,1,2,2,3,3,4,4,5,5,6,6],"right_children":[2,4,6,8,10,12,14,-1,-1,-1,-1,-1,-1,-1,-1],"split_conditions":[2.008E3,2.001E3,2.01E3,2.84E2,4.1E1,4.1E1,2.015E3,1.3019732E-2,2.1675015E-2,1.4104602E-2,1.0300728E-2,1.0049765E-2,5.4019415E-3,2.6731186E-3,2.0624435E-4],"split_indices":[3,3,3,0,0,0,3,0,0,0,0,0,0,0,0],"split_type":[0,0,0,0,0,0,0,0,0,0,0,0,0,0,0],"sum_hessian":[5.996E3,2.922E3,3.074E3,3.66E2,2.556E3,7.31E2,2.343E3,2.83E2,8.3E1,2.8E2,2.276E3,8E1,6.51E2,1.826E3,5.17E2],"tree_param":{"num_deleted":"0","num_feature":"5","num_nodes":"15","size_leaf_vector":"1"}},{"base_weights":[6.9770414E-1,1.1155553E0,3.0028084E-1,1.3607198E0,1.0331758E0,5.151944E-1,1.8099812E-1,1.8374316E-2,1.3075366E-2,1.2871177E-2,9.912917E-3,8.896239E-3,4.7086626E-3,4.211175E-3,1.38852E-3],"categories":[],"categories_nodes":[],"categories_segments":[],"categories_sizes":[],"default_left":[0,0,0,0,0,0,0,0,0,0,0,0,0,0,0],"id":76,"left_children":[1,3,5,7,9,11,13,-1,-1,-1,-1,-1,-1,-1,-1],"loss_changes":[9.9554956E2,5.7628418E1,7.873584E1,1.6156006E1,2.2038574E1,1.778888E1,1.9969208E1,0E0,0E0,0E0,0E0,0E0,0E0,0E0,0E0],"parents":[2147483647,0,0,1,1,2,2,3,3,4,4,5,5,6,6],"right_children":[2,4,6,8,10,12,14,-1,-1,-1,-1,-1,-1,-1,-1],"split_conditions":[2.008E3,2.002E3,2.011E3,3.6E1,5.2E1,3.9E1,5E1,1.8374316E-2,1.3075366E-2,1.2871177E-2,9.912917E-3,8.896239E-3,4.7086626E-3,4.211175E-3,1.38852E-3],"split_indices":[3,3,3,0,0,0,0,0,0,0,0,0,0,0,0],"split_type":[0,0,0,0,0,0,0,0,0,0,0,0,0,0,0],"sum_hessian":[5.996E3,2.922E3,3.074E3,7.31E2,2.191E3,1.096E3,1.978E3,7E1,6.61E2,3.06E2,1.885E3,1.14E2,9.82E2,2.94E2,1.684E3],"tree_param":{"num_deleted":"0","num_feature":"5","num_nodes":"15","size_leaf_vector":"1"}},{"base_weights":[6.9073933E-1,1.0569378E0,2.4588242E-1,1.1773266E0,8.153066E-1,3.9240724E-1,1.4623122E-1,1.4751385E-2,1.1168588E-2,1.085189E-2,7.6840203E-3,8.595609E-3,3.373002E-3,3.187486E-3,9.55606E-4],"categories":[],"categories_nodes":[],"categories_segments":[],"categories_sizes":[],"default_left":[0,0,0,0,0,0,0,0,0,0,0,0,0,0,0],"id":77,"left_children":[1,3,5,7,9,11,13,-1,-1,-1,-1,-1,-1,-1,-1],"loss_changes":[9.76687E2,9.471582E1,3.949774E1,3.7843994E1,1.3052795E1,2.7924881E1,1.4078419E1,0E0,0E0,0E0,0E0,0E0,0E0,0E0,0E0],"parents":[2147483647,0,0,1,1,2,2,3,3,4,4,5,5,6,6],"right_children":[2,4,6,8,10,12,14,-1,-1,-1,-1,-1,-1,-1,-1],"split_conditions":[2.009E3,2.006E3,2.012E3,2.001E3,5.4E1,3.9E1,7.4E1,1.4751385E-2,1.1168588E-2,1.085189E-2,7.6840203E-3,8.595609E-3,3.373002E-3,3.187486E-3,9.55606E-4],"split_indices":[3,3,3,3,0,0,0,0,0,0,0,0,0,0,0],"split_type":[0,0,0,0,0,0,0,0,0,0,0,0,0,0,0],"sum_hessian":[5.996E3,3.288E3,2.708E3,2.192E3,1.096E3,1.095E3,1.613E3,3.66E2,1.826E3,1.59E2,9.37E2,1.14E2,9.81E2,3.65E2,1.248E3],"tree_param":{"num_deleted":"0","num_feature":"5","num_nodes":"15","size_leaf_vector":"1"}},{"base_weights":[6.8384206E-1,1.046382E0,2.4342956E-1,1.1366111E0,7.2964346E-1,3.8849404E-1,1.4477149E-1,1.4604272E-2,1.081877E-2,1.03866095E-2,6.7565856E-3,7.897966E-3,3.255001E-3,3.2025832E-3,9.592604E-4],"categories":[],"categories_nodes":[],"categories_segments":[],"categories_sizes":[],"default_left":[0,0,0,0,0,0,0,0,0,0,0,0,0,0,0],"id":78,"left_children":[1,3,5,7,9,11,13,-1,-1,-1,-1,-1,-1,-1,-1],"loss_changes":[9.572688E2,9.316724E1,3.8714386E1,4.375757E1,1.1509644E1,2.7449402E1,1.3804058E1,0E0,0E0,0E0,0E0,0E0,0E0,0E0,0E0],"parents":[2147483647,0,0,1,1,2,2,3,3,4,4,5,5,6,6],"right_children":[2,4,6,8,10,12,14,-1,-1,-1,-1,-1,-1,-1,-1],"split_conditions":[2.009E3,2.007E3,2.012E3,2.001E3,5.4E1,5E1,1.1E1,1.4604272E-2,1.081877E-2,1.03866095E-2,6.7565856E-3,7.897966E-3,3.255001E-3,3.2025832E-3,9.592604E-4],"split_indices":[3,3,3,3,0,0,4,0,0,0,0,0,0,0,0],"split_type":[0,0,0,0,0,0,0,0,0,0,0,0,0,0,0],"sum_hessian":[5.996E3,3.288E3,2.708E3,2.557E3,7.31E2,1.095E3,1.613E3,3.66E2,2.191E3,1.06E2,6.25E2,1.47E2,9.48E2,3.5E2,1.263E3],"tree_param":{"num_deleted":"0","num_feature":"5","num_nodes":"15","size_leaf_vector":"1"}},{"base_weights":[6.770133E-1,1.0827127E0,2.9114783E-1,1.321514E0,1.0024731E0,5.697241E-1,2.0402797E-1,1.7940061E-2,1.2688425E-2,1.2525499E-2,9.612344E-3,9.67967E-3,5.1937527E-3,2.574069E-3,1.5365239E-4],"categories":[],"categories_nodes":[],"categories_segments":[],"categories_sizes":[],"default_left":[0,0,0,0,0,0,0,0,0,0,0,0,0,0,0],"id":79,"left_children":[1,3,5,7,9,11,13,-1,-1,-1,-1,-1,-1,-1,-1],"loss_changes":[9.384873E2,5.4684082E1,7.451257E1,1.5940674E1,2.1401611E1,1.4174622E1,2.3601555E1,0E0,0E0,0E0,0E0,0E0,0E0,0E0,0E0],"parents":[2147483647,0,0,1,1,2,2,3,3,4,4,5,5,6,6],"right_children":[2,4,6,8,10,12,14,-1,-1,-1,-1,-1,-1,-1,-1],"split_conditions":[2.008E3,2.002E3,2.01E3,3.6E1,5.2E1,4.1E1,2.015E3,1.7940061E-2,1.2688425E-2,1.2525499E-2,9.612344E-3,9.67967E-3,5.1937527E-3,2.574069E-3,1.5365239E-4],"split_indices":[3,3,3,0,0,0,3,0,0,0,0,0,0,0,0],"split_type":[0,0,0,0,0,0,0,0,0,0,0,0,0,0,0],"sum_hessian":[5.996E3,2.922E3,3.074E3,7.31E2,2.191E3,7.31E2,2.343E3,7E1,6.61E2,3.06E2,1.885E3,8E1,6.51E2,1.826E3,5.17E2],"tree_param":{"num_deleted":"0","num_feature":"5","num_nodes":"15","size_leaf_vector":"1"}},{"base_weights":[6.702549E-1,1.0256923E0,2.384705E-1,1.1430476E0,7.90154E-1,3.4705874E-1,1.1107109E-1,1.4327081E-2,1.08423615E-2,1.0528728E-2,7.444981E-3,7.3276935E-3,2.8956549E-3,1.4448912E-3,-1.2904161E-3],"categories":[],"categories_nodes":[],"categories_segments":[],"categories_sizes":[],"default_left":[0,0,0,0,0,0,0,0,0,0,0,0,0,0,0],"id":80,"left_children":[1,3,5,7,9,11,13,-1,-1,-1,-1,-1,-1,-1,-1],"loss_changes":[9.2012915E2,9.001001E1,3.7437958E1,3.5805176E1,1.2374268E1,3.220877E1,1.0032717E1,0E0,0E0,0E0,0E0,0E0,0E0,0E0,0E0],"parents":[2147483647,0,0,1,1,2,2,3,3,4,4,5,5,6,6],"right_children":[2,4,6,8,10,12,14,-1,-1,-1,-1,-1,-1,-1,-1],"split_conditions":[2.009E3,2.006E3,2.013E3,2.001E3,5.4E1,4.8E1,2.016E3,1.4327081E-2,1.08423615E-2,1.0528728E-2,7.444981E-3,7.3276935E-3,2.8956549E-3,1.4448912E-3,-1.2904161E-3],"split_indices":[3,3,3,3,0,0,3,0,0,0,0,0,0,0,0],"split_type":[0,0,0,0,0,0,0,0,0,0,0,0,0,0,0],"sum_hessian":[5.996E3,3.288E3,2.708E3,2.192E3,1.096E3,1.461E3,1.247E3,3.66E2,1.826E3,1.59E2,9.37E2,1.88E2,1.273E3,1.095E3,1.52E2],"tree_param":{"num_deleted":"0","num_feature":"5","num_nodes":"15","size_leaf_vector":"1"}},{"base_weights":[6.635613E-1,1.0613654E0,2.852053E-1,1.2957709E0,9.826034E-1,5.58373E-1,1.99777E-1,1.7639114E-2,1.2436051E-2,1.241424E-2,9.437401E-3,9.495889E-3,5.0891456E-3,2.5217778E-3,1.4572429E-4],"categories":[],"categories_nodes":[],"categories_segments":[],"categories_sizes":[],"default_left":[0,0,0,0,0,0,0,0,0,0,0,0,0,0,0],"id":81,"left_children":[1,3,5,7,9,11,13,-1,-1,-1,-1,-1,-1,-1,-1],"loss_changes":[9.023152E2,5.2691895E1,7.1647385E1,1.5682617E1,2.0876953E1,1.3680145E1,2.274453E1,0E0,0E0,0E0,0E0,0E0,0E0,0E0,0E0],"parents":[2147483647,0,0,1,1,2,2,3,3,4,4,5,5,6,6],"right_children":[2,4,6,8,10,12,14,-1,-1,-1,-1,-1,-1,-1,-1],"split_conditions":[2.008E3,2.002E3,2.01E3,3.6E1,4.8E1,4.1E1,2.015E3,1.7639114E-2,1.2436051E-2,1.241424E-2,9.437401E-3,9.495889E-3,5.0891456E-3,2.5217778E-3,1.4572429E-4],"split_indices":[3,3,3,0,0,0,3,0,0,0,0,0,0,0,0],"split_type":[0,0,0,0,0,0,0,0,0,0,0,0,0,0,0],"sum_hessian":[5.996E3,2.922E3,3.074E3,7.31E2,2.191E3,7.31E2,2.343E3,7E1,6.61E2,2.82E2,1.909E3,8E1,6.51E2,1.826E3,5.17E2],"tree_param":{"num_deleted":"0","num_feature":"5","num_nodes":"15","size_leaf_vector":"1"}},{"base_weights":[6.5693724E-1,1.0054119E0,2.3361127E-1,1.0927109E0,6.9896877E-1,3.740129E-1,1.3812564E-1,1.4055216E-2,1.03983935E-2,9.973915E-3,6.4684385E-3,8.262428E-3,3.206723E-3,3.0758227E-3,8.8358414E-4],"categories":[],"categories_nodes":[],"categories_segments":[],"categories_sizes":[],"default_left":[0,0,0,0,0,0,0,0,0,0,0,0,0,0,0],"id":82,"left_children":[1,3,5,7,9,11,13,-1,-1,-1,-1,-1,-1,-1,-1],"loss_changes":[8.844324E2,8.7224365E1,3.6266113E1,4.0844482E1,1.07413025E1,2.6173004E1,1.3584309E1,0E0,0E0,0E0,0E0,0E0,0E0,0E0,0E0],"parents":[2147483647,0,0,1,1,2,2,3,3,4,4,5,5,6,6],"right_children":[2,4,6,8,10,12,14,-1,-1,-1,-1,-1,-1,-1,-1],"split_conditions":[2.009E3,2.007E3,2.012E3,2.001E3,5.4E1,3.9E1,7.4E1,1.4055216E-2,1.03983935E-2,9.973915E-3,6.4684385E-3,8.262428E-3,3.206723E-3,3.0758227E-3,8.8358414E-4],"split_indices":[3,3,3,3,0,0,0,0,0,0,0,0,0,0,0],"split_type":[0,0,0,0,0,0,0,0,0,0,0,0,0,0,0],"sum_hessian":[5.996E3,3.288E3,2.708E3,2.557E3,7.31E2,1.095E3,1.613E3,3.66E2,2.191E3,1.06E2,6.25E2,1.14E2,9.81E2,3.65E2,1.248E3],"tree_param":{"num_deleted":"0",